tree
num_class=1
num_tree_per_iteration=1
label_index=0
max_feature_idx=6
objective=binary sigmoid:1
feature_names=ps_reg_01 ps_reg_02 ps_reg_03 ps_car_12 ps_car_13 ps_car_14 ps_car_15
feature_infos=[0:0.90000000000000002] [0:1.8] [-1:2.8635642127000001] [0.14142135619999999:1.2649110641000001] [0.32934947149999999:2.7072751693999999] [-1:0.57532599449999999] [0:3.7416573868]

Tree=0
num_leaves=64
num_cat=0
split_feature=4 6 2 2 4 5 5 5 2 0 2 0 0 2 2 4 2 2 0 2 5 4 4 2 6 0 2 2 2 2 3 0 4 5 3 2 5 5 2 2 2 4 5 0 5 0 5 4 2 4 2 2 4 0 2 3 5 2 6 4 4 4 5
split_gain=3.8499615586015352 1.2161216219326434 1.1067613002480812 2.2246087063808204 1.6835016835016816 1.4227958192523147 1.4492901605021871 1.4064936218072148 1.1055381400209043 0.73052276498555102 1.1199822330797815 3.1168831168831197 1.0205278592375322 0.70330087968341104 1.305325562928374 1.0153875925719831 0.85333333333333528 0.69093586064980173 0.67839321397985941 1.0949364676469031 1.4846723044397407 0.5488904571473654 1.0758448575599573 0.52494873547504994 0.51779929006522707 0.85938339241593553 1.0659352142110805 0.66829640947288027 0.56344500926721253 1.1724290780141899 0.75567885666245616 0.48556421131524985 0.61670628769024916 2.2326606537132818 1.0549561432740688 1.2204885736800613 0.53253313328332297 0.97030081710437344 0.67453163182187836 1.8059319990354439 0.90427350427349751 0.60112792489843514 0.51580188679247385 0.46365292266932556 0.90931290931291642 0.43758765778401454 0.43487179487179617 0.39999999999999858 0.39000000000000057 0.38486842105263008 0.38012121212113925 0.35552205808460258 0.59831546975726724 0.9828419660743748 0.96927498235353937 0.90655391120508 0.7569078155941682 1.6823348694316351 0.58095238095236823 0.6466898954703808 1.6390243902439003 0.33846773381657513 0.33834920634922128
threshold=0.94671025990000002 2.7370892179000008 1.0141190641500002 1.0857024993500002 1.0811017084500001 0.50174639155000011 0.39881072710000004 0.38736287360000005 -9.9999996826552254e-21 0.55000000000000016 0.61415587215000012 0.75000000000000011 0.8500000000000002 0.89215327680000012 1.2014310930000003 0.91503172505000008 1.0217937544500002 1.1038285555000003 0.75000000000000011 1.1201283321500002 0.39420804650000002 1.0464061379500003 1.0178697733500004 0.76750404464999999 3.3903632027500006 0.65000000000000002 1.3682790238000002 1.6978846909500003 1.5539264490000002 1.6270178389000001 0.39993749025000008 0.65000000000000002 0.83675262640000014 9.9999996826552254e-21 0.37067024925000008 0.61770740325000018 0.38865150955000011 0.39465161815000005 0.60492762645000009 0.65740964665000012 0.81259612545000015 0.67699048385000005 0.32687917365000008 0.8500000000000002 0.35846893940000008 0.45000000000000007 0.43485628290000006 1.0120911320500003 1.1625671946000005 1.1513691081000001 1.2839148596000003 0.94240378290000015 0.70847875655000003 0.75000000000000011 0.9550850607000001 0.37067024925000008 0.37396494620000015 1.0312310493000003 3.3903632027500006 0.80067120560000016 0.74494161945000015 0.64604646035000013 0.33473869575000009
decision_type=2 2 2 2 2 2 2 2 2 2 2 2 2 2 2 2 2 2 2 2 2 2 2 2 2 2 2 2 2 2 2 2 2 2 2 2 2 2 2 2 2 2 2 2 2 2 2 2 2 2 2 2 2 2 2 2 2 2 2 2 2 2 2
left_child=13 -2 5 4 -4 6 7 9 -7 -3 11 -11 23 31 15 17 -17 51 45 -20 48 22 -8 -12 25 -5 -27 -28 30 -30 -26 -1 36 -34 35 -35 -33 38 -38 -40 -41 -39 -36 44 -32 -19 -46 -9 -21 -31 -16 58 53 56 -54 -55 57 -53 -15 60 -60 -57 -52
right_child=1 2 3 24 -6 8 21 47 -10 10 12 -13 -14 14 50 16 -18 18 19 20 -22 -23 -24 -25 28 26 27 -29 29 49 43 32 33 34 42 -37 37 41 39 40 -42 -43 -44 -45 46 -47 -48 -49 -50 -51 62 52 54 55 -56 61 -58 -59 59 -61 -62 -63 -64
leaf_value=-0.019202334630350197 -0.013043478260869566 -0.019097744360902256 -0.017037037037037038 -0.019999999999999987 -0.010303030303030303 -0.011999999999999997 -0.019518072289156623 -0.012000000000000002 -0.017575757575757581 -0.020000000000000004 -0.01428571428571428 -0.0090909090909090905 -0.019999999999999997 -0.02 -0.02 -0.012000000000000002 -0.017333333333333333 -0.016521739130434782 -0.012592592592592586 -0.019999999999999987 -0.012727272727272728 -0.02 -0.015294117647058823 -0.017894736842105265 -0.0152 -0.012499999999999995 -0.018823529411764708 -0.014285714285714287 -0.013333333333333326 -0.02 -0.014285714285714277 -0.019139784946236561 -0.012307692307692309 -0.012000000000000002 -0.016 -0.018518518518518517 -0.018999999999999993 -0.016923076923076923 -0.010909090909090901 -0.019111111111111106 -0.013999999999999999 -0.019722222222222224 -0.019375 -0.02 -0.019999999999999997 -0.02 -0.016799999999999999 -0.015999999999999997 -0.016799999999999999 -0.016842105263157894 -0.019714285714285715 -0.019047619047619042 -0.014999999999999999 -0.019999999999999997 -0.019241706161137441 -0.018095238095238098 -0.012380952380952381 -0.012 -0.01999999999999999 -0.02 -0.011999999999999997 -0.014545454545454544 -0.018555555555555558
leaf_count=2056 23 133 27 20 33 25 83 20 33 20 28 22 58 122 160 20 30 23 27 39 22 210 34 38 25 32 34 21 30 26 21 1023 26 20 20 27 40 39 22 45 20 144 192 84 53 39 25 20 25 38 140 42 24 67 211 21 21 20 21 29 20 22 360
internal_value=0 -1.7598684210526316 -1.7686504610226321 -1.6929637526652452 -1.3333333333333333 -1.8176795580110496 -1.8438438438438438 -1.752212389380531 -1.5172413793103448 -1.7993311036789297 -1.7108433734939759 -1.4285714285714286 -1.8064516129032258 -1.8849198687005213 -1.8485049833887044 -1.7964497041420118 -1.52 -1.8138364779874214 -1.7028571428571428 -1.6106194690265487 -1.7209302325581395 -1.9388379204892967 -1.829059829059829 -1.6363636363636365 -1.745721271393643 -1.6261682242990654 -1.5402298850574712 -1.709090909090909 -1.7880794701986755 -1.6595744680851063 -1.8461538461538463 -1.8998366902558519 -1.8739184177997528 -1.7894736842105263 -1.8455598455598456 -1.574468085106383 -1.891972993248312 -1.8193548387096774 -1.6850393700787401 -1.5862068965517242 -1.7538461538461538 -1.9125683060109289 -1.9056603773584906 -1.8907103825136613 -1.797979797979798 -1.8709677419354838 -1.8974358974358974 -1.3999999999999999 -1.8749999999999996 -1.8125 -1.915151515151515 -1.8451612903225807 -1.8130841121495327 -1.7305699481865284 -1.8808510638297873 -1.8545454545454545 -1.5662650602409638 -1.6774193548387093 -1.9166666666666667 -1.7714285714285714 -1.609756097560975 -1.6279069767441861 -1.8879999999999999
internal_count=6395 1216 1193 469 60 724 666 339 58 299 166 42 124 5179 1505 845 50 795 175 113 86 327 117 66 409 107 87 55 302 94 208 3674 1618 285 259 47 1333 310 127 87 65 183 212 183 99 62 78 40 64 64 660 620 428 193 235 110 83 62 192 70 41 43 500
shrinkage=0.01


Tree=1
num_leaves=64
num_cat=0
split_feature=1 2 3 2 1 3 5 6 6 2 6 5 6 2 6 2 2 2 2 3 5 0 2 5 1 2 0 2 5 5 5 2 5 3 6 5 5 5 5 5 5 2 5 2 6 2 2 2 6 0 2 2 5 5 0 1 5 2 2 5 2 3 1
split_gain=2.4626787865609003 1.8515581303247473 1.7295100066412488 1.651606137433987 1.0075323667094835 2.661512787213411 2.5903707735351489 1.4463702146527311 1.0559301516611583 0.93771129588569124 0.91762620212469415 0.88999095916267379 0.81368188378286277 0.99536078887893353 0.79706282001643558 1.2382264451466654 2.4679181157794119 1.1036566947964275 2.8006947738857662 2.2058640076617735 0.83625694325630207 0.80869066657048094 0.79648940221375142 0.7754211440023937 0.75326627268157154 0.92224688828616763 1.0772252245503751 0.72581480831914291 0.71899288300079434 1.5698340863357743 0.72702546200940787 0.71819631423862518 0.97660459218626983 0.67947150386845578 0.66891261445740469 0.64173701633832536 0.62595872836845956 0.59851109806223235 1.3287902482766327 0.6862362910842279 0.58792816357037481 1.7761378572215136 0.53882518162072301 0.52873331440422078 0.43337149366572092 0.42797587490770184 0.38445978753634336 0.63959287612874505 0.58092977427349979 0.45932381768398045 1.0682684304606198 0.99293162325669471 2.0597516991008291 0.53585928089677992 0.28549246631132519 0.38798347130745015 0.38895407232059398 0.28540413330068759 0.87603893439069225 0.71281734825294762 0.46619724987392175 0.28126349897470959 0.39780703665989847
threshold=0.75000000000000011 1.1684658669500003 0.50024987510000007 0.98789547780000009 0.95000000000000007 0.44715768680000006 0.39325563690000004 3.2394512253000003 2.9142135623500005 1.0990052228000002 2.7370892179000008 0.32488458580000007 3.3903632027500006 0.73590927085000002 3.5348264453000007 0.43553113700000007 0.49717944575000006 0.89215327680000012 0.90915481105000018 0.44715768680000006 0.39096035080000008 0.75000000000000011 1.5699322445500001 0.49446915410000003 0.55000000000000016 0.64735032380000013 0.75000000000000011 1.5984367243500002 0.35993054215000003 0.35714142170000013 0.45776513990000006 -9.9999996826552254e-21 0.50174639155000011 0.39993749025000008 3.6736043311500004 0.3582596755500001 0.31368770230000004 0.40595558785000002 0.38865150955000011 0.36407416180000007 0.34720310315000008 0.58336303300000014 0.29196817915000006 1.0447786740000002 3.2394512253000003 0.79863161825000006 0.51082032695000013 0.51871226055000008 1.2071067812000003 0.35000000000000003 0.82632467240000007 0.67523140215000022 0.36131702870000004 0.38555154750000004 0.15000000000000005 0.15000000000000005 0.39974990230000002 1.4100085865500003 1.3179055139500002 0.39755502265000014 1.3682790238000002 0.41987661255000003 1.1500000000000001
decision_type=2 2 2 2 2 2 2 2 2 2 2 2 2 2 2 2 2 2 2 2 2 2 2 2 2 2 2 2 2 2 2 2 2 2 2 2 2 2 2 2 2 2 2 2 2 2 2 2 2 2 2 2 2 2 2 2 2 2 2 2 2 2 2
left_child=2 3 14 12 5 6 7 -5 -6 -9 -4 -3 -2 -14 23 54 21 24 -19 20 42 -17 28 36 25 26 -18 -24 29 61 57 32 -12 -15 40 -10 -1 38 39 -29 -28 -42 -20 -33 -25 -26 48 -48 -38 50 51 53 -53 -49 55 -16 -57 58 -30 60 -60 62 -13
right_child=1 11 10 4 8 -7 -8 9 35 -11 31 22 13 33 15 16 17 18 19 -21 -22 -23 27 44 45 -27 34 37 30 -31 -32 43 -34 -35 -36 -37 46 -39 -40 -41 41 -43 -44 -45 -46 -47 47 49 -50 -51 -52 52 -54 -55 -56 56 -58 -59 59 -61 -62 -63 -64
leaf_value=-0.019551122842152963 -0.01936066319076183 -0.019549953205860577 -0.012581220018105535 -0.011621118747984058 -0.013168416610956954 -0.019833679447026537 -0.0065120070796129007 -0.019819579758940335 -0.015385339685390471 -0.013835744919134316 -0.017987061507910147 -0.015524408022413696 -0.013167195930063965 -0.019819292817174265 -0.019812060939292993 -0.015813252051107 -0.018725077178106939 -0.0098348176733680358 -0.016893381331019953 -0.012131846031109518 -0.015619463149198929 -0.01076470815654133 -0.013679558095763806 -0.018088074802225542 -0.017908591373309201 -0.01931871023410708 -0.012218753443473371 -0.016181357282027992 -0.019533922285918909 -0.011813896076536701 -0.015688167787340911 -0.01981678540687852 -0.011880429254726757 -0.015679380688435312 -0.018543828070710117 -0.019128560223819948 -0.016734422783201083 -0.019057267783626045 -0.013336053520650494 -0.019825244707145577 -0.011829072791779695 -0.019825696278232292 -0.019518302036748633 -0.015833918552087985 -0.014114058827529903 -0.013820452670164166 -0.015674818412784505 -0.01980980789440898 -0.019232111366145208 -0.018750913463697578 -0.019813654490039065 -0.010578187981119723 -0.017809427657501087 -0.015816502587203313 -0.019813524705512252 -0.016673980835914547 -0.01980702376815759 -0.019819179010351438 -0.019816244581747702 -0.014488558891227899 -0.016004146158164007 -0.019814146338599813 -0.018703079031591924
leaf_count=461 88 153 22 39 24 27 21 22 27 20 22 28 24 35 60 30 184 20 41 26 38 22 26 23 21 403 21 44 143 20 29 40 20 29 31 57 39 52 37 39 20 25 132 20 21 20 29 41 831 2070 65 26 40 20 197 51 23 111 33 30 21 25 36
internal_value=0 -1.762665256616246 -1.8619419592486213 -1.6532992675814473 -1.5443045565222913 -1.4249831033030764 -1.2771751854827813 -1.4394674078673604 -1.686827469747366 -1.6970114999286421 -1.6285912228413508 -1.8172824899370621 -1.8000720114388942 -1.6640785200765742 -1.8676934928406856 -1.8264365083832419 -1.7923537352534424 -1.814839186988876 -1.7022203757945575 -1.7628740096943456 -1.8306082852716106 -1.367728909484937 -1.7860214838183541 -1.8830551953603323 -1.8547608466079808 -1.8705448834496741 -1.7825934029778372 -1.6794164734681629 -1.8303659270885595 -1.687730251033339 -1.8727289728831384 -1.7084979733088599 -1.507904908936808 -1.7943396865690722 -1.6120368797328934 -1.7925381928548314 -1.8862612956844507 -1.7264981349073298 -1.6488320923608284 -1.7893551109915495 -1.4982074427581513 -1.6271635778855902 -1.8896211340766085 -1.8489151170649132 -1.6191383423540247 -1.5914370522854253 -1.8762200823029931 -1.8626272741997281 -1.9120145830983268 -1.8664111874995346 -1.7728280927167994 -1.6660961106832795 -1.4960757142337631 -1.8500522275166527 -1.9329071509427913 -1.8616851729051278 -1.7647761631725483 -1.8988044827188031 -1.8581629517989724 -1.6960471685062934 -1.8333763534193399 -1.8015147933620521 -1.7312413103741948
internal_count=6395 1240 5155 413 237 129 102 81 108 42 124 827 176 88 5031 1365 1034 982 257 237 211 52 674 3666 725 684 281 198 476 109 367 102 42 64 97 84 3622 172 120 83 66 45 173 60 44 41 3161 2291 870 2262 192 127 66 61 331 134 74 338 227 84 54 89 64
shrinkage=0.01


Tree=2
num_leaves=64
num_cat=0
split_feature=4 6 2 2 4 5 5 1 2 1 2 3 5 5 4 2 4 5 5 5 4 5 4 1 1 6 2 2 3 5 1 2 5 2 5 4 2 2 4 4 5 5 5 2 2 4 2 2 6 4 5 3 2 4 2 2 5 2 5 2 2 4 2
split_gain=3.7361151551767762 1.174688886971694 1.0773500936837763 2.1797460645694287 1.6456901580634167 1.3711280327206623 1.4184715668575336 1.8921516649599539 1.0675756129940268 1.0670007100934527 1.8013906461554825 1.6301206080485144 1.5056922427506834 1.0391921126437751 0.94333566237210675 1.235905061235016 0.83012404492917824 1.0728044268523789 0.9241213751559556 0.8629084865227572 0.67436706742201125 0.77499301240765561 0.53968087234312634 1.1043679899182735 0.52720098805343696 0.5230723373617252 0.59169341131399733 1.2154524875401549 0.80864062858861985 0.58177942186351572 0.65286237885483445 0.92593215403969609 0.5225073030782994 0.45782020365712839 0.44964821127121013 0.43909954186103306 0.42766937276809358 0.40392533908379846 0.67465275096265032 0.9176770378807646 0.82964361229512917 0.59850324594653159 0.39786971213744238 0.39604652256286954 0.76313845382955492 0.34021680669138732 0.3774345012145659 0.89898578258180351 0.80922647844113271 0.52932483312349632 1.5502598264056644 0.79749337753716532 0.68176492248690579 0.43352940336728807 0.59804905960203314 0.6035509528581855 0.59329780383443875 0.49341969406214758 0.39926243681663465 0.36829899310714609 0.43384960486923774 0.3278415865261195 0.27196608431296809
threshold=0.94671025990000002 2.7370892179000008 1.0141190641500002 1.0857024993500002 1.0811017084500001 0.50174639155000011 0.39881072710000004 0.75000000000000011 0.41870318935000006 0.65000000000000002 1.2014310930000003 0.38710458850000007 0.39629533940000006 0.35846893940000008 0.63977978430000004 1.0590384687000001 0.67699048385000005 0.36228425435000006 0.33473869575000009 0.38203402430000005 0.99312200385000005 0.37229018515000012 1.0464061379500003 9.9999996826552254e-21 0.35000000000000003 3.3903632027500006 1.5539264490000002 1.6270178389000001 0.39993749025000008 0.39083243970000009 1.0500000000000003 1.5457603175000003 0.38865150955000011 1.1038285555000003 0.35846893940000008 1.1513691081000001 1.1038285555000003 9.9999996826552254e-21 0.9128631960000001 0.92547731650000009 0.35874779520000005 0.32886166430000002 0.36159368805000008 1.3865422975500004 1.4100085865500003 0.6317773040500001 0.68030320240000008 0.67523140215000022 2.1180339887500002 0.81857944880000011 0.31368770230000004 0.37067024925000008 0.51871226055000008 0.67480483825000015 0.5264859085500001 0.58603534785000011 0.36159368805000008 0.63319620905000007 0.37649686555000006 0.73590927085000002 0.74393377115000014 1.2274023744500002 0.73590927085000002
decision_type=2 2 2 2 2 2 2 2 2 2 2 2 2 2 2 2 2 2 2 2 2 2 2 2 2 2 2 2 2 2 2 2 2 2 2 2 2 2 2 2 2 2 2 2 2 2 2 2 2 2 2 2 2 2 2 2 2 2 2 2 2 2 2
left_child=9 -2 5 4 -4 6 7 13 -7 37 11 14 16 61 15 42 -13 18 -18 -19 62 -22 23 -8 -5 29 28 -28 -27 -26 -31 -32 36 -14 -30 -29 -16 -1 45 40 -40 -41 -11 -12 -45 -39 47 48 -47 53 -51 58 -53 54 -50 56 -56 -57 -52 -48 -61 -3 -15
right_child=1 2 3 24 -6 8 22 -9 -10 10 43 12 33 20 32 -17 17 19 -20 -21 21 -23 -24 -25 25 26 27 35 34 30 31 -33 -34 -35 -36 -37 -38 38 39 41 -42 -43 -44 44 -46 46 59 -49 49 50 51 52 -54 -55 55 57 -58 -59 -60 60 -62 -63 -64
leaf_value=-0.018987096198772136 -0.012772220995776004 -0.018892296131705628 -0.016691323270230207 -0.019663957970277344 -0.010032520536436352 -0.011752438181733223 -0.013647977381636048 -0.011984937543390599 -0.017232234112106695 -0.019633316022708753 -0.0192902982197211 -0.017841017178837289 -0.019646224362919528 -0.012706278138826773 -0.019635466143225061 -0.0127962772397637 -0.013187806928307804 -0.0082241986351691606 -0.01810869316541612 -0.013958527394203057 -0.014935869617091667 -0.018850274379406458 -0.019623177186605591 -0.018810354251383221 -0.01817683520663041 -0.014455530161884375 -0.01255390250955056 -0.019627125016675368 -0.016569466407347286 -0.017004940861228748 -0.010155900923584682 -0.01602799916235299 -0.016576164902175925 -0.015910421496509734 -0.019018404700988617 -0.016134916688649369 -0.016993297800563575 -0.018946344189237782 -0.018174814572854803 -0.015642192549160123 -0.013636745047683198 -0.019637871361402003 -0.01600939485800686 -0.014853542605400838 -0.018500025060715408 -0.014633544112829907 -0.019338434773130238 -0.014176355640532689 -0.019625006713643863 -0.013417169595308443 -0.017661605685473772 -0.016561955285492456 -0.019632876893174497 -0.018843743839502495 -0.017623865643373541 -0.019631407676275019 -0.01295887355504048 -0.016386120475299016 -0.013664697732219049 -0.016386148242624202 -0.018593497257147464 -0.016429125505918071 -0.015854780070483864
leaf_count=943 23 160 27 30 33 25 20 26 33 27 238 22 35 23 134 29 37 21 26 21 34 50 210 97 27 23 28 25 39 30 21 22 39 21 130 34 30 762 27 20 40 60 22 25 282 24 275 22 46 32 20 39 112 610 20 38 24 37 20 37 962 25 21
internal_value=0 -1.7249575126633983 -1.7335906070819793 -1.6589054577497384 -1.3028781317487719 -1.781972393303273 -1.8076627916302197 -1.7169969313116158 -1.4870052765972102 -1.8481661956884332 -1.7897970139850417 -1.698197767759738 -1.5512815170796517 -1.76006999462758 -1.7938793106592095 -1.6069079131577624 -1.4307969812399504 -1.3567718092945171 -1.5218592039672783 -1.1091400378898424 -1.6215051397836391 -1.7265888737642445 -1.9016591651776644 -1.7927878360492751 -1.711138023092573 -1.6909325321268336 -1.7354228152196123 -1.5985780269822121 -1.7974332187841684 -1.5668091883525472 -1.4740223215594999 -1.3160189936126436 -1.865722624703382 -1.8245199899788649 -1.8453254955027836 -1.7614606067740033 -1.915212521250188 -1.8622898750335406 -1.851647401464612 -1.7192559876131188 -1.5465554057288757 -1.8638945239207048 -1.8006229230954431 -1.8677854372525051 -1.8203069976503437 -1.8579661977254986 -1.8459122748643064 -1.8177151804363341 -1.8263274557160527 -1.8350563013193935 -1.7491757167597484 -1.8174441228471778 -1.8839717856255138 -1.8597683513071381 -1.7688001367705142 -1.6939249052268677 -1.507931679522422 -1.803040042471225 -1.5663144452443363 -1.8690188869362869 -1.8511743957314546 -1.855944092589372 -1.4208973101955935
internal_count=6395 1216 1193 469 60 724 666 339 58 5179 1009 464 183 313 281 78 127 105 63 42 128 84 327 117 409 379 279 87 192 100 73 43 203 56 169 59 164 4170 3227 147 67 80 49 545 307 3080 2318 1044 1022 998 223 191 151 775 165 119 44 75 40 1274 999 185 44
shrinkage=0.01


Tree=3
num_leaves=64
num_cat=0
split_feature=4 6 2 2 4 5 5 1 1 2 3 5 2 5 4 2 4 5 5 4 4 5 4 1 1 6 2 2 3 5 2 1 5 2 5 4 2 2 4 4 5 5 5 2 2 4 2 2 6 4 5 3 2 4 2 2 5 2 5 2 2 4 2
split_gain=3.6682922356221752 1.1530841858198073 1.0576683962403877 2.1391346225519783 1.6146570659472381 1.3461354009670004 1.3926923496941299 1.8568321437811903 1.0477699927596404 1.76861778773889 1.6000251705181086 1.4773244495141427 1.0477161663822017 1.0200154280295521 0.9259260404965346 1.2129869912005802 0.81449790824080281 1.0524315534976907 0.90687096341003581 0.8496958276328801 0.66181049081144749 0.76050517572485177 0.52989607066399458 1.0838537579028582 0.51731747136005879 0.51347239373785669 0.58082752601504239 1.1928393122400962 0.79376379136823516 0.57091705990021069 0.6416222688329114 1.1121389508347477 0.51292270606069224 0.44957966013702588 0.44139783328867566 0.43110657897730675 0.41990398203944324 0.39673863783718843 0.66231485340358631 0.90065697051851146 0.81399981013171896 0.58743848248953157 0.39054367464641615 0.3888747803852084 0.74904918416456212 0.33402715943884687 0.37046381028380893 0.88224567610711802 0.79418839819459208 0.51971390847165821 1.5214976635219273 0.78289006913311709 0.66921682333421018 0.42547082238036182 0.58702132686862285 0.59227792554403891 0.58218126617892096 0.48428839148242986 0.39176492276907027 0.3615786188634047 0.42579481847974421 0.32171559022813767 0.2668167698342252
threshold=0.94671025990000002 2.7370892179000008 1.0141190641500002 1.0857024993500002 1.0811017084500001 0.50174639155000011 0.39881072710000004 0.75000000000000011 0.65000000000000002 1.2014310930000003 0.38710458850000007 0.39629533940000006 -9.9999996826552254e-21 0.35846893940000008 0.63977978430000004 1.0590384687000001 0.67699048385000005 0.36228425435000006 0.33473869575000009 0.81606417850000013 0.99312200385000005 0.37229018515000012 1.0464061379500003 9.9999996826552254e-21 0.35000000000000003 3.3903632027500006 1.5539264490000002 1.6270178389000001 0.39993749025000008 0.39083243970000009 1.4719247258500001 0.95000000000000007 0.38865150955000011 1.1038285555000003 0.35846893940000008 1.1513691081000001 1.1038285555000003 9.9999996826552254e-21 0.9128631960000001 0.92547731650000009 0.35874779520000005 0.32886166430000002 0.36159368805000008 1.3865422975500004 1.4100085865500003 0.6317773040500001 0.68030320240000008 0.67523140215000022 2.1180339887500002 0.81857944880000011 0.31368770230000004 0.37067024925000008 0.51871226055000008 0.67480483825000015 0.5264859085500001 0.58603534785000011 0.36159368805000008 0.63319620905000007 0.37649686555000006 0.73590927085000002 0.74393377115000014 1.2274023744500002 0.73590927085000002
decision_type=2 2 2 2 2 2 2 2 2 2 2 2 2 2 2 2 2 2 2 2 2 2 2 2 2 2 2 2 2 2 2 2 2 2 2 2 2 2 2 2 2 2 2 2 2 2 2 2 2 2 2 2 2 2 2 2 2 2 2 2 2 2 2
left_child=8 -2 5 4 -4 6 7 13 37 10 14 16 -7 61 15 42 -12 18 -18 -19 62 -22 23 -8 -5 29 28 -28 -27 -26 31 -31 36 -13 -30 -29 -16 -1 45 40 -40 -41 -10 -11 -45 -39 47 48 -47 53 -51 58 -53 54 -50 56 -56 -57 -52 -48 -61 -3 -15
right_child=1 2 3 24 -6 12 22 -9 9 43 11 33 -14 20 32 -17 17 19 -20 -21 21 -23 -24 -25 25 26 27 35 34 30 -32 -33 -34 -35 -36 -37 -38 38 39 41 -42 -43 -44 44 -46 46 59 -49 49 50 51 52 -54 -55 55 57 -58 -59 -60 60 -62 -63 -64
leaf_value=-0.018805807236592333 -0.012647237261460576 -0.018711512832535682 -0.016530428637454957 -0.019475783058621483 -0.0099338102239582629 -0.011637030125383528 -0.013515431732119989 -0.011867845535995665 -0.019446027708413159 -0.019106224294405477 -0.017669501120822658 -0.019458563557097863 -0.0170663362884368 -0.01258246331610486 -0.01944811546597805 -0.01267136265130391 -0.01305934823891034 -0.0081375604216456475 -0.017934933933373573 -0.013828445207653878 -0.014791370580539634 -0.018669724778412989 -0.019436181021605527 -0.018630442562077489 -0.018002266117313023 -0.014315166911062216 -0.012431256038608549 -0.01944001441111767 -0.016409805853293085 -0.016031140628757292 -0.016842821608295505 -0.0095808214954362161 -0.016416348340178508 -0.015755887966468179 -0.018836639145798761 -0.015979019697300714 -0.016829543247970376 -0.0187653216817344 -0.018000298322896881 -0.01549114066537545 -0.013504411393307405 -0.019450451552327046 -0.015854904172993893 -0.014709674397394986 -0.018322926108076492 -0.014491945414730145 -0.019153872492728818 -0.014039040384375154 -0.019437957576187655 -0.013286613689803441 -0.01749169261372294 -0.016402469132437765 -0.019445601033361792 -0.018663612209313556 -0.017454899336926778 -0.019444174002381135 -0.012832992703032212 -0.016228381275450961 -0.013531836984202175 -0.01622840863898966 -0.018415583976243041 -0.016270994810663512 -0.015701478834835966
leaf_count=943 23 160 27 30 33 25 20 26 27 238 22 35 33 23 134 29 37 21 26 21 34 50 210 97 27 23 28 25 39 23 30 20 39 21 130 34 30 762 27 20 40 60 22 25 282 24 275 22 46 32 20 39 112 610 20 38 24 37 20 37 962 25 21
internal_value=0 -1.7083697694755653 -1.7169254968999534 -1.6429129747134761 -1.2901762354429143 -1.7648737187370176 -1.7903356744380108 -1.7004818068110428 -1.8304790866074123 -1.7726266423460271 -1.6818487700112601 -1.536273485279253 -1.4725661700822705 -1.7431626613573541 -1.7766644394851585 -1.5913961387249562 -1.4169152138429453 -1.3435830474260817 -1.5071265769264504 -1.098291769509778 -1.6058600368712059 -1.7099840201808418 -1.8834965676332531 -1.7755956309871972 -1.6946692677199675 -1.6746508896552861 -1.7187405862920941 -1.5831363877784879 -1.7801930300875815 -1.55165265073382 -1.4597253993292276 -1.3030707786649809 -1.8478589654074045 -1.8069822515271594 -1.8276556659841987 -1.7445374085047356 -1.8969053693519911 -1.8444781393163929 -1.8339285702521262 -1.70272797232832 -1.531611008534246 -1.846053323452115 -1.7833567741624876 -1.8499206037557661 -1.8028646542123152 -1.8401908230782025 -1.8282445556840246 -1.8003032341507077 -1.80883722228058 -1.817486865145578 -1.7323730596303124 -1.8000235332466756 -1.8659566350826209 -1.8419792816152789 -1.7518420861821278 -1.677647917508011 -1.4933706019130575 -1.7857645496318113 -1.551165567167913 -1.8511418955345036 -1.8334573312307314 -1.838170271900365 -1.4071026329621978
internal_count=6395 1216 1193 469 60 724 666 339 5179 1009 464 183 58 313 281 78 127 105 63 42 128 84 327 117 409 379 279 87 192 100 73 43 203 56 169 59 164 4170 3227 147 67 80 49 545 307 3080 2318 1044 1022 998 223 191 151 775 165 119 44 75 40 1274 999 185 44
shrinkage=0.01


Tree=4
num_leaves=64
num_cat=0
split_feature=4 6 2 2 4 5 5 1 1 2 3 5 2 5 4 2 4 5 5 5 4 5 4 1 1 6 2 2 3 5 1 2 5 2 5 4 2 2 4 4 5 5 5 2 2 4 2 2 6 4 5 4 4 2 2 5 2 3 6 4 2 2 4
split_gain=3.6042229983322613 1.13256589925345 1.0390476432892228 2.1004607378402511 1.5848949315531051 1.3224803140726635 1.3684176396860721 1.823229288496691 1.0296140476302753 1.73763357763562 1.5714893417614917 1.4503716778512796 1.0287563177467369 1.0018986526330593 0.90947475038382208 1.1912052833086335 0.79960324373399772 1.0328871702204978 0.89046778870274323 0.84272386903732155 0.64988834302464227 0.74681285274749598 0.52071440487304699 1.064432786442211 0.50800266353854795 0.50436437184265515 0.57054030001933143 1.1713224558302144 0.77969575350903142 0.56059615245923311 0.63600797413297272 0.89131367438960396 0.50391524349311112 0.44182862160922554 0.43363744024358652 0.42358559843971477 0.41262137699254708 0.38998374898801558 0.65067236364438941 0.88457258596426414 0.79913984901148183 0.57702568797910203 0.38364999409262879 0.38215169947352479 0.73573538104034242 0.3282072744227662 0.36388417626631053 0.8664107652699613 0.7799786696979254 0.51079688721381444 1.0854017505119771 0.66457077646555263 0.48623052389586974 0.57663888585689449 0.58159935670846608 0.57159674159063556 0.4757021674766122 0.43360897029438661 0.87270531549853558 0.47307634300167933 0.35528624388007302 0.41820825889112712 0.31594939898920416
threshold=0.94671025990000002 2.7370892179000008 1.0141190641500002 1.0857024993500002 1.0811017084500001 0.50174639155000011 0.39881072710000004 0.75000000000000011 0.65000000000000002 1.2014310930000003 0.38710458850000007 0.39629533940000006 -9.9999996826552254e-21 0.35846893940000008 0.63977978430000004 1.0590384687000001 0.67699048385000005 0.36228425435000006 0.33473869575000009 0.38203402430000005 0.99312200385000005 0.37229018515000012 1.0464061379500003 9.9999996826552254e-21 0.35000000000000003 3.3903632027500006 1.5539264490000002 1.6270178389000001 0.39993749025000008 0.39083243970000009 1.0500000000000003 1.5457603175000003 0.38865150955000011 1.1038285555000003 0.35846893940000008 1.1513691081000001 1.1038285555000003 9.9999996826552254e-21 0.9128631960000001 0.92547731650000009 0.35874779520000005 0.32886166430000002 0.36159368805000008 1.3865422975500004 1.4100085865500003 0.6317773040500001 0.68030320240000008 0.67523140215000022 2.1180339887500002 0.79632419725000014 0.31368770230000004 0.83675262640000014 0.67480483825000015 0.5264859085500001 0.58603534785000011 0.36159368805000008 0.63319620905000007 0.37067024925000008 3.6736043311500004 0.82814233390000014 0.73590927085000002 0.74393377115000014 1.2274023744500002
decision_type=2 2 2 2 2 2 2 2 2 2 2 2 2 2 2 2 2 2 2 2 2 2 2 2 2 2 2 2 2 2 2 2 2 2 2 2 2 2 2 2 2 2 2 2 2 2 2 2 2 2 2 2 2 2 2 2 2 2 2 2 2 2 2
left_child=8 -2 5 4 -4 6 7 13 37 10 14 16 -7 62 15 42 -12 18 -18 -19 -15 -22 23 -8 -5 29 28 -28 -27 -26 -31 -32 36 -13 -30 -29 -16 -1 45 40 -40 -41 -10 -11 -45 -39 47 48 -47 52 51 -51 53 -50 55 -55 -56 58 -52 -59 -48 -62 -3
right_child=1 2 3 24 -6 12 22 -9 9 43 11 33 -14 20 32 -17 17 19 -20 -21 21 -23 -24 -25 25 26 27 35 34 30 31 -33 -34 -35 -36 -37 -38 38 39 41 -42 -43 -44 44 -46 46 60 -49 49 50 57 -53 -54 54 56 -57 -58 59 -60 -61 61 -63 -64
leaf_value=-0.018629490891078015 -0.012524462114797455 -0.018535656392130048 -0.016373285154087862 -0.019293020989452899 -0.0098365450929649885 -0.011523523480282164 -0.013385369845129461 -0.01175270633917354 -0.019264114884084773 -0.018927309240543685 -0.017502325018690892 -0.019276294119318454 -0.016904458584812061 -0.013935788697424858 -0.019266143299632544 -0.012548655368001902 -0.01293322117765452 -0.008042246505972692 -0.017765655132178388 -0.013710534646991894 -0.01464984013043296 -0.018494081377701588 -0.019254548851201078 -0.018455406170525244 -0.017832221175608703 -0.014177592529953405 -0.012310739526270417 -0.019258272880988265 -0.016253834133963179 -0.016693520892783389 -0.0099493136683218557 -0.015712437538933654 -0.016260226861448068 -0.015604766568830506 -0.018659871553967422 -0.015826616142722169 -0.016669689833317874 -0.01858925111595813 -0.017830304299194844 -0.015343353733847341 -0.013374553963970992 -0.019268413045613917 -0.015703843089381636 -0.014568745632192213 -0.018150521709762831 -0.01435319251375289 -0.018974499164860274 -0.013904395111021466 -0.019256274899078357 -0.017385979612479438 -0.014020236299083061 -0.012744366808645796 -0.018596963299981499 -0.017290141056337922 -0.019262314403150311 -0.012709355383794077 -0.016074238050870483 -0.016921288911910179 -0.019339220014499236 -0.01897611119730961 -0.016074265023792552 -0.01824241815967895 -0.016116479979900657
leaf_count=943 23 160 27 30 33 25 20 26 27 238 22 35 33 44 134 29 37 21 26 21 34 50 210 97 27 23 28 25 39 30 21 22 39 21 130 34 30 762 27 20 40 60 22 25 282 24 275 22 46 21 30 30 531 20 38 24 37 68 21 132 37 962 25
internal_value=0 -1.6921909408815177 -1.7006734925724221 -1.6272980334894254 -1.2777093430919932 -1.7482120446467815 -1.7734585953983075 -1.6843699780225205 -1.8132621614614328 -1.755897164451828 -1.6658965059126201 -1.5215961207202022 -1.4584281261575842 -1.7266792577644106 -1.7598925657552384 -1.5762368028332701 -1.4033139623216613 -1.3306468663272795 -1.4927073721156074 -1.0876170479947083 -1.5905716781002752 -1.6937855670292441 -1.8658351672131217 -1.7588444304217863 -1.6786017931210038 -1.6587603330654097 -1.7024703433302908 -1.5680429652957169 -1.7633954899931805 -1.5368317715419413 -1.4457253577172868 -1.2897315742912625 -1.8304758493780575 -1.7899041587822959 -1.8104536764469805 -1.7280381580881892 -1.879107288890804 -1.8271438170481447 -1.8166814295204372 -1.6866046101819792 -1.516989363652899 -1.828692454183263 -1.7665354639465687 -1.8325361051969749 -1.7858759488825071 -1.8228904669253359 -1.8110453142632483 -1.7833452892822641 -1.7918055554965462 -1.8003806851317345 -1.7316473257382692 -1.4655130172783166 -1.8302073431258914 -1.7353131820723451 -1.6617617214391409 -1.4791155915192389 -1.7689343472467951 -1.7857364254835935 -1.6210310790894382 -1.82774741126596 -1.8337454143954246 -1.8162104663276646 -1.8208702514845221
internal_count=6395 1216 1193 469 60 724 666 339 5179 1009 464 183 58 313 281 78 127 105 63 42 128 84 327 117 409 379 279 87 192 100 73 43 203 56 169 59 164 4170 3227 147 67 80 49 545 307 3080 2318 1044 1022 998 302 51 696 165 119 44 75 251 51 200 1274 999 185
shrinkage=0.01


Tree=5
num_leaves=64
num_cat=0
split_feature=4 3 5 5 0 5 5 5 4 3 5 3 4 5 5 3 5 4 2 2 2 3 2 5 5 0 2 2 2 2 0 4 4 4 5 2 4 4 5 5 5 2 5 3 0 2 5 4 4 4 4 3 2 2 6 2 6 2 6 5 5 4 2
split_gain=4.035632141332826 1.3360743476255266 1.2842305815138388 1.7085480434872125 2.291779062068926 1.5261442973463772 1.1762071319347598 2.0411682257589732 1.7615743033414191 1.1260041339021338 0.69235062007351189 1.0137235581997857 0.88531695362826213 0.96569257008599152 3.6219988051743428 1.2964932845665231 1.3124081957582518 0.80553459648438874 0.74948042540438564 3.7377284518692306 0.67828113783917132 0.67010382898320131 0.96390603779553885 0.72031630803761004 0.7196118525315427 0.97821446172748949 0.66982422788139218 2.0601381913637482 0.60457403164485868 1.4630417134283533 0.60180303194283624 0.78589489625869646 1.3242811781283308 1.0615065880765542 2.3769042527255166 1.8235774480646256 0.9652920819252131 0.63962357610148501 1.058527061449297 0.75499558603240757 1.0296772283523765 0.98308017372785272 0.53584393269193242 0.87199249716898919 0.5202804494762745 1.1899338687935312 0.49731364822184787 0.55701186855912965 0.72200794605527108 0.78816925165014595 0.48423711729581953 0.46228614127270617 0.43965589153799556 0.78007112842227144 0.41523339351177668 0.39068642826133271 0.38741392739774483 0.34720040276769026 0.33968512457710176 0.31546395999156118 1.0045040202021198 0.31360265710941349 1.402108648869671
threshold=0.83675262640000014 0.52428824425000009 0.39855990275000003 0.47169637675000003 0.8500000000000002 0.39755502265000014 0.41988086800000007 0.46097690385000006 1.4682237281500001 0.55670399120000014 0.32870958950000001 0.42996224345000006 0.84187904710000006 0.31882588455000005 0.32062435290000008 0.42408725105000006 0.32733766590000007 0.96327394470000016 0.53648151425000012 0.43553113700000007 9.9999996826552254e-21 0.42996224345000006 0.91651507555000011 0.40329885370000007 0.40963391020000006 0.65000000000000002 1.0641897921500003 0.76219253340000004 1.1465982214500003 1.2207835531500002 0.65000000000000002 0.60977742380000011 0.72616072340000015 0.71495968790000008 0.36159368805000008 0.8676476632500002 0.6987000911500002 0.68564833285000015 0.40853394595000009 0.35390659115000006 0.37060755395000006 1.0085571258000001 0.41297699250000003 0.39956225560000008 0.65000000000000002 0.62873876790000016 9.9999996826552254e-21 1.1390173250500002 0.89630209080000023 0.92547731650000009 1.0178697733500004 0.41987661255000003 1.5539264490000002 1.7084349172000002 3.2394512253000003 1.5699322445500001 3.3903632027500006 1.3363897210000002 1.5731321850000002 0.38255717970000008 0.37775644260000008 0.57017828175000018 0.62524990010000014
decision_type=2 2 2 2 2 2 2 2 2 2 2 2 2 2 2 2 2 2 2 2 2 2 2 2 2 2 2 2 2 2 2 2 2 2 2 2 2 2 2 2 2 2 2 2 2 2 2 2 2 2 2 2 2 2 2 2 2 2 2 2 2 2 2
left_child=30 2 5 21 20 10 -3 9 -9 -8 12 18 -2 46 -15 16 -16 -18 19 59 -5 22 44 -24 -25 -26 27 -13 -20 -30 42 58 33 36 35 -35 37 38 56 -39 -41 -42 61 -44 -4 -46 47 48 -14 -50 51 -51 -31 -54 -36 -28 -33 -27 -32 60 -12 62 -1
right_child=1 6 3 4 -6 -7 7 8 -10 -11 11 26 13 14 15 -17 17 -19 28 -21 -22 -23 23 24 25 57 55 -29 29 52 31 32 -34 34 54 -37 -38 39 -40 40 41 -43 43 -45 45 -47 -48 -49 49 50 -52 -53 53 -55 -56 -57 -58 -59 -60 -61 -62 -63 -64
leaf_value=-0.019099481190949018 -0.012908493265472947 -0.018154404870006139 -0.019103478158254583 -0.014577035998690556 -0.011166563671549831 -0.011176469634577397 -0.013727734530272208 -0.018428570205521699 -0.012111441682936741 -0.0071648077928621401 -0.018377273247749557 -0.017809158773723088 -0.018301231270352034 -0.0071405454445928962 -0.019133290290024588 -0.011887519713924878 -0.017306009344951464 -0.011888404834438145 -0.018145370374990026 -0.0098295645372953547 -0.018468165586783485 -0.018831218898820494 -0.019147267878663225 -0.013109094418382925 -0.013433892890480699 -0.019179781086513154 -0.018142486135766082 -0.010442796136990709 -0.011879406362766125 -0.018557105217208672 -0.017674365392705501 -0.017542112763251478 -0.01815512943002684 -0.01546315805805101 -0.019112529680318666 -0.0071100064893998725 -0.018644216793790334 -0.01243158171002637 -0.013427579879906176 -0.019108021155235039 -0.016771404395617109 -0.011177892856471503 -0.014094971664303752 -0.018042700183888701 -0.013951764636671493 -0.018588818629090089 -0.018556983817325443 -0.019195721455541746 -0.012538594580150251 -0.015718187502118425 -0.014281287224507593 -0.01913624715373 -0.014157432280969382 -0.019123255861129288 -0.015649566883080654 -0.015074502681048521 -0.015239741415463868 -0.016194108966050086 -0.018862592529626659 -0.019113936091956722 -0.013124837786232557 -0.018418498730116899 -0.015840177947257426
leaf_count=115 32 39 144 26 35 20 22 48 28 20 54 29 46 20 61 22 22 22 399 30 58 276 29 33 28 37 39 32 22 68 139 533 829 22 35 20 170 24 28 35 34 20 32 75 31 78 68 28 30 35 33 29 32 21 23 29 31 27 315 43 20 1572 98
internal_value=0 -1.6921211533927702 -1.7055155100581609 -1.768390784175339 -1.5470319365072924 -1.6663084534667945 -1.5140414748294948 -1.4144469162336342 -1.6101216270764815 -1.0602593503911788 -1.6749773322194828 -1.7096246557592112 -1.6117162768722986 -1.6363996211916239 -1.5059150787424909 -1.6306276035586138 -1.723225063987543 -1.4596936397689604 -1.740122835484758 -1.6133297188544762 -1.7263646083645539 -1.8069668355244632 -1.755325372822603 -1.6304593144165629 -1.5645161301264483 -1.6554893635433099 -1.5467666599886152 -1.3944723563048487 -1.7745084701709919 -1.662821121950907 -1.7974913376965744 -1.7754222062559815 -1.7566845488345688 -1.7066653343138314 -1.5112521033746837 -1.1485192777483904 -1.7289981911449608 -1.6963441679907667 -1.7226917546703018 -1.5583149005907886 -1.6432926474301695 -1.4699407010309435 -1.8238313898430736 -1.686209399125 -1.8313520047275536 -1.7269933122132259 -1.707700734506165 -1.6576369958813804 -1.6152372375192707 -1.5374004719013905 -1.6251213034231733 -1.7266927823572655 -1.7491702622808569 -1.6124789083895239 -1.7739196761815827 -1.6833899648043826 -1.7415565073235304 -1.7920248360852891 -1.8498795951504223 -1.7750085384977636 -1.6957616822906285 -1.8320811343609513 -1.7599845693038461
internal_count=6395 2245 2088 802 119 1286 157 118 76 42 1266 818 448 416 147 127 105 44 689 147 84 683 407 154 125 92 129 61 542 143 4150 2258 1804 975 100 42 875 705 592 113 89 54 1892 107 253 109 269 201 173 127 97 64 121 53 58 68 564 64 454 117 74 1785 213
shrinkage=0.01


Tree=6
num_leaves=64
num_cat=0
split_feature=4 3 0 2 2 2 2 2 6 2 6 1 0 6 4 2 0 2 2 6 2 4 4 2 2 2 1 2 1 2 2 2 2 4 4 6 0 4 4 4 6 2 4 4 1 3 2 2 6 3 4 4 3 0 2 1 4 4 1 2 0 2 4
split_gain=3.9705494193049162 1.314233775451612 1.1628770043823806 3.3571857075402249 1.8560906673094237 1.6591138362603921 1.4952108279637741 2.5403805214420174 0.98454174788253113 0.90154647770028618 0.77352305639669794 0.7648506975132392 0.8952041367138861 0.67087268030315528 0.66573630531276962 0.96423200875339532 0.64719306332214188 0.63306384794907444 1.2708019218057416 1.2188820398805547 0.86512625286155753 0.72812451195807171 1.5496827311656602 0.91397571540500167 2.1975055553118068 0.93702024790215432 1.0613674840028864 1.3341144587119373 0.73230310738671278 0.72186936102019672 0.69463635987236216 0.64245948596533253 1.6714942543280813 0.63479047263297161 1.1971179717615286 0.71121970328670159 0.59212665808263409 0.77261588059673159 1.3015164004257258 1.0430171920789917 1.8389716803576164 1.3084494366989148 0.94890401184352413 0.62856449899857125 1.0586966620688401 0.61291929461850714 0.61764244499460119 1.1202335773065215 1.6042016422262151 1.4862233248135581 0.82428124443578099 0.54235745284499615 0.51420284856561693 0.42548554470562294 0.41823808734199019 0.80805077850033058 0.65351822138873672 0.72297128641558572 0.38364541138412278 0.37449590438427549 1.2667454427664779 2.2889622397615312 0.51152497880842418
threshold=0.83675262640000014 0.52428824425000009 0.55000000000000016 0.5576176301500001 0.43553113700000007 0.49717944575000006 0.89215327680000012 0.95147909750000015 3.5348264453000007 0.5318011034500002 3.6736043311500004 0.55000000000000016 0.8500000000000002 2.9142135623500005 1.3946389168000002 0.5774404097000001 0.35000000000000003 1.3557746667000001 1.3102957464500002 3.0811388301000004 1.5539264490000002 1.0245135843500004 1.0045916527000001 1.1465982214500003 1.2278028894000002 1.0525266275000003 0.55000000000000016 0.93290539280000007 0.65000000000000002 1.6270178389000001 0.81028542060000019 1.0789172716000002 1.0020290820000002 0.97813914875000008 0.95451839750000012 3.5348264453000007 0.65000000000000002 0.60977742380000011 0.72616072340000015 0.71495968790000008 3.2394512253000003 0.87553553220000013 0.6987000911500002 0.68564833285000015 0.75000000000000011 0.42373340265000009 0.69664370355000005 0.59869644385000009 3.0811388301000004 0.37067024925000008 0.61478847380000012 0.91503172505000008 0.37067024925000008 0.75000000000000011 0.64735032380000013 9.9999996826552254e-21 0.87123451870000002 0.98762487430000012 0.15000000000000005 0.67523140215000022 0.35000000000000003 0.69888300165000017 0.75662397760000011
decision_type=2 2 2 2 2 2 2 2 2 2 2 2 2 2 2 2 2 2 2 2 2 2 2 2 2 2 2 2 2 2 2 2 2 2 2 2 2 2 2 2 2 2 2 2 2 2 2 2 2 2 2 2 2 2 2 2 2 2 2 2 2 2 2
left_child=36 2 6 4 -4 -6 54 -8 -9 -7 17 13 -13 -3 -15 -16 -10 18 19 -5 -19 22 23 25 -25 26 30 28 -28 -22 33 32 -23 34 35 51 59 -38 39 42 -41 -42 43 45 52 46 47 -39 49 -49 -48 -21 -45 -37 55 56 -2 -58 -40 -1 61 -61 -63
right_child=1 11 3 10 5 9 7 8 16 -11 -12 12 -14 14 15 -17 -18 20 -20 21 29 31 -24 24 -26 -27 27 -29 -30 -31 -32 -33 -34 -35 -36 53 37 38 58 40 41 -43 -44 44 -46 -47 50 48 -50 -51 -52 -53 -54 -55 -56 -57 57 -59 -60 60 -62 62 -64
leaf_value=-0.018281119404511055 -0.012969780599431028 -0.011123440833062246 -0.016954528356493671 -0.01897562977055809 -0.0081812406069611526 -0.017125632642771112 -0.0089919498254852816 -0.018988134589023951 -0.012634426850267838 -0.011593071441136433 -0.017872153221532568 -0.019068353357983799 -0.013889524237185905 -0.017506288210581922 -0.011358015971329087 -0.016997813803314187 -0.017289166471406495 -0.018986870346607759 -0.012826924882346144 -0.018933861010826083 -0.014331212251745282 -0.017385478620235706 -0.01097914447774568 -0.010811687867871065 -0.017777946609212305 -0.019000045216157804 -0.013977262371224439 -0.011249649162896296 -0.019035827249998905 -0.017445930659091679 -0.018421812266571146 -0.018982544968707965 -0.011158540537605078 -0.019003653304115686 -0.011002954215751697 -0.016949884216532027 -0.018331118263262558 -0.01766608475590865 -0.016147795555119807 -0.018037517129470441 -0.015217426441844754 -0.0090315815189655375 -0.018475388776086871 -0.014934887533956227 -0.012140668213626145 -0.014536869933368463 -0.01434815406828977 -0.01895320232909313 -0.010943610941338663 -0.012801777011485094 -0.018060992468540454 -0.014969643554331764 -0.018072718617838594 -0.013287690104965992 -0.018957692850679747 -0.018207510319041158 -0.018311676486731276 -0.014781042763710455 -0.018090908591375007 -0.010270582582787808 -0.018168924166787028 -0.018026650639292888 -0.015390916243906686
leaf_count=1224 20 25 39 74 33 21 20 45 25 27 248 32 23 26 31 20 23 97 39 45 42 127 25 39 34 52 24 36 22 103 72 61 20 25 20 20 454 124 43 44 32 24 170 40 29 36 26 40 30 26 310 20 44 35 136 321 60 38 786 23 514 86 45
internal_value=0 -1.6765897570664994 -1.6898807638695141 -1.6567491888672625 -1.3364778936985635 -1.1636860438317727 -1.7573112336090122 -1.5467100768593709 -1.6859646207878998 -1.4013676136537314 -1.6867822599541733 -1.4999132984630019 -1.6902360292340961 -1.3972840151320642 -1.4898343315515767 -1.3568968738778873 -1.4864746596452505 -1.6626461937888424 -1.6351894561466251 -1.6534954130522199 -1.7522656345195755 -1.6268201116565377 -1.5830788658362684 -1.6103981090057959 -1.4055469541555352 -1.6507071192200085 -1.6100675959241906 -1.4136886228745313 -1.6396875319710984 -1.6543395951925584 -1.6780308168615741 -1.725452416432621 -1.6537490369823979 -1.6064015995639016 -1.5538996271745618 -1.6295246202072264 -1.7811515934766609 -1.7592510350764685 -1.7406645462732493 -1.6910566058563199 -1.4972803763590399 -1.2565692989965052 -1.7132048470360481 -1.680816716727727 -1.5439338731305858 -1.7069478205636788 -1.7233487304788442 -1.6408444409827201 -1.4784027547694834 -1.6529737621262821 -1.777367487008475 -1.7713871751506001 -1.6578687110907273 -1.461911428359284 -1.7987110275087865 -1.7686441025128894 -1.6269211486280133 -1.6942561606934352 -1.7990125914089461 -1.8072914893347289 -1.76914511363169 -1.6097942316172789 -1.7121254661755627
internal_count=6395 2245 2088 1400 120 81 688 113 93 48 1280 157 55 102 77 51 48 1032 790 751 242 677 469 444 73 371 319 82 46 145 237 208 147 165 140 120 4150 2258 1804 975 100 56 875 705 113 592 556 220 96 66 336 65 84 55 575 439 118 98 829 1892 668 154 131
shrinkage=0.01


Tree=7
num_leaves=64
num_cat=0
split_feature=4 3 5 5 5 5 5 4 3 6 4 5 1 1 5 2 3 1 2 2 3 1 1 2 2 5 2 2 2 4 4 1 4 4 4 5 4 2 4 2 4 5 5 1 4 4 4 3 3 2 3 6 5 2 2 2 1 2 6 2 2 6 1
split_gain=3.9091718227264209 1.2934408460873783 1.2616485514881788 1.6807775152572049 1.5037501472158965 1.1532685547998938 2.0057912471706487 1.7226267058702831 1.11134483318477 0.78097534104406918 1.0709121190133359 0.68020669219777119 1.1370134334841282 1.9631752326781111 1.8489442489923107 2.8297137622405764 1.0017681013995343 0.87466276595624493 0.737410885305394 3.6357251697976096 0.65717670763910974 1.1740813044645506 1.0092071783961956 0.65576715666378504 2.0195064547926798 0.60055685319720453 0.58946081510509885 1.4273343249190305 0.55574021702068421 0.64436384205419017 1.2578688725316169 0.80684281066623953 0.56968489750681783 1.1653336300403083 0.61329059079275794 1.3845948536893928 0.63319372398132145 0.67419044776414694 1.0524466364403082 1.861280410400088 0.75448882137862938 1.395679970382993 0.84789035105507082 0.554025115717522 0.53123226559969794 0.74720910098228899 0.52394616681584694 0.57334159799742679 0.55868572349120882 0.647030223635781 0.89689803572555604 1.1261113003442844 0.43448683069907545 0.42982015778071059 0.76177883423943626 0.41668189142416523 0.4046011570895871 2.1977265689751846 0.67118098279664196 0.82828420385573764 0.38199457750160093 0.38109910748494258 0.85747538605389195
threshold=0.83675262640000014 0.52428824425000009 0.39855990275000003 0.47169637675000003 0.39755502265000014 0.41988086800000007 0.46097690385000006 1.4682237281500001 0.55670399120000014 3.5348264453000007 1.1965044489500001 0.32870958950000001 1.2500000000000002 0.45000000000000007 0.31882588455000005 1.0732543572000002 0.42996224345000006 0.8500000000000002 0.53648151425000012 0.43553113700000007 0.42996224345000006 0.75000000000000011 0.95000000000000007 1.0641897921500003 0.76219253340000004 0.51956632320000018 1.1465982214500003 1.2207835531500002 0.51082032695000013 0.72616072340000015 0.63977978430000004 1.4500000000000002 0.64604646035000013 0.64423700765000003 0.71495968790000008 0.35979159965000007 0.69464450265000011 0.60182009985000018 0.67699048385000005 0.5609700726500001 0.68884259295000017 0.37808728570000011 0.40373250875000005 1.2500000000000002 0.70728207385000008 0.71025545385000022 0.84613817470000019 0.38710458850000007 0.39956225560000008 0.62873876790000016 0.41987661255000003 3.6736043311500004 0.3582596755500001 1.5539264490000002 1.7084349172000002 0.90260039335000009 0.15000000000000005 1.1625671946000005 3.2394512253000003 0.73845274405000005 1.5699322445500001 2.9142135623500005 0.35000000000000003
decision_type=2 2 2 2 2 2 2 2 2 2 2 2 2 2 2 2 2 2 2 2 2 2 2 2 2 2 2 2 2 2 2 2 2 2 2 2 2 2 2 2 2 2 2 2 2 2 2 2 2 2 2 2 2 2 2 2 2 2 2 2 2 2 2
left_child=28 2 4 20 11 -3 8 -8 -7 10 25 12 13 46 17 -16 18 -15 19 -13 21 -4 -23 24 -18 -5 -20 -28 -1 30 -30 32 33 52 36 -36 37 38 39 -34 42 55 61 -24 -38 -46 -2 -48 -49 50 51 -50 -32 -29 -55 -42 57 58 59 -31 -25 62 -39
right_child=1 5 3 9 -6 6 7 -9 -10 -11 -12 16 -14 14 15 -17 23 -19 26 -21 -22 22 43 60 -26 -27 27 53 29 56 31 -33 34 -35 35 -37 44 40 -40 -41 41 -43 -44 -45 45 -47 47 48 49 -51 -52 -53 -54 54 -56 -57 -58 -59 -60 -61 -62 -63 -64
leaf_value=-0.018060183398054083 -0.014312613362791389 -0.017848022696036876 -0.01780247292482592 -0.017560317538780536 -0.010907224492548068 -0.013468083676738393 -0.018118980392902485 -0.011867951335820864 -0.0069439975834834754 -0.017687750884549026 -0.010548588859350385 -0.01742848437408423 -0.018836882817704372 -0.013880675283243405 -0.0064612703547213971 -0.01510202583231139 -0.017488961708959246 -0.017818868904035803 -0.017827650961544511 -0.0096117511384345242 -0.018507950003156418 -0.012203043634152779 -0.018825794512410718 -0.017815264933444649 -0.010189947927120359 -0.013551589507605835 -0.011634887439467799 -0.018236574003873941 -0.017824762086548922 -0.01778478450117606 -0.014792335167039658 -0.012827710975367914 -0.017237116872222683 -0.01119382181914199 -0.012521749276564867 -0.017068462254431892 -0.018585135991913464 -0.018806796675362045 -0.017738937869977545 -0.0095796196440250357 -0.010774974678568399 -0.018855845857157688 -0.013845966861444252 -0.014869374185287488 -0.01457093283540428 -0.01814004958311545 -0.018834820114078547 -0.013412477608842271 -0.011140033841808436 -0.018251773837023345 -0.018810512850244893 -0.017159185302797291 -0.018830954485449095 -0.013884158503000225 -0.018795848374991347 -0.014865327410612798 -0.018056833388313421 -0.010759823369238961 -0.018790939563224057 -0.012789856915667154 -0.014779025369720511 -0.018247887038384498 -0.015419631359774557
leaf_count=1014 35 39 320 30 20 22 48 28 20 35 24 117 45 56 29 32 29 38 399 30 276 30 27 39 32 30 22 68 952 40 20 20 25 21 38 92 192 52 38 26 20 25 24 30 38 62 50 22 26 68 23 24 23 32 21 20 978 20 102 20 29 217 71
internal_value=0 -1.6614263667913776 -1.6746193909988782 -1.7369994289836137 -1.6357256284966806 -1.4860855082519633 -1.3874128502126581 -1.5815353003512647 -1.0361011256255999 -1.5172685846701179 -1.4125209564779313 -1.644339835813627 -1.5815826395512542 -1.5478549225857892 -1.3709827999667961 -1.0993464009309404 -1.6787135708700949 -1.5472572989682993 -1.709061371062069 -1.5831817069859033 -1.7753016144240976 -1.7241143541634705 -1.5177330326797125 -1.5166880746103939 -1.3658932633141556 -1.5555906785945643 -1.7432009981757901 -1.6328248477739047 -1.7652286185018209 -1.7520421620922271 -1.7300322879299657 -1.6812818742944462 -1.6892223769642383 -1.5062864155116766 -1.7016790818777259 -1.5739134585767234 -1.7221873512582737 -1.6801221317826196 -1.5213987513985356 -1.3333271359535521 -1.7130526706842695 -1.5141988577917145 -1.7485710249590023 -1.6743081041483372 -1.7968220601891587 -1.6783724401724858 -1.6584268451879773 -1.6957676252398552 -1.638190680463582 -1.6845366490147786 -1.5535226882814341 -1.402895255968639 -1.6952679792284697 -1.7182095906428294 -1.5829468234411646 -1.2820600312470922 -1.789537045456421 -1.7027715970353123 -1.7801530243609838 -1.6119612833100778 -1.6519963043915991 -1.7742735024959213 -1.6851574979514585
internal_count=6395 2245 2088 802 1286 157 118 76 42 119 84 1266 448 403 155 61 818 94 689 147 683 407 87 129 61 60 542 143 4150 3136 1976 1024 1004 64 940 130 810 518 89 51 429 65 364 57 292 100 248 213 163 141 73 50 43 121 53 40 1160 182 162 60 68 340 123
shrinkage=0.01


Tree=8
num_leaves=64
num_cat=0
split_feature=4 3 0 2 2 2 2 2 6 2 6 1 0 6 4 2 0 2 2 6 2 4 4 2 2 2 1 2 1 2 2 2 2 2 0 4 4 4 6 2 4 4 1 3 2 2 6 3 4 2 0 6 3 2 1 4 4 1 2 0 2 4 0
split_gain=3.8512249372961378 1.2737288868165706 1.1406271219630071 3.2835625610232455 1.8112637017704571 1.6214847603565019 1.4682379515449497 2.502036199693265 0.96832893389910879 0.88691732697182601 0.76113404001375784 0.75336110825055869 0.87758569909404827 0.66630893869371022 0.64534241182249019 0.94779727934521318 0.63749657892038059 0.62426415361846921 1.2513915678671879 1.1977242463068478 0.84455514914924379 0.71323216265733436 1.5216233398700183 0.8923099556494094 2.1553108358745234 0.92186128445322879 1.0361594210515932 1.3094725911656155 0.72303546092177129 0.70623654431152261 0.68613477634212927 0.62836353899780306 1.6425029156513489 0.62290829935692216 0.58228620960198896 0.75723007709439116 1.2634937005225311 1.0145270888202731 1.8088153731538412 1.2790148683286375 0.93036896522755796 0.61782283321508658 1.0383502375573102 0.59856785028262038 0.60695961944446708 1.1074142166097545 1.5756588824644098 1.4610520135464569 0.81372491872107844 0.53097859995408214 1.1402200341761457 0.9617025673340649 0.50153345800111993 0.40867160702219962 0.79397063087969855 0.64319360544931214 0.71200787250764108 0.37557711539272987 0.36405441294346019 1.2447322210804259 2.2548953190119647 0.49920229441302411 0.45537797892524168
threshold=0.83675262640000014 0.52428824425000009 0.55000000000000016 0.5576176301500001 0.43553113700000007 0.49717944575000006 0.89215327680000012 0.95147909750000015 3.5348264453000007 0.5318011034500002 3.6736043311500004 0.55000000000000016 0.8500000000000002 2.9142135623500005 1.3946389168000002 0.5774404097000001 0.35000000000000003 1.3557746667000001 1.3102957464500002 3.0811388301000004 1.5539264490000002 1.0245135843500004 1.0045916527000001 1.1465982214500003 1.2278028894000002 1.0525266275000003 0.55000000000000016 0.93290539280000007 0.65000000000000002 1.6270178389000001 0.81028542060000019 1.0789172716000002 1.0020290820000002 0.74098748675000026 0.65000000000000002 0.60977742380000011 0.72616072340000015 0.71495968790000008 3.2394512253000003 0.87553553220000013 0.6987000911500002 0.68564833285000015 0.75000000000000011 0.42373340265000009 0.69664370355000005 0.59869644385000009 3.0811388301000004 0.37067024925000008 0.61478847380000012 0.66778547845000003 0.75000000000000011 3.5348264453000007 0.37067024925000008 0.64735032380000013 9.9999996826552254e-21 0.87123451870000002 0.98762487430000012 0.15000000000000005 0.67523140215000022 0.35000000000000003 0.69888300165000017 0.75662397760000011 0.25000000000000006
decision_type=2 2 2 2 2 2 2 2 2 2 2 2 2 2 2 2 2 2 2 2 2 2 2 2 2 2 2 2 2 2 2 2 2 2 2 2 2 2 2 2 2 2 2 2 2 2 2 2 2 2 2 2 2 2 2 2 2 2 2 2 2 2 2
left_child=34 2 6 4 -4 -6 53 -8 -9 -7 17 13 -13 -3 -15 -16 -10 18 19 -5 -19 22 23 25 -25 26 30 28 -28 -22 33 32 -23 49 58 -36 37 40 -39 -40 41 43 52 44 45 -37 47 -47 -46 50 -21 -52 -43 54 55 -2 -57 -38 -1 60 -60 -62 -63
right_child=1 11 3 10 5 9 7 8 16 -11 -12 12 -14 14 15 -17 -18 20 -20 21 29 31 -24 24 -26 -27 27 -29 -30 -31 -32 -33 -34 -35 35 36 57 38 39 -41 -42 42 -44 -45 48 46 -48 -49 -50 -51 51 -53 -54 -55 -56 56 -58 -59 59 -61 61 62 -64
leaf_value=-0.0179621060622446 -0.012696622142488978 -0.010864448982098731 -0.016648848114161945 -0.018657569512649561 -0.0079731165638935175 -0.016832811807472096 -0.0087461774763798027 -0.018673954787595443 -0.012365304848843049 -0.011340440648087433 -0.017563422279805351 -0.018763016662317465 -0.013631036929116392 -0.017199756492926821 -0.011126569504274342 -0.016722668530171229 -0.016989280474367062 -0.018665760299429061 -0.012552445817551636 -0.018647018299282014 -0.014059231245306222 -0.017079975908352057 -0.010726043271181897 -0.010568257537624507 -0.017473715739550578 -0.018682652773562895 -0.01369683376788129 -0.010999366819445425 -0.018728232760063211 -0.017142711135638446 -0.018109263777652269 -0.018658951253639956 -0.01090273315669279 -0.013549284069909998 -0.018011712658646355 -0.017358601853469349 -0.015846204389097257 -0.017736369354718989 -0.014929085551244064 -0.0088083586113980282 -0.018156586611502875 -0.014650235370070543 -0.011876173059293067 -0.014258116855343155 -0.014054708140833143 -0.018628413992055372 -0.010680935021658108 -0.01252298795774512 -0.017747407534366828 -0.01792790176043162 -0.016650841620367361 -0.010752799508424733 -0.017752453046910196 -0.018637052619079469 -0.017896107920559592 -0.018001838153049593 -0.014494545747383078 -0.017770851545571429 -0.010010396216938172 -0.017853935429891683 -0.017711340193026275 -0.01699172571398468 -0.012948795436951259
leaf_count=1224 20 25 39 74 33 21 20 45 25 27 248 32 23 26 31 20 23 97 39 26 42 127 25 39 34 52 24 36 22 103 72 61 20 39 454 124 43 44 32 24 170 40 29 36 26 40 30 26 310 55 20 25 44 136 321 60 38 786 23 514 86 24 21
internal_value=0 -1.6466167774788594 -1.6597174475779097 -1.6268725870552445 -1.3098718555096112 -1.1390849158696812 -1.726573984937998 -1.5176855099990847 -1.6560524685962466 -1.3743016734832094 -1.6566104671572053 -1.4725410452390082 -1.6616024172083246 -1.3706085350756898 -1.46292953897402 -1.3319657252228567 -1.4580518576869443 -1.6326445212245169 -1.6053515822318782 -1.623538184597779 -1.7217312826913764 -1.5970713760776598 -1.5537386586552073 -1.5808419206571196 -1.3782543842958486 -1.6207154064178786 -1.5803682187185597 -1.3861725083761187 -1.6103211042627974 -1.6248929568381358 -1.6475995742987055 -1.6947960161708069 -1.62381664738497 -1.5763392480943665 -1.7497052085412186 -1.727963498218704 -1.7095434071745017 -1.6606150153885881 -1.4693248099095502 -1.2304279157559701 -1.6824851648017773 -1.65038317516555 -1.514541161225982 -1.676319893226655 -1.6925478529287667 -1.6106745256964963 -1.4490059594213756 -1.6222322360835848 -1.746158345729909 -1.6448829870983128 -1.5303418785385465 -1.3372773281894106 -1.6275178492245563 -1.7676495361073605 -1.7378975698473069 -1.5972762267987108 -1.6641542446187945 -1.7671011287096365 -1.7756575128142271 -1.7380051353662147 -1.5798826153842223 -1.6815819985466947 -1.5104826760496055
internal_count=6395 2245 2088 1400 120 81 688 113 93 48 1280 157 55 102 77 51 48 1032 790 751 242 677 469 444 73 371 319 82 46 145 237 208 147 165 4150 2258 1804 975 100 56 875 705 113 592 556 220 96 66 336 126 71 45 84 575 439 118 98 829 1892 668 154 131 45
shrinkage=0.01


Tree=9
num_leaves=64
num_cat=0
split_feature=4 6 5 5 5 4 0 2 2 5 5 1 1 5 2 1 5 2 0 1 0 4 4 4 5 2 4 4 5 1 5 4 1 5 2 4 2 5 2 2 4 4 2 2 2 1 2 5 5 5 4 2 4 2 2 4 4 6 4 1 5 1 4
split_gain=3.7964897589954489 1.2113011464809915 0.90142419841868104 1.4484996640831014 1.4913367358484493 1.2953945641791478 2.1535846324564289 1.2060065357312624 2.5314020301103994 0.85232276261339734 0.60172737153823164 1.1675584606661005 1.6996016882099809 1.9147790596671399 2.9016262947683416 0.97153025284885786 0.90660181051200261 0.59489796859369903 2.3282524541315865 0.63666006294521083 0.57398446039951523 0.74586113092186679 1.244215563349826 0.99851754249084479 2.2875990170541556 1.7457020371412053 0.91630267065249882 0.60817770925245895 1.0242710184513726 1.0216852609835385 0.57104119552592181 0.55373630489441439 0.53519988138356211 0.52680804007013649 0.86282382726199103 0.55835833939928392 0.52663274950356254 0.50450297286351997 0.5137023461628587 4.3671843996309576 0.57702138662750713 0.55706377493842751 0.54956200016141565 0.65334745256836868 1.2355150461162339 2.9447100255327427 0.53182195357293693 0.64403451480559326 0.50094495990842347 0.84562597526834793 2.3158006815257721 0.69440569633400173 0.47179585590403406 0.40362336503409324 0.5961900433941878 0.4289009508775905 0.39448221845117359 0.39116980712257998 0.37471672995607719 0.37343325264032501 0.39687386786187062 1.086034368787864 1.0521492527086558
threshold=0.83675262640000014 2.5476205269500007 0.47958201910000003 0.39855990275000003 0.39755502265000014 1.5240831535000001 0.8500000000000002 1.0366712572000003 1.0857024993500002 0.45387089175000001 0.32870958950000001 1.2500000000000002 0.45000000000000007 0.31882588455000005 1.2278028894000002 0.75000000000000011 0.32687917365000008 0.62873876790000016 0.8500000000000002 9.9999996826552254e-21 0.65000000000000002 0.60977742380000011 0.72616072340000015 0.71495968790000008 0.36159368805000008 0.8676476632500002 0.6987000911500002 0.68564833285000015 0.40853394595000009 0.75000000000000011 0.35979159965000007 0.85100681710000015 0.15000000000000005 0.41297699250000003 0.8413159130500002 0.73830691915000013 9.9999996826552254e-21 0.33083227520000008 0.53648151425000012 0.43553113700000007 0.86577723415000019 0.89114676370000001 1.5539264490000002 1.3004806581500001 1.1465982214500003 0.95000000000000007 1.7336736948500002 0.37229018515000012 0.39064047875000002 0.38223027470000009 0.96639025440000015 0.62873876790000016 0.90558984930000008 0.76219253340000004 0.81643276725000014 0.89630209080000023 0.91792299750000017 3.2394512253000003 0.90215536190000012 0.8500000000000002 0.36653784980000004 0.55000000000000016 0.78628480850000015
decision_type=2 2 2 2 2 2 2 2 2 2 2 2 2 2 2 2 2 2 2 2 2 2 2 2 2 2 2 2 2 2 2 2 2 2 2 2 2 2 2 2 2 2 2 2 2 2 2 2 2 2 2 2 2 2 2 2 2 2 2 2 2 2 2
left_child=20 -2 3 4 10 6 36 -5 -9 58 11 12 17 15 16 -14 -15 18 19 -3 33 -22 23 26 25 -25 27 28 32 30 -29 -12 -23 -1 35 -35 -4 -33 39 41 -40 -39 43 44 48 -46 47 -44 49 51 52 -42 -51 -53 -55 -56 -17 -26 -10 60 61 -24 -63
right_child=1 2 5 7 -6 -7 -8 8 9 -11 31 -13 13 14 -16 56 -18 -19 -20 -21 21 22 59 24 57 -27 -28 29 -30 -31 -32 37 -34 34 -36 -37 -38 38 40 -41 42 -43 46 -45 45 -47 -48 -49 -50 50 -52 53 -54 54 55 -57 -58 -59 -60 -61 -62 62 -64
leaf_value=-0.017685530508241291 -0.011744659449895724 -0.013550865928604392 -0.014939361192152412 -0.017764907830493615 -0.010646384600381855 -0.010733086837662284 -0.011141608038358983 -0.009567193589425968 -0.015191595250687815 -0.012823290797014109 -0.018046177193493381 -0.018524391346899777 -0.013142093160646833 -0.0046351969474061365 -0.01672218178411982 -0.015209320326766923 -0.010671857884242176 -0.017251718593983084 -0.0091979417357153283 -0.017223646110559161 -0.017856762799423588 -0.014046414252658289 -0.01738551895048995 -0.0149001304476029 -0.01848169278253849 -0.0067148362006682703 -0.018000645247619771 -0.013517057870100241 -0.012872839424259916 -0.011766783515603771 -0.017178688595310292 -0.01850868592150761 -0.016941449332777341 -0.015231287722652276 -0.01247811355531594 -0.018483011614973965 -0.018024514034544921 -0.014720209087833501 -0.018528322330530166 -0.0075357431419178292 -0.014422674070664013 -0.01793077191481415 -0.010613180997896465 -0.01851564614646695 -0.0081140380993106991 -0.018636309808055675 -0.016944100664595979 -0.01544093338720514 -0.018562138216282158 -0.014467973592351937 -0.0086108612019151921 -0.01851282353282116 -0.018566908759695317 -0.013948046087232387 -0.014890571054789612 -0.018066688018124898 -0.018634612181389718 -0.01511388868397188 -0.017435831252965318 -0.018288853529927294 -0.017672663951636559 -0.016242740205468516 -0.010503141224733406
leaf_count=1785 23 24 32 494 20 25 32 22 36 21 83 49 44 20 22 24 20 125 21 91 454 27 183 22 35 20 170 24 28 29 60 40 537 37 20 50 73 32 49 25 39 68 20 57 23 20 25 25 46 20 20 75 26 26 22 77 31 23 178 194 396 36 20
internal_value=0 -1.6321505008346215 -1.6368947814697472 -1.6482304696318537 -1.6079444350220808 -1.4928675963695595 -1.5695104425250215 -1.7184777960120139 -1.6070408476906892 -1.6679880782291467 -1.6163828471675814 -1.5592699506560996 -1.5252479201322608 -1.3632137206670973 -1.0868831091972071 -1.5363213564499372 -0.76535622622525823 -1.6252533761295223 -1.5334538977740626 -1.6456978574658365 -1.7345686189436127 -1.712968463964599 -1.694675896066006 -1.6460929826565565 -1.4562171505561545 -1.0998890054286596 -1.6678057048628143 -1.635929613928446 -1.661681159946228 -1.5010785866110827 -1.6132319309683547 -1.6492747139137169 -1.6802852134922992 -1.7603534838667099 -1.6235909082926188 -1.7099998050839107 -1.7083600959925775 -1.6317373003363169 -1.6191315795666497 -1.5026687882198237 -1.644671745313266 -1.6903574209523649 -1.6251011893339391 -1.6507755939479161 -1.621740067982673 -1.3008772351301796 -1.4597718978682808 -1.3295324695809478 -1.6610688532394771 -1.6316362450004571 -1.430640556367138 -1.6871495012348234 -1.6785407579078506 -1.734899915757437 -1.6651127932457905 -1.7361086800805146 -1.7140477020382849 -1.7145240082656241 -1.7058347051615737 -1.7518332347434094 -1.7282911392930846 -1.663715508400669 -1.419203194517922
internal_count=6395 2245 2222 2060 1309 162 137 751 257 235 1289 471 422 161 62 99 40 261 136 115 4150 2258 1804 975 100 42 875 705 592 113 84 818 564 1892 107 87 105 735 695 125 570 100 521 451 394 43 70 45 351 305 66 239 46 200 125 99 55 58 214 829 635 239 56
shrinkage=0.01


Tree=10
num_leaves=64
num_cat=0
split_feature=4 6 0 6 3 5 4 0 5 4 4 4 6 6 5 4 4 4 4 3 1 1 4 3 4 4 4 1 6 4 5 1 4 4 0 5 5 4 1 5 5 4 4 6 1 5 0 4 4 4 6 1 0 4 1 5 5 1 1 5 5 5 4
split_gain=2.9044742933028829 1.5226021715734532 1.1395539378838748 0.94727051345103064 1.0732964286996491 1.4412426617373768 1.5449061143816323 0.88191515524931674 1.1756730416632308 1.0959587688748798 1.5239811548905209 0.91439057806729807 1.9871784126239973 1.1480755400858698 0.78507999435487363 1.9295789486052257 1.1107276718993262 1.0977160124573686 1.0923686784610567 0.7635177020681212 0.70530851264413741 2.0052195507135764 1.1726788832071122 1.0655767728782166 0.94593388618872609 0.95453123762564474 0.72380078180560758 0.7056251284580668 1.9867735378912812 0.77310299427576012 0.6895191442378632 0.69810996033248784 0.67737532908931541 0.99383731860323365 0.81724496460113727 0.60640959960176133 1.5479226478931594 1.5252381341668979 0.9799002786651414 0.89674367948703804 0.50138202621653249 1.5167461502572479 0.94742271190845884 0.42133225918570361 0.65908853647604815 0.54141991221160879 0.69047412432036026 0.46798911589684167 0.40246925679690548 0.76323016881656258 0.56812329846189868 0.83519716117736209 0.84207707539228238 0.95621532492339156 0.58714321153816229 0.39821425301514068 0.39744311892438944 0.39286866586152769 0.92606811569255854 0.3831352809038151 1.1686912737777391 0.38241257506416559 0.63921284685523005
threshold=0.83442184190000013 2.5476205269500007 0.45000000000000007 3.6736043311500004 0.42408725105000006 0.37940742700000002 1.1513691081000001 0.75000000000000011 0.42848568980000007 0.64171451630000009 0.72616072340000015 0.71495968790000008 3.2394512253000003 3.2394512253000003 0.32870958950000001 0.84892372130000016 0.85100681710000015 1.0890288950000002 1.0045916527000001 0.42408725105000006 1.2500000000000002 1.5500000000000003 1.1135945755000003 0.55670399120000014 0.95837650475000002 0.90215536190000012 0.88891822920000008 0.35000000000000003 3.5348264453000007 0.87966407465000018 0.50174639155000011 9.9999996826552254e-21 0.92547731650000009 0.88891822920000008 0.8500000000000002 0.36823902775 0.37940742700000002 0.65880871680000008 0.75000000000000011 0.34720310315000008 0.39855990275000003 1.1031556877500004 0.86321161800000012 3.3903632027500006 0.8500000000000002 0.38490257960000013 0.8500000000000002 0.74494161945000015 0.9428504269500001 0.95837650475000002 3.5348264453000007 0.8500000000000002 0.8500000000000002 1.0303004904000004 0.55000000000000016 0.29958275300000009 0.36131702870000004 0.45000000000000007 0.65000000000000002 0.33786084520000004 0.32488458580000007 0.32817664015000009 0.96327394470000016
decision_type=2 2 2 2 2 2 2 2 2 2 2 2 2 2 2 2 2 2 2 2 2 2 2 2 2 2 2 2 2 2 2 2 2 2 2 2 2 2 2 2 2 2 2 2 2 2 2 2 2 2 2 2 2 2 2 2 2 2 2 2 2 2 2
left_child=7 -2 30 14 61 6 -6 8 -1 -9 11 13 -13 35 15 -4 -16 18 32 -10 23 22 24 26 25 -22 27 28 -18 -29 31 40 33 34 -17 37 -37 39 -38 -11 41 42 -3 59 45 46 56 -48 -28 -50 57 52 54 -54 -52 -44 -45 -51 -59 60 -12 62 -5
right_child=1 2 3 4 5 -7 -8 9 19 10 43 12 -14 -15 16 17 20 -19 -20 -21 21 -23 -24 -25 -26 -27 48 29 -30 -31 -32 -33 -34 -35 -36 36 38 -39 -40 -41 -42 -43 55 44 -46 -47 47 -49 49 50 51 -53 53 -55 -56 -57 -58 58 -60 -61 -62 -63 -64
leaf_value=-0.017558995542591386 -0.010967885724199404 -0.013543577682158071 -0.0098695876730926797 -0.017841198401533885 -0.01639065948158042 -0.01838206358985844 -0.008502670690032927 -0.017649105103650361 -0.012938075533960244 -0.010332994957700545 -0.018337743418336768 -0.017228405368416681 -0.010717345562578201 -0.017721739935569674 -0.018374613251352662 -0.013481285509088389 -0.016318211733329705 -0.018468356859128489 -0.01107162228564647 -0.017139007285372196 -0.010380388389995655 -0.017725344187148707 -0.016099082839651134 -0.012070225250161659 -0.0087825004347541532 -0.016507790965759696 -0.017348919214524451 -0.017216227848926874 -0.0091541383430413566 -0.012901357445170141 -0.014514267005723802 -0.017880888597316787 -0.017537692608656084 -0.011971170456547121 -0.018449724299655561 -0.011154814204683292 -0.016571008943007833 -0.017959692214575131 -0.012723456067738883 -0.015785861168539007 -0.017617815368768133 -0.01080356807063307 -0.015071727154289945 -0.012313373741793015 -0.018343345764661415 -0.014316310556187057 -0.014496973786101342 -0.017726323891639882 -0.013671691850519474 -0.018391213938273868 -0.017218956240155011 -0.018420293046622765 -0.010114662786879036 -0.015231742894152044 -0.013628536930730907 -0.017962733409234131 -0.0163168629250161 -0.014334412973509514 -0.017681290224014733 -0.018038249445748642 -0.012312673550807712 -0.018414519791643373 -0.014282055775975407
leaf_count=2345 21 33 28 68 20 28 20 523 37 20 37 35 41 126 80 24 39 40 27 33 20 57 34 25 29 21 190 70 26 22 39 336 44 37 30 39 112 94 35 31 105 21 24 20 74 50 21 131 42 74 69 37 24 38 25 96 20 49 104 265 20 141 29
internal_value=0 -1.6343190094650606 -1.639312365518113 -1.6106283849462999 -1.7111513179011124 -1.4887530828803537 -1.2443821803028694 -1.7235981073266395 -1.7482420380351902 -1.6884746340359482 -1.6543449702929969 -1.5751133489833329 -1.3712936572900218 -1.6090403627136733 -1.587058399451553 -1.4806465496747663 -1.6098385302278249 -1.5490884108447225 -1.4755798448745296 -1.491825400932727 -1.5915461719682316 -1.4699238691987413 -1.3041160863591184 -1.6150324015004593 -1.1555808231955389 -1.3518635865734938 -1.6276518737868511 -1.5052636365460834 -1.3451528790293754 -1.6184214184635031 -1.7099962398161093 -1.726432399095865 -1.5492938650462027 -1.4504565891221397 -1.6240743950787728 -1.546959840491688 -1.4710860570141064 -1.644291673710969 -1.565420325058537 -1.3647367387502241 -1.6522089811488747 -1.5861032314526757 -1.6555686549422566 -1.7205725126385449 -1.6684776919449065 -1.6177620775877277 -1.6662369531144317 -1.7280180239704845 -1.6571120532925083 -1.6251310475002272 -1.6509362331343065 -1.570863410992356 -1.5065525907537298 -1.3249853293584684 -1.6263567017406644 -1.7384309076918816 -1.4314827483156034 -1.7190086054135745 -1.6609490110876513 -1.7716971561810435 -1.6223357146465052 -1.7747029164640025 -1.6777002580929987
internal_count=6395 2286 2265 1611 306 68 40 4109 2415 1694 1171 533 76 457 1305 230 1075 202 162 70 995 161 104 834 70 41 809 157 65 92 654 615 135 91 54 331 186 145 147 51 279 174 153 638 316 242 192 152 652 462 420 193 156 62 94 120 40 227 153 322 57 238 97
shrinkage=0.01


Tree=11
num_leaves=64
num_cat=0
split_feature=0 2 2 3 6 5 2 6 1 5 5 3 5 5 5 5 5 5 2 6 2 5 5 6 5 2 2 1 2 5 1 6 5 2 2 1 5 2 1 0 1 2 2 3 2 5 1 0 2 3 6 5 5 6 6 1 2 2 2 0 3 6 5
split_gain=1.50890575752328 1.300411269788583 2.5896065096459324 1.5965177543316713 1.0885757341945919 1.3184606470749713 1.5414409048810285 1.2923757172887065 1.1089755345217043 2.6582749181352554 2.5558446192714754 1.0181396683642561 1.4296175024715865 0.9715459707700056 0.81456678764391199 2.3545382305551357 0.81320388996061865 1.1106109412297656 1.6480570323077757 0.80363004910503832 0.73391564987559832 0.69037807814351027 0.75864166245410658 0.68566004327344388 0.69173555598346326 0.66010799874231196 0.86649423791605784 0.63807741893543835 0.62818670642803909 1.4974114140852635 0.77962728305726614 0.62512606370648882 0.74295029006626834 0.61613913773459217 1.734369645615466 0.57675837176316236 0.89292960559701129 0.56200711748257959 0.60502269358893557 0.75382184258701557 0.55013778229584887 1.2050023520802711 1.3622947668305443 1.0529914128319433 0.95735798716884091 0.46687070899483274 0.45700299737283956 1.6863720202727066 0.50638682713861272 0.44140052412573993 0.42387156308716101 0.35257431344228962 0.34021316862018125 0.31235155704860063 0.3835703682856213 0.28608152429819711 0.92996403968936647 0.48984979839548259 1.3234933145979824 1.225453331938489 1.133301299178143 0.47595538891835076 0.47028723328247679
threshold=0.75000000000000011 0.89215327680000012 0.90915481105000018 0.50024987510000007 3.0811388301000004 0.45387089175000001 0.66778547845000003 3.5348264453000007 0.25000000000000006 0.37516648170000005 0.39855990275000003 0.42408725105000006 0.30265419760000006 0.38111663890000008 0.31456317920000004 0.32007810595000002 0.40963391020000006 0.38639349505000004 1.1505433178000002 3.2394512253000003 1.0275881845000001 0.4361191895 0.52052857530000007 3.3903632027500006 0.39755502265000014 0.53648151425000012 0.47335229060000006 0.65000000000000002 1.2278028894000002 0.32687917365000008 0.25000000000000006 3.2394512253000003 0.36653784980000004 0.81028542060000019 0.86367671460000006 0.8500000000000002 0.32931746725000005 0.87553553220000013 0.8500000000000002 0.8500000000000002 0.75000000000000011 1.3179055139500002 1.2159101461500001 0.42408725105000006 1.1390785419500002 0.41755238765000008 1.0500000000000003 0.65000000000000002 1.3179055139500002 0.34603945240000006 3.5348264453000007 0.40149717870000007 0.35979159965000007 2.1180339887500002 1.2071067812000003 0.35000000000000003 0.60699047255000005 1.1684658669500003 0.98789547780000009 0.8500000000000002 0.39981245115000003 9.9999996826552254e-21 0.30265419760000006
decision_type=2 2 2 2 2 2 2 2 2 2 2 2 2 2 2 2 2 2 2 2 2 2 2 2 2 2 2 2 2 2 2 2 2 2 2 2 2 2 2 2 2 2 2 2 2 2 2 2 2 2 2 2 2 2 2 2 2 2 2 2 2 2 2
left_child=1 3 13 -1 55 6 7 8 52 -10 -11 12 -9 -3 -8 -16 17 28 33 35 45 -5 -23 -20 -25 26 -14 -7 29 -17 -31 32 -32 -19 -35 53 -37 -33 39 -39 41 42 43 44 -22 -21 48 -48 -42 -41 -51 -36 -6 54 -4 61 -57 58 62 -60 -61 -2 -58
right_child=4 2 19 21 5 27 14 11 9 10 -12 -13 25 -15 15 16 -18 18 23 20 40 22 -24 24 -26 -27 -28 -29 -30 30 31 37 -34 34 51 36 -38 38 -40 49 46 -43 -44 -45 -46 -47 47 -49 -50 50 -52 -53 -54 -55 -56 56 57 -59 59 60 -62 -63 -64
leaf_value=-0.017323479911817083 -0.014501928987068537 -0.014417146008184644 -0.018223752826911993 -0.0169478202208527 -0.015798964135541459 -0.011586269977660718 -0.0176943159692163 -0.011150878763413426 -0.017514535346768542 -0.0064946864108968022 -0.016220242727949252 -0.009965947662986023 -0.016528451143547247 -0.0082304518953069568 -0.010248189294051793 -0.012042014891214911 -0.017771961971566306 -0.018214903960928938 -0.010874660209409295 -0.017847148422330667 -0.01741168064503637 -0.010655392654281474 -0.015503137196241572 -0.012107824983367892 -0.016741397739160387 -0.016980254363478452 -0.010827496688411809 -0.015293880241241637 -0.017529123842713459 -0.012962377519154984 -0.012499695387705191 -0.017978136385769415 -0.016981344002888546 -0.010171688120872059 -0.017608077626529092 -0.012227945343887561 -0.017057069938176621 -0.012735648030665308 -0.018308929670135053 -0.018224394557252586 -0.018272709107435378 -0.018263741304164558 -0.0091230132301142446 -0.010764448634705879 -0.012194915322655892 -0.014623186943213575 -0.018277134032241172 -0.011596283108441983 -0.014758281806255038 -0.013405294617908181 -0.016947432751919948 -0.014621383110859351 -0.018223814159014178 -0.018219189586788354 -0.014382892696597038 -0.013447761433220264 -0.014331540233429847 -0.017567049294002355 -0.018302988179866989 -0.015500987803256464 -0.010706422280265948 -0.017545656947479314 -0.017479272050287303
leaf_count=2771 22 21 21 29 33 36 215 39 56 24 20 24 22 20 25 32 167 49 38 103 49 26 26 26 26 62 21 39 226 23 28 158 32 20 58 20 68 29 44 35 59 28 22 21 20 22 31 30 23 25 30 22 80 189 21 34 21 239 26 43 37 368 221
internal_value=0 -1.7044355417296595 -1.631053801928197 -1.7242074180019498 -1.642156175568058 -1.6120362074248578 -1.6236160717655999 -1.5111723157436294 -1.6151462086348289 -1.4610278742514478 -1.0914683448258058 -1.3795109992708594 -1.4433392833555063 -1.139840557710627 -1.6563785437615188 -1.6341413781650675 -1.6484131435701899 -1.6245452134401319 -1.5071617385780363 -1.6587659830007992 -1.5997099562926631 -1.4464372218651742 -1.3081524592969551 -1.2925582617663924 -1.44243890327609 -1.5653163828371017 -1.3742404985579086 -1.3515033618750327 -1.6669358466360202 -1.6223781073600645 -1.6555324458458858 -1.6772160053346228 -1.4889642842945365 -1.6368458882561912 -1.5464437966178193 -1.7343332686859827 -1.595918515345822 -1.7124022067724942 -1.62964849618634 -1.5552045566688462 -1.5430902690226727 -1.4535706001883071 -1.3603909490857644 -1.4699402539701159 -1.5899390266127345 -1.7279450847912587 -1.6307308186026144 -1.4990747671277289 -1.7286974216922362 -1.6459972613307805 -1.5337798737616968 -1.6786848372943834 -1.7515553132793371 -1.7870816882222886 -1.6303274362754165 -1.6947357150247924 -1.667951902425358 -1.6866621233251411 -1.6385567656197175 -1.4514346632786221 -1.3283313678418349 -1.7374013748040846 -1.7206210439656111
internal_count=6395 3620 768 2852 2775 1764 1689 381 213 100 44 168 144 41 1308 1093 1068 901 239 727 408 81 52 90 52 105 43 75 662 436 404 381 60 149 100 319 88 321 163 119 283 140 112 90 69 125 143 61 82 90 55 80 113 231 42 1011 621 587 348 106 80 390 242
shrinkage=0.01


Tree=12
num_leaves=64
num_cat=0
split_feature=0 2 2 3 6 5 2 6 1 5 5 3 5 5 5 5 5 5 2 6 2 5 5 6 5 2 2 1 2 5 1 6 5 2 2 1 5 2 1 0 1 2 2 3 2 5 1 0 2 3 6 5 5 6 6 1 2 2 2 0 3 6 5
split_gain=1.4895634172289647 1.2833862149836932 2.5499025847310008 1.5765680514732594 1.0741264059645346 1.2994037767798545 1.5187149478213087 1.2740152575911736 1.092439565033942 2.6170056576237855 2.5136454467377405 1.001645229420987 1.4071238042613317 0.95556035706978371 0.80253065104318466 2.3181815993128794 0.80122057555661286 1.0943417694801383 1.622975989986287 0.79244475842438078 0.7232509450111877 0.68024545220445276 0.74548722897508313 0.67457602535075978 0.68096631610234226 0.65062479505705539 0.85291503879738428 0.62750071335415214 0.61911085659397713 1.4749724428477293 0.76764015393496265 0.61574634138952433 0.73158031807561485 0.60757063433993608 1.7068103508820016 0.56861766155972759 0.87938622927318733 0.55423636427426004 0.59566335086734057 0.74242260220633227 0.54164661550009896 1.1866872394855648 1.340279568529084 1.0370973558547618 0.94279424914211063 0.46016183182740633 0.45023684430337596 1.6605243097978857 0.49884718898301372 0.43511798151983072 0.4172280364909362 0.34721098627667857 0.33535043892899807 0.30786418348787947 0.37788300027689559 0.28238133235765872 0.91565017374125546 0.48255594933385737 1.3051488064213856 1.2067094187770522 1.1151326301187652 0.46880827051728602 0.46319609264693895
threshold=0.75000000000000011 0.89215327680000012 0.90915481105000018 0.50024987510000007 3.0811388301000004 0.45387089175000001 0.66778547845000003 3.5348264453000007 0.25000000000000006 0.37516648170000005 0.39855990275000003 0.42408725105000006 0.30265419760000006 0.38111663890000008 0.31456317920000004 0.32007810595000002 0.40963391020000006 0.38639349505000004 1.1505433178000002 3.2394512253000003 1.0275881845000001 0.4361191895 0.52052857530000007 3.3903632027500006 0.39755502265000014 0.53648151425000012 0.47335229060000006 0.65000000000000002 1.2278028894000002 0.32687917365000008 0.25000000000000006 3.2394512253000003 0.36653784980000004 0.81028542060000019 0.86367671460000006 0.8500000000000002 0.32931746725000005 0.87553553220000013 0.8500000000000002 0.8500000000000002 0.75000000000000011 1.3179055139500002 1.2159101461500001 0.42408725105000006 1.1390785419500002 0.41755238765000008 1.0500000000000003 0.65000000000000002 1.3179055139500002 0.34603945240000006 3.5348264453000007 0.40149717870000007 0.35979159965000007 2.1180339887500002 1.2071067812000003 0.35000000000000003 0.60699047255000005 1.1684658669500003 0.98789547780000009 0.8500000000000002 0.39981245115000003 9.9999996826552254e-21 0.30265419760000006
decision_type=2 2 2 2 2 2 2 2 2 2 2 2 2 2 2 2 2 2 2 2 2 2 2 2 2 2 2 2 2 2 2 2 2 2 2 2 2 2 2 2 2 2 2 2 2 2 2 2 2 2 2 2 2 2 2 2 2 2 2 2 2 2 2
left_child=1 3 13 -1 55 6 7 8 52 -10 -11 12 -9 -3 -8 -16 17 28 33 35 45 -5 -23 -20 -25 26 -14 -7 29 -17 -31 32 -32 -19 -35 53 -37 -33 39 -39 41 42 43 44 -22 -21 48 -48 -42 -41 -51 -36 -6 54 -4 61 -57 58 62 -60 -61 -2 -58
right_child=4 2 19 21 5 27 14 11 9 10 -12 -13 25 -15 15 16 -18 18 23 20 40 22 -24 24 -26 -27 -28 -29 -30 30 31 37 -34 34 51 36 -38 38 -40 49 46 -43 -44 -45 -46 -47 47 -49 -50 50 -52 -53 -54 -55 -56 56 57 -59 59 60 -62 -63 -64
leaf_value=-0.017181120200449911 -0.014378683513209971 -0.014293421975736732 -0.018075246192580132 -0.016805464289001943 -0.015665848880410539 -0.011483127297023039 -0.017548506881232898 -0.01105058439581774 -0.017370277231021275 -0.006433789683506135 -0.016084390794317418 -0.0098753337319057652 -0.016388583760208301 -0.0081544871958615477 -0.010155585936205273 -0.011935069534785915 -0.017625699580727398 -0.018066629628786666 -0.010777122621646332 -0.017700711438154996 -0.017268079608218492 -0.010558932040650249 -0.015367085208472714 -0.012000623386360329 -0.016601185815529943 -0.01683864782512548 -0.010729025691027811 -0.015162165487773721 -0.017384626978530448 -0.012849540697257857 -0.01238995206441915 -0.017830973381622376 -0.016840401992436901 -0.010080131033798735 -0.017461968865820063 -0.012120112825793431 -0.016915606820381787 -0.012623802190541719 -0.018158210908187675 -0.018075879605276776 -0.018122932018929009 -0.018114194429163698 -0.0090396986697991698 -0.01066688823994221 -0.012087607562083533 -0.014497617624019788 -0.018127238852893739 -0.011492990084692191 -0.014632055414110039 -0.013288997207116531 -0.016805863662045912 -0.014495853981501836 -0.018075308874418862 -0.018070803859087509 -0.014259813752936619 -0.013331689963996172 -0.014209428438288421 -0.01742232488407602 -0.018152416166586777 -0.015368907076815796 -0.010610016049594995 -0.017401776120926884 -0.017335702441380871
leaf_count=2771 22 21 21 29 33 36 215 39 56 24 20 24 22 20 25 32 167 49 38 103 49 26 26 26 26 62 21 39 226 23 28 158 32 20 58 20 68 29 44 35 59 28 22 21 20 22 31 30 23 25 30 22 80 189 21 34 21 239 26 43 37 368 221
internal_value=0 -1.6903526319190045 -1.6173944265560998 -1.7100132027660699 -1.6284215045942467 -1.5984794130327011 -1.6099865267593372 -1.4982939911916262 -1.6016206782278501 -1.4485544781309512 -1.0817317327450378 -1.367496239837376 -1.4308606167452227 -1.1296987408735599 -1.6425355047266692 -1.6204465829371761 -1.6346240261358977 -1.6109150593760917 -1.4943111621464982 -1.6449234297511675 -1.5862362885152941 -1.4338098714580527 -1.296491552357145 -1.2812300894889732 -1.4300131169402912 -1.5519856725533869 -1.3621870302760291 -1.3396760002871249 -1.6530320068797346 -1.608763754378512 -1.6417040543331274 -1.6632421056281801 -1.4762728571685773 -1.623124631371673 -1.5332967110399007 -1.7200320190583729 -1.5824923896071637 -1.6981965969887767 -1.6159555851847776 -1.5420390818640302 -1.5299910765034181 -1.4411052052382003 -1.3485927694943163 -1.457356924710401 -1.576571942402091 -1.7136510261794526 -1.6170261518024309 -1.4862601364915196 -1.714355086612569 -1.6322310860015252 -1.5207431877343498 -1.6646227629430137 -1.7371404757411528 -1.7724590614485753 -1.6167091114750582 -1.6806971537824995 -1.6540656213769882 -1.6726499254398479 -1.6248662716235915 -1.4389272005339526 -1.3167159291957009 -1.7231248456758439 -1.7064426010774605
internal_count=6395 3620 768 2852 2775 1764 1689 381 213 100 44 168 144 41 1308 1093 1068 901 239 727 408 81 52 90 52 105 43 75 662 436 404 381 60 149 100 319 88 321 163 119 283 140 112 90 69 125 143 61 82 90 55 80 113 231 42 1011 621 587 348 106 80 390 242
shrinkage=0.01


Tree=13
num_leaves=64
num_cat=0
split_feature=0 2 2 3 6 5 2 6 1 5 5 3 5 5 5 5 2 6 5 5 2 2 5 5 6 5 2 2 1 2 2 1 2 2 1 2 2 3 2 1 5 2 2 0 6 5 1 0 2 6 3 2 2 5 5 6 6 6 1 2 2 2 0
split_gain=1.4712366611374819 1.2672099740616432 2.5119891486517076 1.5576883479909611 1.060407220410525 1.2813091129069107 1.4970767411314228 1.2565727180573845 1.0766767975372318 2.5774682184658886 2.4728669799532046 0.98579163173539541 1.3855913218322371 0.94010900725767321 0.79113372228698609 2.284444681215291 1.1427052065787038 0.78184774897135867 0.73675940977216214 1.1812399125693673 1.5990759363801033 0.71311424874741647 0.67058089581035318 0.73285548819471913 0.66392647165768182 0.67068299390603059 0.64159617145094217 0.83990546634531782 0.61735697237124754 0.59947208309347388 1.6804394541011192 0.56094699277204541 0.86874859432082729 0.57443631037237708 0.53355406459002097 1.1692659655049482 1.3190957737038502 1.0218811321767518 0.92893092500438001 0.5273146143497911 0.50666715368350879 0.53104903475909282 1.0196900918460159 1.2767513136471393 0.59279103315024884 0.45382802064600014 0.44381059342931906 1.6359120355974781 0.49173435898237017 0.43979205511698183 0.50029329311180959 0.46257651087000795 0.34913563742873066 0.34213740865158826 0.33077860505953538 0.30364192334883455 0.37250711404405124 0.28032253077304858 0.27888731021857893 0.90206568176120072 0.47565428704029955 1.2877321404573365 1.1888928209129404
threshold=0.75000000000000011 0.89215327680000012 0.90915481105000018 0.50024987510000007 3.0811388301000004 0.45387089175000001 0.66778547845000003 3.5348264453000007 0.25000000000000006 0.37516648170000005 0.39855990275000003 0.42408725105000006 0.30265419760000006 0.38111663890000008 0.31456317920000004 0.32062435290000008 1.0085571258000001 3.2394512253000003 0.40963391020000006 0.38639349505000004 1.1505433178000002 1.0275881845000001 0.4361191895 0.52052857530000007 3.3903632027500006 0.39755502265000014 0.53648151425000012 0.47335229060000006 0.65000000000000002 0.81028542060000019 0.86367671460000006 0.8500000000000002 1.1465982214500003 1.4857656618000001 0.75000000000000011 1.3179055139500002 1.2159101461500001 0.42408725105000006 1.1390785419500002 0.25000000000000006 0.35874779520000005 1.2278028894000002 0.8676476632500002 0.8500000000000002 3.3903632027500006 0.41755238765000008 1.0500000000000003 0.65000000000000002 1.3179055139500002 3.5348264453000007 0.42408725105000006 0.75931709950000015 1.5539264490000002 0.40149717870000007 0.35979159965000007 2.1180339887500002 1.2071067812000003 3.3903632027500006 0.35000000000000003 0.60699047255000005 1.1684658669500003 0.98789547780000009 0.8500000000000002
decision_type=2 2 2 2 2 2 2 2 2 2 2 2 2 2 2 2 2 2 2 2 2 2 2 2 2 2 2 2 2 2 2 2 2 2 2 2 2 2 2 2 2 2 2 2 2 2 2 2 2 2 2 2 2 2 2 2 2 2 2 2 2 2 2
left_child=1 3 13 -1 58 6 7 8 54 -10 -11 12 -9 -3 -8 16 -16 31 19 39 29 45 -5 -24 -22 -26 27 -14 -7 -21 -31 55 -33 -34 35 36 37 38 -23 -17 41 42 -41 -44 -45 -19 48 -48 -36 50 51 -42 -43 -32 -6 56 -4 -53 -2 -60 61 -61 -63
right_child=4 2 17 22 5 28 14 11 9 10 -12 -13 26 -15 15 18 -18 21 -20 20 24 34 23 -25 25 -27 -28 -29 -30 30 53 32 33 -35 46 -37 -38 -39 -40 40 49 52 43 44 -46 -47 47 -49 -50 -51 -52 57 -54 -55 -56 -57 -58 -59 59 60 -62 62 -64
leaf_value=-0.017042187363628458 -0.017091938720101525 -0.01417203112988766 -0.017930599247339085 -0.016666429748767451 -0.015535550182838222 -0.011381540698648766 -0.017406319402683234 -0.010951760878848502 -0.017229548368937777 -0.0063735581461826785 -0.015951517200323295 -0.0097859394383694263 -0.016251867399365613 -0.0080794344893393329 -0.0080122541435109808 -0.013822003102439818 -0.014585029340735545 -0.017557959458277789 -0.017483093821632857 -0.017922206345978266 -0.010680980206950399 -0.017127961282814408 -0.010463837350273921 -0.015233864720756298 -0.011895105572779919 -0.01646418816227295 -0.016700352963553967 -0.010631975009795994 -0.015033131724051662 -0.0099898148446845129 -0.017319462693335171 -0.012009026540482793 -0.017973007563019287 -0.01391255085803399 -0.017977061133127782 -0.017968545338145545 -0.0089574386955514427 -0.010570723525538662 -0.01198199043901885 -0.016884136572129921 -0.014086800885893234 -0.017940414068304898 -0.0097382914408347433 -0.012743547647911085 -0.01690172479550003 -0.014374460261072548 -0.017981254217657897 -0.011391257357162805 -0.014508278434433624 -0.017968870199707103 -0.014156056135148053 -0.017943416217672713 -0.015308996552530584 -0.014372734943224569 -0.017930662921156679 -0.017926272788317855 -0.014139046575147314 -0.016302604206825451 -0.013217635181071266 -0.016926027162627068 -0.017281157084181997 -0.018005779572606344 -0.01305304381056754
leaf_count=2771 390 21 21 29 33 36 215 39 56 24 20 24 22 20 20 29 23 103 167 49 38 49 26 26 26 26 62 21 39 20 58 20 48 20 59 28 22 21 20 75 21 64 24 23 35 22 31 30 23 139 31 100 30 22 80 189 21 73 34 242 239 26 80
internal_value=0 -1.6766025801936628 -1.604043264000655 -1.6961586612224149 -1.6149978478565656 -1.5852233739068096 -1.5966621522391542 -1.4856823129533421 -1.5883997952217412 -1.4363348146696913 -1.0721466459907236 -1.3557038269862378 -1.4186240015609604 -1.1197127590248259 -1.6290093704318951 -1.6070601581057005 -1.1527438037333486 -1.6313992746090344 -1.6256941558486036 -1.6025136860788229 -1.481723669436136 -1.5730594813718339 -1.4214281113285372 -1.2850339507044752 -1.2700953824316963 -1.4178259195777154 -1.538938491888046 -1.3503553162993422 -1.3280589182247291 -1.6097138988402295 -1.5204267087531174 -1.7060778941394243 -1.5693573909225267 -1.6778839816979736 -1.5171690610639237 -1.4288865631491194 -1.3370108191748089 -1.4450230021226946 -1.563494372438448 -1.6473725548055855 -1.6598820696077776 -1.5903247592548975 -1.518724701496541 -1.3637467713205236 -1.5253213740265419 -1.699701024971908 -1.6036302110858733 -1.4737072882831059 -1.7003590233525672 -1.7078662388493504 -1.6528713458294138 -1.6908443018106492 -1.7100077502354241 -1.6508857295699388 -1.723079371506397 -1.7582062501151914 -1.6033943083286601 -1.7250927461170242 -1.6669879613862044 -1.6404987628548808 -1.6589648106085533 -1.6114839462481036 -1.4266642650186492
internal_count=6395 3620 768 2852 2775 1764 1689 381 213 100 44 168 144 41 1308 1093 43 727 1050 883 239 408 81 52 90 52 105 43 75 149 100 319 88 68 283 140 112 90 69 644 615 251 157 82 58 125 143 61 82 364 225 194 94 80 113 231 42 173 1011 621 587 348 106
shrinkage=0.01


Tree=14
num_leaves=64
num_cat=0
split_feature=4 0 5 4 4 4 5 5 4 2 2 5 4 0 2 3 0 5 3 2 2 2 3 2 2 4 1 1 5 5 0 3 2 2 5 5 2 2 1 4 2 3 2 4 5 2 0 2 2 5 4 5 4 2 4 5 5 5 5 4 4 4 5
split_gain=2.8249137958546271 0.83823195177137677 1.1551860353583834 1.0701058709692006 1.5354991816374195 0.90070691152055815 1.5777862876343605 0.97630598270001201 1.8419554331651682 1.3805328506856256 1.759482496710838 1.4966024667773468 0.8365034206018116 0.82508725634352231 1.8820825606380822 1.7367225251801486 1.2430444392862334 0.98434215865144381 0.96372260136678278 0.88983010083921954 2.1006187648528112 0.800594254456513 0.75087949577563506 0.66649993030000587 0.91212111477784674 0.91761040364269775 0.70928484423961891 1.0009730614226555 3.4251964119985061 0.93034283830974118 1.6223491465122208 1.5968065909333689 1.6866774358074004 1.4437285351850164 0.96666781868313478 4.4629250736579813 1.346889005172315 0.64435815285733611 0.58810769139056873 0.57536024825827781 0.61665518850395529 0.77707550454172747 0.78068225630013899 1.0637909060517217 0.87020767606057348 0.56258508605006341 0.90286827053283503 1.0672463022596261 0.77411655649525812 0.48335096370893993 0.48237002976266297 0.43695514685395054 0.42729447228960993 0.4265609623457749 0.35766733082618885 0.39210099594811254 0.77131663549360496 0.36044420421785617 1.2941192466039126 1.1163382416488901 1.2364639973422271 0.80619060852961866 0.35250963433315974
threshold=0.83442184190000013 0.75000000000000011 0.42848568980000007 0.64171451630000009 0.72616072340000015 0.71495968790000008 0.35979159965000007 0.37060755395000006 0.65478215345000013 0.99420182945000002 1.1684658669500003 0.37940742700000002 0.72033623565000016 0.55000000000000016 0.54054363045000009 0.44715768680000006 0.75000000000000011 0.35846893940000008 0.50024987510000007 0.86367671460000006 0.93691647025000013 0.5774404097000001 0.42408725105000006 0.74098748675000026 0.76750404464999999 0.85845334655000016 1.5500000000000003 1.3500000000000003 0.39006409205000009 0.37155079795000007 0.75000000000000011 0.42408725105000006 1.1265267332500002 1.2278028894000002 0.32687917365000008 0.31456317920000004 1.0085571258000001 0.65978211850000001 0.15000000000000005 0.88401787430000012 1.4719247258500001 0.53079872135000006 1.2673790896000001 1.0709026656500003 0.51956632320000018 0.66778547845000003 0.8500000000000002 0.5774404097000001 0.62873876790000016 0.3582596755500001 0.87966407465000018 0.40466034670000001 0.92845067715000018 0.57527161085000011 0.74794760480000011 0.35440087485000005 0.33786084520000004 0.38255717970000008 0.38639349505000004 0.70728207385000008 0.71652412240000007 0.73573696605000005 0.40199494785000006
decision_type=2 2 2 2 2 2 2 2 2 2 2 2 2 2 2 2 2 2 2 2 2 2 2 2 2 2 2 2 2 2 2 2 2 2 2 2 2 2 2 2 2 2 2 2 2 2 2 2 2 2 2 2 2 2 2 2 2 2 2 2 2 2 2
left_child=1 2 54 -3 5 7 -7 8 49 11 -11 -9 -8 18 15 16 -15 -18 19 -2 -21 38 -4 45 -25 -26 27 29 -29 30 31 32 -27 34 35 52 -36 53 -20 -31 41 42 44 51 -41 46 -16 -48 -49 -5 -22 -44 -32 -13 57 56 -56 -1 -59 -60 -61 -62 -6
right_child=13 3 22 4 62 6 12 9 -10 10 -12 37 -14 14 23 -17 17 -19 21 20 50 -23 -24 24 25 26 -28 28 -30 39 33 -33 -34 -35 36 -37 -38 -39 -40 40 -42 -43 43 -45 -46 -47 47 48 -50 -51 -52 -53 -54 -55 55 -57 -58 58 59 60 61 -63 -64
leaf_value=-0.016993898780186815 -0.016933455727216752 -0.017096201771510489 -0.01240303709944001 -0.010524283818687584 -0.016466361746565759 -0.0084852249437196558 -0.012862510227166408 -0.010787201215336715 -0.017092604559108545 -0.0074796779763578302 -0.014993864544280873 -0.016431087035937708 -0.01789764569194701 -0.01463033549367917 -0.017082421437644237 -0.017948172833952017 -0.012914965284672824 -0.0073870011543793294 -0.010075767937209544 -0.010782842837340181 -0.013836192049474987 -0.016787584557025323 -0.016583239072716464 -0.012373776562467536 -0.017437508967638304 -0.017919935935244543 -0.017318320028820212 -0.016887921640813749 -0.0081734245832691815 -0.013586670953571569 -0.013891689119636428 -0.0074749163553247261 -0.009840832471558281 -0.017375634072782722 -0.017894475488875385 -0.004664312210456858 -0.012220978007414599 -0.017812180391330406 -0.014445375769908082 -0.016862843867762857 -0.0179214353719073 -0.012800039382213097 -0.013823370359433984 -0.0105114797364544 -0.012790370578886824 -0.017517528607635086 -0.017959494543333843 -0.010896315037560698 -0.015294632844814075 -0.014617863180187415 -0.017356521263524934 -0.017936255334034118 -0.01795759234270097 -0.012800090762205738 -0.017185931496396991 -0.017776122605473062 -0.013726569735436841 -0.012189194604395949 -0.017425842609257648 -0.010748195131977372 -0.01777800722181969 -0.013421356072600451 -0.017785898447224956
leaf_count=1350 559 523 37 22 541 21 32 23 221 23 28 29 23 36 106 23 23 30 20 34 20 33 33 37 99 22 72 41 33 38 20 23 20 87 43 21 28 62 33 277 69 31 20 22 23 135 24 34 31 25 75 22 22 24 206 413 30 29 221 23 45 28 97
internal_value=0 -1.6681717742898698 -1.692289536273794 -1.6338112974659171 -1.5999739802111936 -1.5201776456563059 -1.3172788423925623 -1.5539772235454135 -1.6321953719676665 -1.4431104296766735 -1.1601451902047291 -1.5478681744054077 -1.4967490202096199 -1.5798204303569627 -1.5524542343234926 -1.3015420284058954 -1.1743251092874032 -0.97863092469213286 -1.6333252977508326 -1.6585063609182631 -1.5077568629977123 -1.4326173601093535 -1.4372599638586609 -1.572574077447862 -1.5481764706507248 -1.5593006212826783 -1.5397686835375213 -1.5237341787399916 -1.2998249614493085 -1.5447648351939405 -1.4531088252333282 -1.1735683199404252 -1.4072093963334125 -1.5353813725434466 -1.4043613025572046 -1.2229560727212403 -1.5654954108547818 -1.6417231886610848 -1.2796016830731647 -1.5970010862477075 -1.6165049334668511 -1.5858182821685403 -1.611907728718214 -1.4099755318197458 -1.6549884135009607 -1.6517256319533122 -1.5825623005509293 -1.433137536769439 -1.2992071370891276 -1.27011916412785 -1.6615412104817218 -1.5978599063707635 -1.6021657340338593 -1.4786318354181902 -1.6999108258893048 -1.7401561317420819 -1.674611189597039 -1.6845108724692661 -1.6264701987791161 -1.663754993785812 -1.4822597502109172 -1.6107002734208606 -1.6666898874554201
internal_count=6395 4109 2415 1694 1171 533 76 457 268 189 51 138 55 2286 1512 112 89 53 774 688 129 86 70 1400 1070 1033 934 862 74 788 286 65 42 221 134 63 71 115 53 502 464 395 364 64 300 330 195 89 65 47 95 42 42 53 2345 649 236 1696 346 317 96 73 638
shrinkage=0.01


Tree=15
num_leaves=64
num_cat=0
split_feature=3 6 5 2 0 2 5 3 5 5 6 6 6 1 2 2 2 2 5 5 0 5 2 2 2 2 5 5 2 2 3 2 5 5 0 5 5 2 5 1 5 1 5 5 2 2 3 2 2 6 5 5 5 5 2 0 5 1 5 5 5 5 5
split_gain=1.8383067309132457 1.663259633583948 1.4135834612006875 1.4597619954186811 1.3372464273643345 1.8157721619851372 2.3188223228806208 1.4260500699137566 1.3246702355550042 1.138260680130216 1.4456913833021829 0.62093495294220702 1.1906335632513674 1.8324974255377811 2.884721302380342 0.77696769729183757 0.62221625137516412 0.71111635105336291 1.1938130046966311 1.0036798895435197 1.0965803984879372 1.2507200442285331 0.83649006568865047 0.72848733197790239 1.626870461227611 0.63962994631255299 0.50362606654280739 1.4415893718823156 0.50528359389131339 0.48112974744117309 0.63566172386691733 0.47402680033138722 0.47010505754212772 0.69150075753827878 0.69533892266383646 0.83154725781466254 0.76123743825176859 1.536884484772024 0.58779665080430732 0.50168775547552968 0.74714601613743525 1.0212318026469234 0.53992786353964561 0.48974567723689688 0.79805003315593837 1.1375199011591732 0.55504429417518253 0.48639353281375008 1.7388641867398675 0.44097210643677442 0.5774408563376312 0.42136196813731885 0.40544261518093805 0.37416990681151674 0.66330044109423625 0.43655208631397358 0.3194156746471748 0.31691103077275784 0.30409079254457083 0.29023969714137365 0.75321420513488135 0.33713159391301417 0.28919834706262293
threshold=0.53079872135000006 3.0811388301000004 0.50174639155000011 0.91292796580000013 0.55000000000000016 0.89215327680000012 0.38736287360000005 0.42408725105000006 0.41988086800000007 0.46097690385000006 3.2394512253000003 3.6736043311500004 3.5348264453000007 0.95000000000000007 1.2927683248000001 0.49717944575000006 1.1565033190500003 1.0447786740000002 0.35078482710000009 0.32031230955000006 0.75000000000000011 0.29196817915000006 0.61415587215000012 0.79863161825000006 0.82215416065000013 0.57527161085000011 0.32870958950000001 0.31456317920000004 1.1930789352000002 0.51082032695000013 0.31567387245000006 1.0857024993500002 0.31456317920000004 0.36159368805000008 0.8500000000000002 0.3256531807000001 0.36131702870000004 0.9550850607000001 0.37516648170000005 1.0500000000000003 0.38639349505000004 1.4500000000000002 0.40853394595000009 0.38490257960000013 0.70156072470000008 0.79274047530000014 0.39993749025000008 0.65978211850000001 0.54457544715000006 3.5348264453000007 0.35277413905000005 0.28591121250000007 0.30124712085000005 0.29470313070000004 0.50155996945000014 0.25000000000000006 0.28844389370000006 0.15000000000000005 0.37060755395000006 0.32817664015000009 0.33786084520000004 0.35874779520000005 0.28844389370000006
decision_type=2 2 2 2 2 2 2 2 2 2 2 2 2 2 2 2 2 2 2 2 2 2 2 2 2 2 2 2 2 2 2 2 2 2 2 2 2 2 2 2 2 2 2 2 2 2 2 2 2 2 2 2 2 2 2 2 2 2 2 2 2 2 2
left_child=1 29 4 -4 5 53 49 -8 -2 -10 -11 12 32 14 16 -13 17 19 -19 20 51 -22 25 -24 -25 -21 27 -17 -29 30 -1 -15 62 34 35 -34 37 -37 -35 43 -41 42 -42 44 -40 -46 -47 48 -36 -7 52 -14 -51 54 55 56 -3 -45 -26 -49 -61 -62 -6
right_child=8 2 3 -5 11 6 7 -9 9 10 -12 15 13 31 -16 26 -18 18 -20 22 21 -23 23 24 58 -27 -28 28 -30 -31 -32 -33 33 38 47 36 -38 -39 39 40 41 -43 -44 57 45 46 -48 59 -50 50 -52 -53 -54 -55 -56 -57 -58 -59 -60 60 61 -63 -64
