tree
num_class=1
num_tree_per_iteration=1
label_index=0
max_feature_idx=6
objective=binary sigmoid:1
feature_names=ps_reg_01 ps_reg_02 ps_reg_03 ps_car_12 ps_car_13 ps_car_14 ps_car_15
feature_infos=[0:0.90000000000000002] [0:1.8] [-1:2.8635642127000001] [0.14142135619999999:1.2649110641000001] [0.32934947149999999:2.7072751693999999] [-1:0.57532599449999999] [0:3.7416573868]

Tree=0
num_leaves=63
num_cat=0
split_feature=4 6 2 2 4 5 5 5 2 0 2 0 0 2 2 4 2 2 0 2 5 4 4 2 6 0 2 2 2 2 3 0 4 5 3 2 5 5 2 2 2 4 5 0 5 0 5 4 2 4 2 2 4 0 2 3 5 2 6 4 4 4
split_gain=3.8499615586015352 1.2161216219326434 1.1067613002480812 2.2246087063808204 1.6835016835016816 1.4227958192523147 1.4492901605021871 1.4064936218072148 1.1055381400209043 0.73052276498555102 1.1199822330797815 3.1168831168831197 1.0205278592375322 0.70330087968341104 1.305325562928374 1.0153875925719831 0.85333333333333528 0.69093586064980173 0.67839321397985941 1.0949364676469031 1.4846723044397407 0.5488904571473654 1.0758448575599573 0.52494873547504994 0.51779929006522707 0.85938339241593553 1.0659352142110805 0.66829640947288027 0.56344500926721253 1.1724290780141899 0.75567885666245616 0.48556421131524985 0.61670628769024916 2.2326606537132818 1.0549561432740688 1.2204885736800613 0.53253313328332297 0.97030081710437344 0.67453163182187836 1.8059319990354439 0.90427350427349751 0.60112792489843514 0.51580188679247385 0.46365292266932556 0.90931290931291642 0.43758765778401454 0.43487179487179617 0.39999999999999858 0.39000000000000057 0.38486842105263008 0.38012121212113925 0.35552205808460258 0.59831546975726724 0.9828419660743748 0.96927498235353937 0.90655391120508 0.7569078155941682 1.6823348694316351 0.58095238095236823 0.6466898954703808 1.6390243902439003 0.33846773381657513
threshold=0.94671025990000002 2.7370892179000008 1.0141190641500002 1.0857024993500002 1.0811017084500001 0.50174639155000011 0.39881072710000004 0.38736287360000005 -9.9999996826552254e-21 0.55000000000000016 0.61415587215000012 0.75000000000000011 0.8500000000000002 0.89215327680000012 1.2014310930000003 0.91503172505000008 1.0217937544500002 1.1038285555000003 0.75000000000000011 1.1201283321500002 0.39420804650000002 1.0464061379500003 1.0178697733500004 0.76750404464999999 3.3903632027500006 0.65000000000000002 1.3682790238000002 1.6978846909500003 1.5539264490000002 1.6270178389000001 0.39993749025000008 0.65000000000000002 0.83675262640000014 9.9999996826552254e-21 0.37067024925000008 0.61770740325000018 0.38865150955000011 0.39465161815000005 0.60492762645000009 0.65740964665000012 0.81259612545000015 0.67699048385000005 0.32687917365000008 0.8500000000000002 0.35846893940000008 0.45000000000000007 0.43485628290000006 1.0120911320500003 1.1625671946000005 1.1513691081000001 1.2839148596000003 0.94240378290000015 0.70847875655000003 0.75000000000000011 0.9550850607000001 0.37067024925000008 0.37396494620000015 1.0312310493000003 3.3903632027500006 0.80067120560000016 0.74494161945000015 0.64604646035000013
decision_type=2 2 2 2 2 2 2 2 2 2 2 2 2 2 2 2 2 2 2 2 2 2 2 2 2 2 2 2 2 2 2 2 2 2 2 2 2 2 2 2 2 2 2 2 2 2 2 2 2 2 2 2 2 2 2 2 2 2 2 2 2 2
left_child=13 -2 5 4 -4 6 7 9 -7 -3 11 -11 23 31 15 17 -17 51 45 -20 48 22 -8 -12 25 -5 -27 -28 30 -30 -26 -1 36 -34 35 -35 -33 38 -38 -40 -41 -39 -36 44 -32 -19 -46 -9 -21 -31 -16 58 53 56 -54 -55 57 -53 -15 60 -60 -57
right_child=1 2 3 24 -6 8 21 47 -10 10 12 -13 -14 14 50 16 -18 18 19 20 -22 -23 -24 -25 28 26 27 -29 29 49 43 32 33 34 42 -37 37 41 39 40 -42 -43 -44 -45 46 -47 -48 -49 -50 -51 -52 52 54 55 -56 61 -58 -59 59 -61 -62 -63
leaf_value=-0.019202334630350197 -0.013043478260869566 -0.019097744360902256 -0.017037037037037038 -0.019999999999999987 -0.010303030303030303 -0.011999999999999997 -0.019518072289156623 -0.012000000000000002 -0.017575757575757581 -0.020000000000000004 -0.01428571428571428 -0.0090909090909090905 -0.019999999999999997 -0.02 -0.02 -0.012000000000000002 -0.017333333333333333 -0.016521739130434782 -0.012592592592592586 -0.019999999999999987 -0.012727272727272728 -0.02 -0.015294117647058823 -0.017894736842105265 -0.0152 -0.012499999999999995 -0.018823529411764708 -0.014285714285714287 -0.013333333333333326 -0.02 -0.014285714285714277 -0.019139784946236561 -0.012307692307692309 -0.012000000000000002 -0.016 -0.018518518518518517 -0.018999999999999993 -0.016923076923076923 -0.010909090909090901 -0.019111111111111106 -0.013999999999999999 -0.019722222222222224 -0.019375 -0.02 -0.019999999999999997 -0.02 -0.016799999999999999 -0.015999999999999997 -0.016799999999999999 -0.016842105263157894 -0.018880000000000001 -0.019047619047619042 -0.014999999999999999 -0.019999999999999997 -0.019241706161137441 -0.018095238095238098 -0.012380952380952381 -0.012 -0.01999999999999999 -0.02 -0.011999999999999997 -0.014545454545454544
leaf_count=2056 23 133 27 20 33 25 83 20 33 20 28 22 58 122 160 20 30 23 27 39 22 210 34 38 25 32 34 21 30 26 21 1023 26 20 20 27 40 39 22 45 20 144 192 84 53 39 25 20 25 38 500 42 24 67 211 21 21 20 21 29 20 22
internal_value=0 -1.7598684210526316 -1.7686504610226321 -1.6929637526652452 -1.3333333333333333 -1.8176795580110496 -1.8438438438438438 -1.752212389380531 -1.5172413793103448 -1.7993311036789297 -1.7108433734939759 -1.4285714285714286 -1.8064516129032258 -1.8849198687005213 -1.8485049833887044 -1.7964497041420118 -1.52 -1.8138364779874214 -1.7028571428571428 -1.6106194690265487 -1.7209302325581395 -1.9388379204892967 -1.829059829059829 -1.6363636363636365 -1.745721271393643 -1.6261682242990654 -1.5402298850574712 -1.709090909090909 -1.7880794701986755 -1.6595744680851063 -1.8461538461538463 -1.8998366902558519 -1.8739184177997528 -1.7894736842105263 -1.8455598455598456 -1.574468085106383 -1.891972993248312 -1.8193548387096774 -1.6850393700787401 -1.5862068965517242 -1.7538461538461538 -1.9125683060109289 -1.9056603773584906 -1.8907103825136613 -1.797979797979798 -1.8709677419354838 -1.8974358974358974 -1.3999999999999999 -1.8749999999999996 -1.8125 -1.915151515151515 -1.8451612903225807 -1.8130841121495327 -1.7305699481865284 -1.8808510638297873 -1.8545454545454545 -1.5662650602409638 -1.6774193548387093 -1.9166666666666667 -1.7714285714285714 -1.609756097560975 -1.6279069767441861
internal_count=6395 1216 1193 469 60 724 666 339 58 299 166 42 124 5179 1505 845 50 795 175 113 86 327 117 66 409 107 87 55 302 94 208 3674 1618 285 259 47 1333 310 127 87 65 183 212 183 99 62 78 40 64 64 660 620 428 193 235 110 83 62 192 70 41 43
shrinkage=0.01


Tree=1
num_leaves=63
num_cat=0
split_feature=1 2 3 2 1 3 5 6 6 2 6 5 6 2 2 6 2 2 2 2 3 5 0 5 1 2 0 2 2 5 5 5 5 3 6 5 5 5 5 5 5 2 5 2 6 2 2 2 6 0 2 2 5 5 0 1 5 2 2 5 2 3
split_gain=2.4625625194057648 1.8516219035914219 1.7295031794683382 1.651606137433987 1.0075323667094835 2.661512787213411 2.5903707735351489 1.4463702146527311 1.0559301516611583 0.93771129588569124 0.91762620212469415 0.89668030724374148 0.81368188378286277 0.99536078887893353 0.79718297396379967 0.79689901477377134 1.2381387720570274 2.4679759611045711 1.103366866359579 2.8008509208373766 2.2060382728689945 0.83646096815945725 0.80869066657048094 0.77540909769095379 0.75326627268157154 0.92224688828616763 1.0772252245503751 0.72598139102495907 0.71819631423862518 0.97660459218626983 0.71762542753225489 1.5707796731911685 0.72643015702311686 0.67947150386845578 0.66891261445740469 0.64173701633832536 0.62622257800194348 0.5987313263737235 1.3288878468916465 0.68601305009815405 0.58792816357037481 1.7761378572215136 0.53845717100074353 0.52873331440422078 0.43337149366572092 0.42797587490770184 0.38454984504960521 0.63956780682065073 0.58092977427349979 0.45938742958333023 1.0680215883838571 0.99293162325669471 2.0597516991008291 0.53585928089677992 0.28549246631132519 0.38798347130745015 0.38895407232059398 0.28498885823790943 0.87720072797031889 0.71238471464883446 0.46616806601326743 0.2809160381416973
threshold=0.75000000000000011 1.1684658669500003 0.50024987510000007 0.98789547780000009 0.95000000000000007 0.44715768680000006 0.39325563690000004 3.2394512253000003 2.9142135623500005 1.0990052228000002 2.7370892179000008 0.32488458580000007 3.3903632027500006 0.73590927085000002 1.5699322445500001 3.5348264453000007 0.43553113700000007 0.49717944575000006 0.89215327680000012 0.90915481105000018 0.44715768680000006 0.39096035080000008 0.75000000000000011 0.49446915410000003 0.55000000000000016 0.64735032380000013 0.75000000000000011 1.5984367243500002 -9.9999996826552254e-21 0.50174639155000011 0.35993054215000003 0.35714142170000013 0.45776513990000006 0.39993749025000008 3.6736043311500004 0.3582596755500001 0.31368770230000004 0.40595558785000002 0.38865150955000011 0.36407416180000007 0.34720310315000008 0.58336303300000014 0.29196817915000006 1.0447786740000002 3.2394512253000003 0.79863161825000006 0.51082032695000013 0.51871226055000008 1.2071067812000003 0.35000000000000003 0.82632467240000007 0.67523140215000022 0.36131702870000004 0.38555154750000004 0.15000000000000005 0.15000000000000005 0.39974990230000002 1.4100085865500003 1.3179055139500002 0.39755502265000014 1.3682790238000002 0.41987661255000003
decision_type=2 2 2 2 2 2 2 2 2 2 2 2 2 2 2 2 2 2 2 2 2 2 2 2 2 2 2 2 2 2 2 2 2 2 2 2 2 2 2 2 2 2 2 2 2 2 2 2 2 2 2 2 2 2 2 2 2 2 2 2 2 2
left_child=2 3 15 12 5 6 7 -5 -6 -9 -4 -3 -2 -14 30 23 54 22 24 -20 21 42 -18 36 25 26 -19 -16 29 -12 31 61 57 -15 40 -10 -1 38 39 -29 -28 -42 -21 -30 -25 -26 48 -48 -38 50 51 53 -53 -49 55 -17 -57 58 -32 60 -60 -13
right_child=1 11 10 4 8 -7 -8 9 35 -11 28 14 13 33 27 16 17 18 19 20 -22 -23 -24 44 45 -27 34 37 43 -31 32 -33 -34 -35 -36 -37 46 -39 -40 -41 41 -43 -44 -45 -46 -47 47 49 -50 -51 -52 52 -54 -55 -56 56 -58 -59 59 -61 -62 -63
leaf_value=-0.01955124713677699 -0.01936066319076183 -0.019555142808354329 -0.012581220018105535 -0.011621118747984058 -0.013168416610956954 -0.019833679447026537 -0.0065120070796129007 -0.019819579758940335 -0.015385339685390471 -0.013835744919134316 -0.017987061507910147 -0.017313594858358167 -0.013167195930063965 -0.019819292817174265 -0.013677587381020597 -0.019812060939292993 -0.015813252051107 -0.018725077178106939 -0.0098348176733680358 -0.01689438218571292 -0.012131846031109518 -0.015619379032139618 -0.01076470815654133 -0.018088074802225542 -0.017908591373309201 -0.01931871023410708 -0.012218753443473371 -0.016179987932866291 -0.01981678540687852 -0.011880429254726757 -0.019533387808918109 -0.011812773196076905 -0.015688057571898499 -0.015679380688435312 -0.018543828070710117 -0.019128560223819948 -0.016734422783201083 -0.019056042397242148 -0.013334235305982123 -0.019823285522303141 -0.011829072791779695 -0.019825696278232292 -0.01951840532962398 -0.015833918552087985 -0.014114058827529903 -0.013820452670164166 -0.015674818412784505 -0.01980980789440898 -0.019232111366145208 -0.018750860890282276 -0.019813290585105864 -0.010578187981119723 -0.017809427657501087 -0.015816502587203313 -0.019813524705512252 -0.016673980835914547 -0.01980702376815759 -0.0198171139004037 -0.019813543235339615 -0.01448706556072045 -0.016001559353436605 -0.019813782227635759
leaf_count=461 88 153 22 39 24 27 21 22 27 20 22 64 24 35 26 60 30 184 20 41 26 38 22 23 21 403 21 44 40 20 143 20 29 29 31 57 39 52 37 39 20 25 132 20 21 20 29 41 831 2070 65 26 40 20 197 51 23 111 33 30 21 25
internal_value=0 -1.7626671411427677 -1.8619414986670035 -1.6532992675814473 -1.5443045565222913 -1.4249831033030764 -1.2771751854827813 -1.4394674078673604 -1.686827469747366 -1.6970114999286421 -1.6285912228413508 -1.8172853123103547 -1.8000720114388942 -1.6640785200765742 -1.7859069480531424 -1.8676930209268756 -1.8264402771584376 -1.7923587121531868 -1.8148444262627155 -1.7022404174439261 -1.7628957295489944 -1.8306326650888989 -1.367728909484937 -1.8830531453237218 -1.8547608466079808 -1.8705448834496741 -1.7825934029778372 -1.6792554411931395 -1.7084979733088599 -1.507904908936808 -1.8302707044100817 -1.6877707910303241 -1.8725935011971475 -1.7943396865690722 -1.6120368797328934 -1.7925381928548314 -1.8862592208044824 -1.7263425320386023 -1.6486621270620945 -1.7891904083233989 -1.4982074427581513 -1.6271635778855902 -1.8896526934968754 -1.8489151170649132 -1.6191383423540247 -1.5914370522854253 -1.8762158904884474 -1.8626214898198523 -1.9120145830983268 -1.8664053291700931 -1.7728157487220251 -1.6660961106832795 -1.4960757142337631 -1.8500522275166527 -1.9329071509427913 -1.8616851729051278 -1.7647761631725483 -1.8986583668801045 -1.8580464034567827 -1.6958229356865637 -1.8331106624422082 -1.801589468993807
internal_count=6395 1240 5155 413 237 129 102 81 108 42 124 827 176 88 674 5031 1365 1034 982 257 237 211 52 3666 725 684 281 198 102 42 476 109 367 64 97 84 3622 172 120 83 66 45 173 60 44 41 3161 2291 870 2262 192 127 66 61 331 134 74 338 227 84 54 89
shrinkage=0.01


Tree=2
num_leaves=63
num_cat=0
split_feature=4 6 2 2 4 5 5 1 2 1 2 3 5 5 4 2 4 5 5 5 4 5 4 1 1 6 2 2 3 5 1 2 5 2 5 4 2 2 4 4 5 5 5 2 2 4 2 2 6 4 5 3 2 4 2 2 5 2 5 2 2 4
split_gain=3.7358115390761668 1.1747098749372071 1.0771676449305687 2.1798745074822818 1.6456893162362967 1.3711281245967939 1.4184720020753048 1.8921516418537578 1.0675756129940268 1.0671379475170397 1.801204782889954 1.6301204622107548 1.5056928890370642 1.0391919633973714 0.94333522813676041 1.2359047667787451 0.83012421199192943 1.0728036901306695 0.92412228932266061 0.86290838153127147 0.67436705660445284 0.77499295685566949 0.53968091971938748 1.104367818186148 0.52715110765001327 0.52332219176616945 0.59189243012752968 1.2154506738000777 0.80841501076113786 0.58155999599405561 0.65285998790105992 0.92593393750590636 0.52250689616218438 0.45781998325084317 0.44922498367677122 0.43909784737994784 0.42767019715134325 0.40392664018509095 0.67452749470157869 0.91777835430212917 0.82981010595597127 0.59826169393291195 0.39786968833332992 0.39546478630262527 0.76425945423218877 0.34030137298668706 0.37737576322729183 0.89898566983538331 0.80922644674785715 0.52932478597438148 1.5502601309479758 0.79749355597826366 0.68176513522874416 0.43352947763196426 0.59804887798014761 0.60355095980476392 0.59329765975162374 0.49341974074418715 0.39926243681663465 0.36834450250739792 0.43382869724325701 0.32784155478256594
threshold=0.94671025990000002 2.7370892179000008 1.0141190641500002 1.0857024993500002 1.0811017084500001 0.50174639155000011 0.39881072710000004 0.75000000000000011 0.41870318935000006 0.65000000000000002 1.2014310930000003 0.38710458850000007 0.39629533940000006 0.35846893940000008 0.63977978430000004 1.0590384687000001 0.67699048385000005 0.36228425435000006 0.33473869575000009 0.38203402430000005 0.99312200385000005 0.37229018515000012 1.0464061379500003 9.9999996826552254e-21 0.35000000000000003 3.3903632027500006 1.5539264490000002 1.6270178389000001 0.39993749025000008 0.39083243970000009 1.0500000000000003 1.5457603175000003 0.38865150955000011 1.1038285555000003 0.35846893940000008 1.1513691081000001 1.1038285555000003 9.9999996826552254e-21 0.9128631960000001 0.92547731650000009 0.35874779520000005 0.32886166430000002 0.36159368805000008 1.3865422975500004 1.4100085865500003 0.6317773040500001 0.68030320240000008 0.67523140215000022 2.1180339887500002 0.81857944880000011 0.31368770230000004 0.37067024925000008 0.51871226055000008 0.67480483825000015 0.5264859085500001 0.58603534785000011 0.36159368805000008 0.63319620905000007 0.37649686555000006 0.73590927085000002 0.74393377115000014 1.2274023744500002
decision_type=2 2 2 2 2 2 2 2 2 2 2 2 2 2 2 2 2 2 2 2 2 2 2 2 2 2 2 2 2 2 2 2 2 2 2 2 2 2 2 2 2 2 2 2 2 2 2 2 2 2 2 2 2 2 2 2 2 2 2 2 2 2
left_child=9 -2 5 4 -4 6 7 13 -7 37 11 14 16 61 15 42 -13 18 -18 -19 -15 -22 23 -8 -5 29 28 -28 -27 -26 -31 -32 36 -14 -30 -29 -16 -1 45 40 -40 -41 -11 -12 -45 -39 47 48 -47 53 -51 58 -53 54 -50 56 -56 -57 -52 -48 -61 -3
right_child=1 2 3 24 -6 8 22 -9 -10 10 43 12 33 20 32 -17 17 19 -20 -21 21 -23 -24 -25 25 26 27 35 34 30 31 -33 -34 -35 -36 -37 -38 38 39 41 -42 -43 -44 44 -46 46 59 -49 49 50 51 52 -54 -55 55 57 -58 -59 -60 60 -62 -63
leaf_value=-0.018987096039430655 -0.012772221273710003 -0.018892296012456313 -0.016691321768611361 -0.019663956897078182 -0.010032520735214601 -0.011752438181733223 -0.013647977918250339 -0.011984937543390599 -0.017232234112106695 -0.019633316022708753 -0.019289761115151644 -0.017841017233039859 -0.019646224567345504 -0.014208973183258894 -0.01963546609856634 -0.012796277912440852 -0.013187804972695828 -0.0082241992932273571 -0.018108693637073556 -0.013958527695268315 -0.014935869757385161 -0.018850274379406458 -0.019623177464863469 -0.018810354386615866 -0.01817619645339728 -0.014456363266388073 -0.012553910147169811 -0.019627124928388022 -0.016570628279766297 -0.017004944655106193 -0.010155908926218567 -0.016028012766650376 -0.016576165396627561 -0.015910422610133444 -0.019018411654969807 -0.016134923359065575 -0.016993295204962129 -0.018946382962926233 -0.018175111896896384 -0.015643001842243487 -0.013636587521343523 -0.019637871917902516 -0.016009394966414531 -0.014851338318407173 -0.018500503862817458 -0.014633544361268562 -0.019338435085353291 -0.014176356074173072 -0.019625006506247603 -0.013417169408989406 -0.017661605685473772 -0.016561955285492456 -0.019632877372308483 -0.018843744025222132 -0.01762386552412061 -0.019631407958712658 -0.012958874002235997 -0.016386120604219675 -0.013664697732219049 -0.01638614869384656 -0.018593444524826089 -0.016429125505918071
leaf_count=943 23 160 27 30 33 25 20 26 33 27 238 22 35 44 134 29 37 21 26 21 34 50 210 97 27 23 28 25 39 30 21 22 39 21 130 34 30 762 27 20 40 60 22 25 282 24 275 22 46 32 20 39 112 610 20 38 24 37 20 37 962 25
internal_value=0 -1.7249615399933687 -1.7335947108596341 -1.6589158963572272 -1.3028780754115701 -1.7819724031857951 -1.8076628023734678 -1.71699692814574 -1.4870052765972102 -1.8481652126314014 -1.7897922785356253 -1.6981977566457673 -1.551281512743947 -1.760069991198709 -1.7938792953381286 -1.6069079409764699 -1.4307969510567295 -1.3567717717776804 -1.5218591097812275 -1.1091400858457721 -1.6215051463049541 -1.7265888794427324 -1.9016591903409734 -1.7927878564339066 -1.7111499891264652 -1.6909454589583348 -1.7354463441219967 -1.5985785308414064 -1.7974671417245056 -1.5667924426967432 -1.4740231157609922 -1.3160200791246328 -1.8657225929030601 -1.8245200437730389 -1.8453527457959507 -1.761460988918977 -1.915212470258447 -1.8622898004484636 -1.851647309726177 -1.719268202484705 -1.5465580774429506 -1.8639146811028258 -1.8006229279627866 -1.8677766745970847 -1.8203331578660564 -1.8579655201630061 -1.8459100984827739 -1.8177151987123528 -1.8263274734520165 -1.8350563188844251 -1.7491757381496618 -1.817444150942618 -1.8839718211638179 -1.859768367771564 -1.7688001454433984 -1.6939249252692017 -1.5079316984944107 -1.8030400631414898 -1.5663144452443363 -1.8690149139060799 -1.8511693186611327 -1.8559440822758899
internal_count=6395 1216 1193 469 60 724 666 339 58 5179 1009 464 183 313 281 78 127 105 63 42 128 84 327 117 409 379 279 87 192 100 73 43 203 56 169 59 164 4170 3227 147 67 80 49 545 307 3080 2318 1044 1022 998 223 191 151 775 165 119 44 75 40 1274 999 185
shrinkage=0.01


Tree=3
num_leaves=63
num_cat=0
split_feature=4 6 2 2 4 5 5 1 1 2 3 5 2 5 4 2 4 5 5 4 4 5 4 1 1 6 2 2 3 5 2 1 5 2 5 4 2 2 4 4 5 5 5 2 2 4 2 2 6 4 5 3 2 4 2 2 5 2 5 2 2 4
split_gain=3.6680008492612615 1.153104270310223 1.0574905287439833 2.1392589627431562 1.6146562028063371 1.3461347924471738 1.3926947559076552 1.8568310856396408 1.0479030671049259 1.7684373993660074 1.6000249076241744 1.477325131251007 1.0477161663822017 1.0200183712568958 0.92592561529656336 1.2129866511931553 0.81449810602340733 1.0524309114983978 0.90687187952174497 0.84969589548061641 0.66181449953592164 0.76050515701037114 0.52989599677226806 1.0838536640565621 0.51726922771825912 0.51371402589614945 0.58102013751141612 1.1928374926172438 0.79354448947680112 0.57070520402083957 0.64162556751960409 1.1121383970825605 0.51292227672445279 0.44957933465200739 0.44098866542813653 0.43110512282004976 0.41990482164908371 0.39673998348689565 0.66219396696169497 0.9007549776600996 0.81416105323256716 0.58720465052888926 0.39054360082111828 0.38831504862116617 0.75013411556898291 0.33410874607079677 0.37040701124669795 0.88224563206063067 0.79418847334147813 0.5197141157104852 1.5214977855843301 0.78289008878269328 0.66921684675989468 0.42547094288386234 0.58702111035115934 0.59227791863847301 0.58218109839046761 0.4842884251630224 0.39176492276907027 0.3616225858593225 0.42577468805905028 0.32171556610134644
threshold=0.94671025990000002 2.7370892179000008 1.0141190641500002 1.0857024993500002 1.0811017084500001 0.50174639155000011 0.39881072710000004 0.75000000000000011 0.65000000000000002 1.2014310930000003 0.38710458850000007 0.39629533940000006 -9.9999996826552254e-21 0.35846893940000008 0.63977978430000004 1.0590384687000001 0.67699048385000005 0.36228425435000006 0.33473869575000009 0.81606417850000013 0.99312200385000005 0.37229018515000012 1.0464061379500003 9.9999996826552254e-21 0.35000000000000003 3.3903632027500006 1.5539264490000002 1.6270178389000001 0.39993749025000008 0.39083243970000009 1.4719247258500001 0.95000000000000007 0.38865150955000011 1.1038285555000003 0.35846893940000008 1.1513691081000001 1.1038285555000003 9.9999996826552254e-21 0.9128631960000001 0.92547731650000009 0.35874779520000005 0.32886166430000002 0.36159368805000008 1.3865422975500004 1.4100085865500003 0.6317773040500001 0.68030320240000008 0.67523140215000022 2.1180339887500002 0.81857944880000011 0.31368770230000004 0.37067024925000008 0.51871226055000008 0.67480483825000015 0.5264859085500001 0.58603534785000011 0.36159368805000008 0.63319620905000007 0.37649686555000006 0.73590927085000002 0.74393377115000014 1.2274023744500002
decision_type=2 2 2 2 2 2 2 2 2 2 2 2 2 2 2 2 2 2 2 2 2 2 2 2 2 2 2 2 2 2 2 2 2 2 2 2 2 2 2 2 2 2 2 2 2 2 2 2 2 2 2 2 2 2 2 2 2 2 2 2 2 2
left_child=8 -2 5 4 -4 6 7 13 37 10 14 16 -7 61 15 42 -12 18 -18 -19 -15 -22 23 -8 -5 29 28 -28 -27 -26 31 -31 36 -13 -30 -29 -16 -1 45 40 -40 -41 -10 -11 -45 -39 47 48 -47 53 -51 58 -53 54 -50 56 -56 -57 -52 -48 -61 -3
right_child=1 2 3 24 -6 12 22 -9 9 43 11 33 -14 20 32 -17 17 19 -20 -21 21 -23 -24 -25 25 26 27 35 34 30 -32 -33 -34 -35 -36 -37 -38 38 39 41 -42 -43 -44 44 -46 46 59 -49 49 50 51 52 -54 -55 55 57 -58 -59 -60 60 -62 -63
leaf_value=-0.018805807077178448 -0.012647237520716071 -0.018711512645647549 -0.016530427091110481 -0.01947578206240393 -0.0099338104407782502 -0.011637030125383528 -0.013515432089966521 -0.011867845535995665 -0.019446027531663013 -0.019105702205658145 -0.017669501283493531 -0.019458563693443228 -0.0170663362884368 -0.014071017720845654 -0.0194481153947508 -0.012671363350455501 -0.013059346367895635 -0.0081375607056161474 -0.017934934529855721 -0.013828445718831362 -0.014791370580539634 -0.018669724730693792 -0.019436181078579886 -0.018630442698211572 -0.018001644108546818 -0.014315983731014757 -0.012431263387948395 -0.019440014510573041 -0.016410940620208134 -0.016031143512088085 -0.0168428349890608 -0.0095808260374422635 -0.016416348860159267 -0.015755889443138466 -0.018836645835798367 -0.01597902566189693 -0.016829540546029659 -0.01876535937688505 -0.018000588206380327 -0.015491932209649511 -0.013504256731164597 -0.019450451751168385 -0.015854904335662615 -0.014707515557920643 -0.018323391517393855 -0.014491945414730145 -0.01915387275303403 -0.014039040655485883 -0.01943795731754901 -0.013286613528196128 -0.01749169261372294 -0.016402469132437765 -0.01944560108662358 -0.01866361246799424 -0.017454899217624373 -0.019444174284950117 -0.012832993249761731 -0.016228381448822868 -0.013531836984202175 -0.016228408870765806 -0.018415532509975727 -0.016270994715226212
leaf_count=943 23 160 27 30 33 25 20 26 27 238 22 35 33 44 134 29 37 21 26 21 34 50 210 97 27 23 28 25 39 23 30 20 39 21 130 34 30 762 27 20 40 60 22 25 282 24 275 22 46 32 20 39 112 610 20 38 24 37 20 37 962 25
internal_value=0 -1.7083736596682648 -1.7169294604794367 -1.6429231758627807 -1.2901761777965755 -1.76487365313081 -1.7903356021113674 -1.7004816620906378 -1.8304781204882661 -1.7726220023698775 -1.6818487596165388 -1.5362734867813186 -1.4725661700822705 -1.7431625010421083 -1.7766644213699121 -1.5913961631941318 -1.4169151876626183 -1.3435830122280832 -1.5071264922179952 -1.0982918092668372 -1.6058596983055053 -1.7099840173405052 -1.883496577526717 -1.7755956484356892 -1.6946809574087285 -1.6746635195578281 -1.7187635571358721 -1.5831368583526366 -1.7802261421022023 -1.5516362976906382 -1.4597261644999382 -1.3030711415737055 -1.847858931053423 -1.8069823154324847 -1.8276822319440196 -1.7445377555925612 -1.8969053145678871 -1.8444780621586452 -1.8339284751815239 -1.7027398743407629 -1.5316135893480851 -1.8460729658595503 -1.7833567717278105 -1.8499120222993448 -1.8028900074955247 -1.840190157601995 -1.8282424301588198 -1.8003032513607062 -1.808837239289375 -1.8174868825758534 -1.7323730600936871 -1.8000235363696928 -1.8659566390330586 -1.8419793039647714 -1.7518420958507923 -1.6776479408889149 -1.4933706263140407 -1.7857645722422482 -1.551165567167913 -1.8511380166596669 -1.8334523748976788 -1.8381702544367784
internal_count=6395 1216 1193 469 60 724 666 339 5179 1009 464 183 58 313 281 78 127 105 63 42 128 84 327 117 409 379 279 87 192 100 73 43 203 56 169 59 164 4170 3227 147 67 80 49 545 307 3080 2318 1044 1022 998 223 191 151 775 165 119 44 75 40 1274 999 185
shrinkage=0.01


Tree=4
num_leaves=63
num_cat=0
split_feature=4 6 2 2 4 5 5 1 1 2 3 5 2 5 4 2 4 5 5 5 4 5 4 1 1 6 2 2 3 5 1 2 5 2 5 4 2 2 4 4 5 5 5 2 2 4 2 2 6 4 5 4 4 2 2 5 2 3 6 4 2 2
split_gain=3.6039470342939239 1.1325847677073853 1.0388718464035946 2.1005811870020352 1.5848943859676652 1.3224779875495187 1.3684262647776677 1.8232253807556447 1.0297425237149582 1.7374593225138142 1.5714890982141014 1.4503723306228835 1.0287563177467369 1.0019107254357209 0.90947434422110973 1.191205112873007 0.79960342051239763 1.032886555179509 0.89046869529829564 0.84272378459030328 0.64990418256687121 0.74681287566096444 0.52071447007887173 1.0644326072050916 0.5079558486201563 0.50459816028563864 0.57072671396065289 1.1713204442368621 0.77948269159938377 0.56039126702528819 0.63600568798247537 0.89131529855337632 0.50391489266709755 0.44182834813086203 0.43324144907273876 0.42358421459052664 0.41262216053229395 0.38998514139530016 0.65055564433987456 0.88466771596192473 0.79929590361619063 0.57679919474102803 0.38365003147853827 0.38161214968999957 0.73678630072305396 0.32828638141472766 0.36382935353094581 0.86641076194598554 0.77997864652968474 0.51079668407294321 1.0854019942482296 0.66457080574456739 0.48623034005788668 0.57663867402891356 0.58159913464444912 0.57159655300113243 0.47570201232331755 0.43360909800091463 0.87270531549853558 0.47307646964213745 0.35532906186244873 0.41818876785680459
threshold=0.94671025990000002 2.7370892179000008 1.0141190641500002 1.0857024993500002 1.0811017084500001 0.50174639155000011 0.39881072710000004 0.75000000000000011 0.65000000000000002 1.2014310930000003 0.38710458850000007 0.39629533940000006 -9.9999996826552254e-21 0.35846893940000008 0.63977978430000004 1.0590384687000001 0.67699048385000005 0.36228425435000006 0.33473869575000009 0.38203402430000005 0.99312200385000005 0.37229018515000012 1.0464061379500003 9.9999996826552254e-21 0.35000000000000003 3.3903632027500006 1.5539264490000002 1.6270178389000001 0.39993749025000008 0.39083243970000009 1.0500000000000003 1.5457603175000003 0.38865150955000011 1.1038285555000003 0.35846893940000008 1.1513691081000001 1.1038285555000003 9.9999996826552254e-21 0.9128631960000001 0.92547731650000009 0.35874779520000005 0.32886166430000002 0.36159368805000008 1.3865422975500004 1.4100085865500003 0.6317773040500001 0.68030320240000008 0.67523140215000022 2.1180339887500002 0.79632419725000014 0.31368770230000004 0.83675262640000014 0.67480483825000015 0.5264859085500001 0.58603534785000011 0.36159368805000008 0.63319620905000007 0.37067024925000008 3.6736043311500004 0.82814233390000014 0.73590927085000002 0.74393377115000014
decision_type=2 2 2 2 2 2 2 2 2 2 2 2 2 2 2 2 2 2 2 2 2 2 2 2 2 2 2 2 2 2 2 2 2 2 2 2 2 2 2 2 2 2 2 2 2 2 2 2 2 2 2 2 2 2 2 2 2 2 2 2 2 2
left_child=8 -2 5 4 -4 6 7 13 37 10 14 16 -7 -3 15 42 -12 18 -18 -19 -15 -22 23 -8 -5 29 28 -28 -27 -26 -31 -32 36 -13 -30 -29 -16 -1 45 40 -40 -41 -10 -11 -45 -39 47 48 -47 52 51 -51 53 -50 55 -55 -56 58 -52 -59 -48 -62
right_child=1 2 3 24 -6 12 22 -9 9 43 11 33 -14 20 32 -17 17 19 -20 -21 21 -23 -24 -25 25 26 27 35 34 30 31 -33 -34 -35 -36 -37 -38 38 39 41 -42 -43 -44 44 -46 46 60 -49 49 50 57 -53 -54 54 56 -57 -58 59 -60 -61 61 -63
leaf_value=-0.018629490731564072 -0.012524462477861795 -0.0182087024404004 -0.016373284137414321 -0.019293019953507878 -0.009836545201397727 -0.011523523480282164 -0.013385370322438883 -0.01175270633917354 -0.019264115059322667 -0.018926801495925051 -0.017502325127196874 -0.019276294289858602 -0.016904458584812061 -0.013935754474732569 -0.019266143236287694 -0.012548655840707369 -0.012933219314845293 -0.0080422470172393096 -0.017765655734126078 -0.013710534874256799 -0.014649840095332895 -0.01849408140157539 -0.019254549078819374 -0.018455406220702641 -0.01783161502753066 -0.014178393358974617 -0.012310747166130681 -0.019258272983581629 -0.016254943357104083 -0.016693524678105968 -0.0099493216798993388 -0.015712450690004418 -0.016260227228674061 -0.015604767875652292 -0.018659878111940077 -0.015826621874389039 -0.016669687293863526 -0.018589287961345641 -0.017830586393441473 -0.015344128320859853 -0.013374402026616009 -0.019268413105304753 -0.015703843089381636 -0.01456663095871147 -0.018150975116180634 -0.014353192613203211 -0.01897449963370882 -0.013904395165265915 -0.019256274717401874 -0.017385979555636626 -0.014020236299083061 -0.012744366649555139 -0.018596963230288203 -0.01729014129507727 -0.019262314246065428 -0.012709356378213153 -0.016074238424111497 -0.016921289034798379 -0.019339220014499236 -0.018976111595231156 -0.016074265185085212 -0.01824236780371848
leaf_count=943 23 185 27 30 33 25 20 26 27 238 22 35 33 44 134 29 37 21 26 21 34 50 210 97 27 23 28 25 39 30 21 22 39 21 130 34 30 762 27 20 40 60 22 25 282 24 275 22 46 21 30 30 531 20 38 24 37 68 21 132 37 962
internal_value=0 -1.6921946411807693 -1.7006772616068677 -1.6273080261929949 -1.2777093033224332 -1.7482117915866309 -1.7734583163000173 -1.6843694390058785 -1.8132612157313033 -1.7558926385590867 -1.66589649420792 -1.5215961200962542 -1.4584281261575842 -1.7266786597377644 -1.759892546809857 -1.5762368252265719 -1.4033139348917034 -1.3306468307137478 -1.4927072887430928 -1.087617084922387 -1.5905703391214032 -1.6937855670292441 -1.8658351862461999 -1.7588444427875876 -1.678613237078636 -1.6587726997746217 -1.7024927985587803 -1.5680434379075279 -1.7634278369832621 -1.5368158229933919 -1.4457261385780631 -1.2897326396898277 -1.8304758148732516 -1.7899042184601708 -1.8104796068695099 -1.728038491971059 -1.8791072375853706 -1.8271437371827248 -1.8166813309638958 -1.6866162090924324 -1.5169918319336 -1.8287116215728594 -1.7665354734064669 -1.8325277403346096 -1.7859006085021243 -1.822889812897033 -1.8110432312853593 -1.783345293954959 -1.7918055601491012 -1.8003806896528785 -1.7316473439196991 -1.4655130055783792 -1.8302073416987275 -1.7353131987542112 -1.6617617518845269 -1.4791156566182504 -1.7689343566759081 -1.7857364497381085 -1.6210310790894382 -1.8277474417070143 -1.8337416239587059 -1.8162056163455371
internal_count=6395 1216 1193 469 60 724 666 339 5179 1009 464 183 58 313 281 78 127 105 63 42 128 84 327 117 409 379 279 87 192 100 73 43 203 56 169 59 164 4170 3227 147 67 80 49 545 307 3080 2318 1044 1022 998 302 51 696 165 119 44 75 251 51 200 1274 999
shrinkage=0.01


Tree=5
num_leaves=63
num_cat=0
split_feature=4 3 5 5 0 5 5 5 4 3 5 3 4 5 5 3 5 4 2 2 2 3 2 5 5 0 2 2 2 2 0 4 4 4 5 2 4 4 5 5 5 2 5 3 0 2 5 4 4 4 4 3 2 2 6 2 6 2 6 5 5 4
split_gain=4.0357927578625095 1.3381688976298847 1.2832708465994074 1.7083583136919742 2.291816836603715 1.5272214519335421 1.1728203115912095 2.0411665992576431 1.7615741366463809 1.126003789964102 0.69083013962415407 1.0121508627413505 0.88530204423869918 0.96568436136499258 3.6224422132200829 1.2969592751442178 1.3125092357877151 0.80582631748408673 0.75042763221040332 3.7360922611583192 0.67826365868233296 0.670052428298618 0.96434903347233103 0.72039768524874148 0.71969067983884827 0.97813320948808524 0.66846739652790177 2.0596360974068055 0.60550423702164835 1.462518142893515 0.60192577846783024 0.78635680748243431 1.3242997959471268 1.0615949641515954 2.3764927091765387 1.8234545500934107 0.96554785998068837 0.63983667389072707 1.0585935658685344 0.75475078934003648 1.0296717395427848 0.98356051450437221 0.53589085870203235 0.87195763006111804 0.52028015428007279 1.189933952983111 0.49775084017866789 0.55521799303375019 0.72184567624073281 0.78871129229005987 0.48412669248141071 0.46211852183537161 0.44016889262776715 0.78021843534887836 0.415174585944321 0.39075282602201611 0.38743069715013689 0.34748119369195507 0.33979856807945907 0.31527072504493958 1.005305543060615 0.31359038472464817
threshold=0.83675262640000014 0.52428824425000009 0.39855990275000003 0.47169637675000003 0.8500000000000002 0.39755502265000014 0.41988086800000007 0.46097690385000006 1.4682237281500001 0.55670399120000014 0.32870958950000001 0.42996224345000006 0.84187904710000006 0.31882588455000005 0.32062435290000008 0.42408725105000006 0.32733766590000007 0.96327394470000016 0.53648151425000012 0.43553113700000007 9.9999996826552254e-21 0.42996224345000006 0.91651507555000011 0.40329885370000007 0.40963391020000006 0.65000000000000002 1.0641897921500003 0.76219253340000004 1.1465982214500003 1.2207835531500002 0.65000000000000002 0.60977742380000011 0.72616072340000015 0.71495968790000008 0.36159368805000008 0.8676476632500002 0.6987000911500002 0.68564833285000015 0.40853394595000009 0.35390659115000006 0.37060755395000006 1.0085571258000001 0.41297699250000003 0.39956225560000008 0.65000000000000002 0.62873876790000016 9.9999996826552254e-21 1.1390173250500002 0.89630209080000023 0.92547731650000009 1.0178697733500004 0.41987661255000003 1.5539264490000002 1.7084349172000002 3.2394512253000003 1.5699322445500001 3.3903632027500006 1.3363897210000002 1.5731321850000002 0.38255717970000008 0.37775644260000008 0.57017828175000018
decision_type=2 2 2 2 2 2 2 2 2 2 2 2 2 2 2 2 2 2 2 2 2 2 2 2 2 2 2 2 2 2 2 2 2 2 2 2 2 2 2 2 2 2 2 2 2 2 2 2 2 2 2 2 2 2 2 2 2 2 2 2 2 2
left_child=30 2 5 21 20 10 -3 9 -9 -8 12 18 -2 46 -15 16 -16 -18 19 59 -5 22 44 -24 -25 -26 27 -13 -20 -30 42 58 33 36 35 -35 37 38 56 -39 -41 -42 61 -44 -4 -46 47 48 -14 -50 51 -51 -31 -54 -36 -28 -33 -27 -32 60 -12 -1
right_child=1 6 3 4 -6 -7 7 8 -10 -11 11 26 13 14 15 -17 17 -19 28 -21 -22 -23 23 24 25 57 55 -29 29 52 31 32 -34 34 54 -37 -38 39 -40 40 41 -43 43 -45 45 -47 -48 -49 49 50 -52 -53 53 -55 -56 -57 -58 -59 -60 -61 -62 -63
leaf_value=-0.017599869031621935 -0.012909464696773256 -0.018148669468052284 -0.019103478340783183 -0.014577035998690556 -0.01116647764429282 -0.011174724617073155 -0.013727736518569551 -0.01842857035671509 -0.012111442142973572 -0.0071648108124939772 -0.018376553202251851 -0.017811358671316887 -0.018302382209490823 -0.0071410108187837272 -0.01913453279732117 -0.011887741942152558 -0.017307567307643545 -0.011888997737068892 -0.018145517696357298 -0.0098297715434356708 -0.018468115598510131 -0.018830996784890502 -0.01914696779040595 -0.013108450425917035 -0.013433570097532732 -0.019179783191273808 -0.018142345931642562 -0.010445934342386729 -0.011879234046945124 -0.018556553805445759 -0.017674402225690115 -0.017542028374918618 -0.018155034695635865 -0.015463158275269725 -0.019112027318723208 -0.0071102916101807899 -0.018644302429048652 -0.01243172781902328 -0.013427365432996156 -0.019107513839361445 -0.016771405032607545 -0.011176515261529634 -0.014094972283705669 -0.018042622086593022 -0.013951765226366911 -0.01858881937962796 -0.018558556623300838 -0.019192235427765124 -0.012539110301930343 -0.015720142119184006 -0.014283306969547549 -0.019137568529788568 -0.014155256737512332 -0.019121572299961878 -0.015649306653614106 -0.015074099731933971 -0.015239606470270521 -0.016192898982572857 -0.018862827460268489 -0.019111999428153174 -0.013121998331796832 -0.018418506003579034
leaf_count=213 32 39 144 26 35 20 22 48 28 20 54 29 46 20 61 22 22 22 399 30 58 276 29 33 28 37 39 32 22 68 139 533 829 22 35 20 170 24 28 35 34 20 32 75 31 78 68 28 30 35 33 29 32 21 23 29 31 27 315 43 20 1572
internal_value=0 -1.6921169274545516 -1.7055217311511857 -1.7683735591842353 -1.5470269871851745 -1.6663293779494242 -1.5138970704072658 -1.4144470200903914 -1.6101216531302549 -1.0602595972646545 -1.6750012753740218 -1.7096106020001847 -1.6118099359685791 -1.6364930126586381 -1.5060093572788369 -1.6307290050062149 -1.7233426476440601 -1.4598018141964002 -1.740085216973918 -1.61321165112792 -1.7263611363986175 -1.8069474987728982 -1.7553079985617868 -1.6304130558219989 -1.5644660424729482 -1.6554443280611901 -1.5468794467731821 -1.3947407695750698 -1.7744925286525035 -1.6627189200766552 -1.7974892119019572 -1.7754178264609324 -1.756674648631618 -1.7066550703862102 -1.5112336139474023 -1.148532541204857 -1.7289888570690051 -1.6963304835674811 -1.7226824505131002 -1.5582780935426701 -1.6432422940740836 -1.4698905938748881 -1.8238319483464582 -1.6862039129992457 -1.8313520453783789 -1.7269933825104364 -1.7077936581752904 -1.6577079272543467 -1.6153770730553392 -1.5375493790063934 -1.6252997740262434 -1.7268593166888937 -1.7490530432657903 -1.6122810900172673 -1.7738789316968915 -1.6833648304037174 -1.7415477937036821 -1.7919743391760736 -1.849897049309057 -1.7748560378317013 -1.6956333241312154 -1.832082052692535
internal_count=6395 2245 2088 802 119 1286 157 118 76 42 1266 818 448 416 147 127 105 44 689 147 84 683 407 154 125 92 129 61 542 143 4150 2258 1804 975 100 42 875 705 592 113 89 54 1892 107 253 109 269 201 173 127 97 64 121 53 58 68 564 64 454 117 74 1785
shrinkage=0.01


Tree=6
num_leaves=63
num_cat=0
split_feature=4 3 0 2 2 2 2 2 6 2 6 1 0 6 4 2 0 2 2 6 2 4 4 2 2 2 1 2 1 2 2 2 2 4 4 6 0 4 4 4 6 2 4 4 1 3 2 2 6 3 4 4 3 0 2 1 4 4 1 2 0 2
split_gain=3.9706932945500739 1.3162608761172123 1.1607829176518862 3.3580794324498129 1.8566422283036204 1.6585371665898627 1.4950057183243644 2.5412485018945716 0.98419052638125493 0.90221913763242512 0.77443225057743348 0.76606985424150764 0.89532749499968389 0.66981927091594429 0.66655888860494628 0.96529929346442955 0.64708828240158311 0.63189363982360192 1.2706429357459683 1.2188781332413328 0.86554132821208896 0.72756469111021715 1.54988111997244 0.91493454551886089 2.1976851269839131 0.93634351550537076 1.0602970484117975 1.3352115847059807 0.73156507332518927 0.72216335667985732 0.69488345993056555 0.64236840531384587 1.6715056428398611 0.63611013939468819 1.1972629157816641 0.71123773016941527 0.59223925917558518 0.77306192652122263 1.301534820975121 1.0431021797415951 1.838981117194983 1.3086375640540133 0.94915145550328361 0.62877131947487896 1.0591795041941054 0.61297199208109987 0.61751611519764538 1.1202331609841281 1.6042015359557737 1.4862232393198767 0.82415327791437676 0.54227661879235711 0.51427513754450871 0.42546626751860472 0.41889555722065097 0.80919558402814573 0.65279894346008405 0.72236444575511882 0.38363493408826344 0.37807165331014403 1.2662924661152601 2.2894304793203588
threshold=0.83675262640000014 0.52428824425000009 0.55000000000000016 0.5576176301500001 0.43553113700000007 0.49717944575000006 0.89215327680000012 0.95147909750000015 3.5348264453000007 0.5318011034500002 3.6736043311500004 0.55000000000000016 0.8500000000000002 2.9142135623500005 1.3946389168000002 0.5774404097000001 0.35000000000000003 1.3557746667000001 1.3102957464500002 3.0811388301000004 1.5539264490000002 1.0245135843500004 1.0045916527000001 1.1465982214500003 1.2278028894000002 1.0525266275000003 0.55000000000000016 0.93290539280000007 0.65000000000000002 1.6270178389000001 0.81028542060000019 1.0789172716000002 1.0020290820000002 0.97813914875000008 0.95451839750000012 3.5348264453000007 0.65000000000000002 0.60977742380000011 0.72616072340000015 0.71495968790000008 3.2394512253000003 0.87553553220000013 0.6987000911500002 0.68564833285000015 0.75000000000000011 0.42373340265000009 0.69664370355000005 0.59869644385000009 3.0811388301000004 0.37067024925000008 0.61478847380000012 0.91503172505000008 0.37067024925000008 0.75000000000000011 0.64735032380000013 9.9999996826552254e-21 0.87123451870000002 0.98762487430000012 0.15000000000000005 0.67523140215000022 0.35000000000000003 0.69888300165000017
decision_type=2 2 2 2 2 2 2 2 2 2 2 2 2 2 2 2 2 2 2 2 2 2 2 2 2 2 2 2 2 2 2 2 2 2 2 2 2 2 2 2 2 2 2 2 2 2 2 2 2 2 2 2 2 2 2 2 2 2 2 2 2 2
left_child=36 2 6 4 -4 -6 54 -8 -9 -7 17 13 -13 -3 -15 -16 -10 18 19 -5 -19 22 23 25 -25 26 30 28 -28 -22 33 32 -23 34 35 51 59 -38 39 42 -41 -42 43 45 52 46 47 -39 49 -49 -48 -21 -45 -37 55 56 -2 -58 -40 -1 61 -61
right_child=1 11 3 10 5 9 7 8 16 -11 -12 12 -14 14 15 -17 -18 20 -20 21 29 31 -24 24 -26 -27 27 -29 -30 -31 -32 -33 -34 -35 -36 53 37 38 58 40 41 -43 -44 44 -46 -47 50 48 -50 -51 -52 -53 -54 -55 -56 -57 57 -59 -60 60 -62 -63
leaf_value=-0.018282112118966957 -0.012969778360191571 -0.011123445510115933 -0.016954988379327705 -0.018976123608267646 -0.0081815207364442071 -0.017126050427055166 -0.0089904120418180938 -0.018987592596448496 -0.012634802393872576 -0.011591420614872505 -0.017873139479498496 -0.019068600142202879 -0.013889414934426492 -0.017504950670453968 -0.011352955963322139 -0.016995924565249346 -0.017289162763349162 -0.018986652657391009 -0.012827665786614612 -0.018933860421919812 -0.01432994570299302 -0.017385655012577956 -0.010979509680043758 -0.01081115902549711 -0.017777709805119307 -0.019000042939086147 -0.013981468871979081 -0.011250509268633524 -0.019037446980821455 -0.017445307849394322 -0.018422802745094093 -0.018982545284291871 -0.011158698501038962 -0.0190072490981123 -0.011002704398501624 -0.01694988264383681 -0.018331288150810806 -0.017666085231138242 -0.016147728039798307 -0.018037346749924514 -0.015217427868883898 -0.0090311342649967586 -0.018475472187695428 -0.014934667895407769 -0.012139543696661242 -0.014536668747325072 -0.014348283196091808 -0.018953203203831211 -0.010943612093366152 -0.012801778089349486 -0.018060831842221153 -0.014969940839681664 -0.018072720592475663 -0.013287771820732245 -0.018957881643961848 -0.018207068395512584 -0.018308929359787864 -0.014779761512958289 -0.018090814948641853 -0.010268410920851538 -0.018167024834439941 -0.017119823148901012
leaf_count=1224 20 25 39 74 33 21 20 45 25 27 248 32 23 26 31 20 23 97 39 45 42 127 25 39 34 52 24 36 22 103 72 61 20 25 20 20 454 124 43 44 32 24 170 40 29 36 26 40 30 26 310 20 44 35 136 321 60 38 786 23 514 131
internal_value=0 -1.6765856680376217 -1.6898868647576286 -1.6567852210257936 -1.336471281005235 -1.1636534268435201 -1.7572567360717239 -1.5466698050477705 -1.6859478178691603 -1.4012943638790036 -1.686822226125235 -1.4997722403996967 -1.6902460885648556 -1.3970600920702592 -1.4895390927491567 -1.3565174920084835 -1.486493782310828 -1.6626719500425093 -1.6352407030104199 -1.653545505292678 -1.7522087366846444 -1.626870283519426 -1.5831459773356973 -1.6104668977804659 -1.4055079694250097 -1.6507968299259907 -1.6101721967219051 -1.4138934489366122 -1.6399828384905999 -1.6542588853184159 -1.6781011619191792 -1.725464671923961 -1.6537664372775742 -1.6064592761959746 -1.5539023108794856 -1.6295318270959518 -1.7811494032529058 -1.7592467577357276 -1.7406548873678958 -1.6910465819523417 -1.4972623474775715 -1.2565505531809626 -1.7131957251773968 -1.6808033438840853 -1.5438978316557428 -1.7069387369896745 -1.723340350683098 -1.6408445121537634 -1.4784028567365557 -1.6529738573494823 -1.7773536162703243 -1.7713961323277925 -1.6578584587194882 -1.4619165288603502 -1.7986537579632784 -1.7685630924326958 -1.6267390005512603 -1.6940376221895295 -1.7990033612626413 -1.807291779790942 -1.7689633969833405 -1.6096403381123172
internal_count=6395 2245 2088 1400 120 81 688 113 93 48 1280 157 55 102 77 51 48 1032 790 751 242 677 469 444 73 371 319 82 46 145 237 208 147 165 140 120 4150 2258 1804 975 100 56 875 705 113 592 556 220 96 66 336 65 84 55 575 439 118 98 829 1892 668 154
shrinkage=0.01


Tree=7
num_leaves=63
num_cat=0
split_feature=4 3 5 5 5 5 5 4 3 6 4 5 1 1 5 2 3 1 2 2 3 1 1 2 2 5 2 2 2 4 4 1 4 4 4 5 4 2 4 2 4 5 5 1 4 4 4 3 3 2 3 6 5 2 2 2 1 2 6 2 2 6
split_gain=3.9093114444603998 1.2954113903513189 1.2607366176268897 1.6805958092342053 1.5047879267218605 1.1500343142632801 2.0057934067733001 1.7226116425675073 1.111344329137534 0.78100576906862784 1.0708694586773646 0.67875838401187139 1.1393239138295712 1.9629633274723801 1.8502054714998621 2.8282087987037201 1.0002554390763407 0.87516731351060173 0.73830507280399615 3.6341731716309198 0.65712846061148866 1.1747519479710036 1.008952980893369 0.65446751211838716 2.0190098694692757 0.6006172765848703 0.59033743135375971 1.4268393474936545 0.55899021526056458 0.64377527288797864 1.2550975660060431 0.80662472577353128 0.56986411212074017 1.1650540476500595 0.61325497249049477 1.3837282696868982 0.63348521224145316 0.67430994572691816 1.0524475278840981 1.8612798802660002 0.75438075540000682 1.3961652349206304 0.84812215061094776 0.55408522991403686 0.53134361089470872 0.74732189566437057 0.52417924236937097 0.57340748560218913 0.5585633011707074 0.64681263989453441 0.89628219725436509 1.1262720186711448 0.43444942475852599 0.43030826517815512 0.76192346032609493 0.41646875205790224 0.40628623380223416 2.1993391600429675 0.67142813443240357 0.83017518287073955 0.3820566998625452 0.38103204468615104
threshold=0.83675262640000014 0.52428824425000009 0.39855990275000003 0.47169637675000003 0.39755502265000014 0.41988086800000007 0.46097690385000006 1.4682237281500001 0.55670399120000014 3.5348264453000007 1.1965044489500001 0.32870958950000001 1.2500000000000002 0.45000000000000007 0.31882588455000005 1.0732543572000002 0.42996224345000006 0.8500000000000002 0.53648151425000012 0.43553113700000007 0.42996224345000006 0.75000000000000011 0.95000000000000007 1.0641897921500003 0.76219253340000004 0.51956632320000018 1.1465982214500003 1.2207835531500002 0.51082032695000013 0.72616072340000015 0.63977978430000004 1.4500000000000002 0.64604646035000013 0.64423700765000003 0.71495968790000008 0.35979159965000007 0.69464450265000011 0.60182009985000018 0.67699048385000005 0.5609700726500001 0.68884259295000017 0.37808728570000011 0.40373250875000005 1.2500000000000002 0.70728207385000008 0.71025545385000022 0.84613817470000019 0.38710458850000007 0.39956225560000008 0.62873876790000016 0.41987661255000003 3.6736043311500004 0.3582596755500001 1.5539264490000002 1.7084349172000002 0.90260039335000009 0.15000000000000005 1.1625671946000005 3.2394512253000003 0.73845274405000005 1.5699322445500001 2.9142135623500005
decision_type=2 2 2 2 2 2 2 2 2 2 2 2 2 2 2 2 2 2 2 2 2 2 2 2 2 2 2 2 2 2 2 2 2 2 2 2 2 2 2 2 2 2 2 2 2 2 2 2 2 2 2 2 2 2 2 2 2 2 2 2 2 2
left_child=28 2 4 20 11 -3 8 -8 -7 10 25 12 13 46 17 -16 18 -15 19 -13 21 -4 -23 24 -18 -5 -20 -28 -1 30 -30 32 33 52 36 -36 37 38 39 -34 42 55 61 -24 -38 -46 -2 -48 -49 50 51 -50 -32 -29 -55 -42 57 58 59 -31 -25 -39
right_child=1 5 3 9 -6 6 7 -9 -10 -11 -12 16 -14 14 15 -17 23 -19 26 -21 -22 22 43 60 -26 -27 27 53 29 56 31 -33 34 -35 35 -37 44 40 -40 -41 41 -43 -44 -45 45 -47 47 48 49 -51 -52 -53 -54 54 -56 -57 -58 -59 -60 -61 -62 -63
leaf_value=-0.018061350151650165 -0.014312601671275909 -0.017842515009590824 -0.017802464963951766 -0.017560322296448709 -0.010905520128132397 -0.013468095189881292 -0.018118985423186407 -0.011867984112055316 -0.0069440108508890177 -0.017687752850678546 -0.010548592793942628 -0.017427025879282323 -0.018840804371253864 -0.013881460062775037 -0.0064622274601519852 -0.015100688181767808 -0.01749107711001446 -0.017820768998131401 -0.017827786644604448 -0.0096119581535002805 -0.018507737233298474 -0.01220265354118432 -0.018824960009228248 -0.017815130261235081 -0.010193014807176303 -0.013551391292046919 -0.011634719148839271 -0.018236047489876086 -0.017823879477970626 -0.017784233675257118 -0.014792137970918702 -0.012828493891205779 -0.017237112041018968 -0.01119422675965182 -0.0125230537617649 -0.017068329982040879 -0.018585603934398693 -0.016851829636563391 -0.017738935436782562 -0.0095796157904262345 -0.010775406544177912 -0.018856785071838623 -0.013845605223389845 -0.014868312220135524 -0.014571046828359073 -0.018140430500432039 -0.018835499195863029 -0.01341335587188822 -0.011141081833127125 -0.018252029292957862 -0.018810115249354113 -0.017160636935128412 -0.018830587587868746 -0.013882055391603799 -0.018794242326466353 -0.014864713094685631 -0.018056590344316045 -0.010755023718361945 -0.018789019992649085 -0.012783533736059123 -0.014778641049928652 -0.018248017769139143
leaf_count=1014 35 39 320 30 20 22 48 28 20 35 24 117 45 56 29 32 29 38 399 30 276 30 27 39 32 30 22 68 952 40 20 20 25 21 38 92 192 123 38 26 20 25 24 30 38 62 50 22 26 68 23 24 23 32 21 20 978 20 102 20 29 217
internal_value=0 -1.6614223221412954 -1.6746253299681426 -1.7369828888205976 -1.6357456913714017 -1.4859471021939048 -1.3874142592096486 -1.581536804165854 -1.0361023596487993 -1.5172639026738661 -1.4125141913801871 -1.644362817563471 -1.5816727535578026 -1.5479104747408809 -1.3710483568690683 -1.0993185772010685 -1.6787000329852197 -1.5473816454437717 -1.7090250510337008 -1.5830685780856868 -1.7752830447654182 -1.7240976401246706 -1.5176567371815941 -1.516797525890583 -1.3661539396563223 -1.5555811445283438 -1.7431853043431529 -1.6327266130915319 -1.7652264319431243 -1.752001397941181 -1.7300015686646122 -1.6813050282091373 -1.6892444696820756 -1.5062796718587999 -1.7017031095087687 -1.5739413271210518 -1.7222107685410457 -1.6801358655514098 -1.521398399604494 -1.3333267011043977 -1.7130692841172321 -1.5142299975305462 -1.7485851003396955 -1.6742128062453725 -1.7968625230613833 -1.6784005732671081 -1.6584762739101688 -1.6958252134673406 -1.638245056094481 -1.6845859063758915 -1.5535943962479024 -1.4030198943535162 -1.6952390709227663 -1.7180971389931738 -1.5827564449233738 -1.2820503170607644 -1.7894792437512619 -1.7025324600933158 -1.779942239766815 -1.6117180460770939 -1.6519723066668146 -1.7742910298497521
internal_count=6395 2245 2088 802 1286 157 118 76 42 119 84 1266 448 403 155 61 818 94 689 147 683 407 87 129 61 60 542 143 4150 3136 1976 1024 1004 64 940 130 810 518 89 51 429 65 364 57 292 100 248 213 163 141 73 50 43 121 53 40 1160 182 162 60 68 340
shrinkage=0.01


Tree=8
num_leaves=63
num_cat=0
split_feature=4 3 0 2 2 2 2 2 6 2 6 1 0 6 4 2 0 2 2 6 2 4 4 2 2 2 1 2 1 2 2 2 2 4 4 6 0 4 4 4 6 2 4 4 1 3 2 2 6 3 4 4 3 0 2 1 4 4 1 2 0 2
split_gain=3.8513531465287087 1.2756376542822636 1.1386389807482828 3.2844137260927937 1.8117947322816832 1.6209297061908039 1.4680474598711726 2.5028795201894525 0.96799563354127116 0.88756442636527311 0.76199495158948594 0.75453563618077624 0.87770304684256928 0.66529560110959096 0.64612809713905506 0.94883101528146696 0.63739524300136807 0.62314841328259263 1.2512350818631717 1.1977166973827593 0.84494536471447645 0.71269831855232724 1.5218098542595158 0.89322290837600349 2.1554862127146919 0.92121464943875253 1.0351355172186061 1.3105212066555154 0.72232511747397155 0.70651673380361046 0.68636858283198876 0.62827816489502197 1.6425123107827346 0.62415476838259565 1.1768437128835245 0.69776290699390131 0.58286890643830702 0.75785248784018222 1.2640214670695968 1.0143854811866504 1.8088280331716504 1.2791976817373438 0.93092963845276699 0.61747515108243078 1.0395902106706671 0.59887382662287791 0.6050942513429618 1.1059652138774254 1.5772078589230745 1.4594395892548135 0.81305574084385057 0.53203847916289249 0.5020477001015351 0.41642075838037584 0.40929211230036344 0.79506370261918846 0.6425078344759072 0.71143517828194547 0.3755655956966848 0.3674426874870278 1.243409931578924 2.2546772641422734
threshold=0.83675262640000014 0.52428824425000009 0.55000000000000016 0.5576176301500001 0.43553113700000007 0.49717944575000006 0.89215327680000012 0.95147909750000015 3.5348264453000007 0.5318011034500002 3.6736043311500004 0.55000000000000016 0.8500000000000002 2.9142135623500005 1.3946389168000002 0.5774404097000001 0.35000000000000003 1.3557746667000001 1.3102957464500002 3.0811388301000004 1.5539264490000002 1.0245135843500004 1.0045916527000001 1.1465982214500003 1.2278028894000002 1.0525266275000003 0.55000000000000016 0.93290539280000007 0.65000000000000002 1.6270178389000001 0.81028542060000019 1.0789172716000002 1.0020290820000002 0.97813914875000008 0.95451839750000012 3.5348264453000007 0.65000000000000002 0.60977742380000011 0.72616072340000015 0.71495968790000008 3.2394512253000003 0.87553553220000013 0.6987000911500002 0.68564833285000015 0.75000000000000011 0.42373340265000009 0.69664370355000005 0.59869644385000009 3.0811388301000004 0.37067024925000008 0.61478847380000012 0.91503172505000008 0.37067024925000008 0.75000000000000011 0.64735032380000013 9.9999996826552254e-21 0.87123451870000002 0.98762487430000012 0.15000000000000005 0.67523140215000022 0.35000000000000003 0.69888300165000017
decision_type=2 2 2 2 2 2 2 2 2 2 2 2 2 2 2 2 2 2 2 2 2 2 2 2 2 2 2 2 2 2 2 2 2 2 2 2 2 2 2 2 2 2 2 2 2 2 2 2 2 2 2 2 2 2 2 2 2 2 2 2 2 2
left_child=36 2 6 4 -4 -6 54 -8 -9 -7 17 13 -13 -3 -15 -16 -10 18 19 -5 -19 22 23 25 -25 26 30 28 -28 -22 33 32 -23 34 35 51 59 -38 39 42 -41 -42 43 45 52 46 47 -39 49 -49 -48 -21 -45 -37 55 56 -2 -58 -40 -1 61 -61
right_child=1 11 3 10 5 9 7 8 16 -11 -12 12 -14 14 15 -17 -18 20 -20 21 29 31 -24 24 -26 -27 27 -29 -30 -31 -32 -33 -34 -35 -36 53 37 38 58 40 41 -43 -44 44 -46 -47 50 48 -50 -51 -52 -53 -54 -55 -56 -57 57 -59 -60 60 -62 -63
leaf_value=-0.017963165290244824 -0.012696619126433059 -0.010864457202395702 -0.016649293489752696 -0.018658038824193205 -0.0079733883527680193 -0.016833211382500473 -0.0087446671807648729 -0.018673437704512203 -0.012365670027824256 -0.01133882988749251 -0.017564364971716647 -0.018763269899230842 -0.013630948367195916 -0.017198480705969112 -0.011121652278520317 -0.016720866061194568 -0.016989275017170367 -0.018665548696942282 -0.012553167466021718 -0.018610471419945027 -0.014058011760086005 -0.017080143520352541 -0.010726400370778646 -0.010567740586639583 -0.017473488897115898 -0.018682648880337407 -0.01370090866190707 -0.011000201702369329 -0.018729787119837211 -0.017142115119601637 -0.018110210901152973 -0.018658952201963005 -0.010902886329534955 -0.018682158495352999 -0.010741871166985991 -0.016640497975894373 -0.018011881617146796 -0.017358599212654004 -0.015846144996075374 -0.017736204849289824 -0.014929083529237275 -0.0088079141219227792 -0.018156661866328149 -0.014650020272873423 -0.011874152985135779 -0.014256971124272828 -0.01405484079824529 -0.018629796718159706 -0.010680936948446206 -0.012527825636593465 -0.017746021001343912 -0.014680010314435853 -0.017753821009201889 -0.013013812578137709 -0.018637231533702739 -0.017895686763279402 -0.01799920722921167 -0.014493303911207381 -0.017770763095348176 -0.010009859989122854 -0.017852044519619612 -0.016814967767664241
leaf_count=1224 20 25 39 74 33 21 20 45 25 27 248 32 23 26 31 20 23 97 39 45 42 127 25 39 34 52 24 36 22 103 72 61 20 25 20 20 454 124 43 44 32 24 170 40 29 36 26 40 30 26 310 20 44 35 136 321 60 38 786 23 514 131
internal_value=0 -1.6466128457072702 -1.6597232581579726 -1.6269071490981424 -1.3098652911307831 -1.139052864708092 -1.7265216962845269 -1.517646491021224 -1.6560363769417072 -1.3742302686743155 -1.6566487990551335 -1.4724057713709773 -1.661613799136757 -1.3703924291492311 -1.4626449566342565 -1.3315989063317626 -1.4580702879357705 -1.6326692658657007 -1.6054008599385539 -1.6235863108683808 -1.7216766523900824 -1.5971196319793686 -1.5538032927510885 -1.5809081204788511 -1.3782165386554042 -1.6208017214450645 -1.580468962882124 -1.3863707469327853 -1.6106059090474647 -1.6248155520876115 -1.6476671254616226 -1.6948077048356363 -1.623833234958993 -1.5763947398753964 -1.5242853159158318 -1.5993621981702499 -1.7497029982447663 -1.7279503888259884 -1.7095226919665236 -1.6605840032344474 -1.4693070243187516 -1.2304091705203768 -1.6824526634893662 -1.6503409006522136 -1.5145371919817554 -1.6762704176904315 -1.6925025181681739 -1.610755646134242 -1.4491946597344063 -1.6225028074611259 -1.7460311196784604 -1.7400497171345166 -1.6275802672253756 -1.4331955510042811 -1.7675946779927061 -1.7378199743445812 -1.5971008141765701 -1.6639440834640555 -1.7670924319791195 -1.7756682571333768 -1.7378406646432945 -1.5798018903437192
internal_count=6395 2245 2088 1400 120 81 688 113 93 48 1280 157 55 102 77 51 48 1032 790 751 242 677 469 444 73 371 319 82 46 145 237 208 147 165 140 120 4150 2258 1804 975 100 56 875 705 113 592 556 220 96 66 336 65 84 55 575 439 118 98 829 1892 668 154
shrinkage=0.01


Tree=9
num_leaves=63
num_cat=0
split_feature=4 6 5 5 5 4 0 2 2 5 5 1 1 5 2 1 5 2 0 1 0 4 4 4 5 2 4 4 5 1 5 4 1 5 2 4 2 5 2 2 4 4 2 2 2 1 2 5 5 5 4 2 4 2 2 4 4 6 4 1 5 1
split_gain=3.7965855967395328 1.2114076047998878 0.90128928824856303 1.4489080763487436 1.4916937512491586 1.2954065830335537 2.1529895860175259 1.2071525413172139 2.5310311398063448 0.85239072294999119 0.6002305770515477 1.1699649872604141 1.699376186208525 1.9155573003960029 2.902122440698772 0.97228143328375438 0.90577857399254746 0.59611909051108114 2.330818290136591 0.63679470245783421 0.57454067779599427 0.74646264551552122 1.2447265298926595 0.99838134944775447 2.2872255723361334 1.7455843190460154 0.91684539227799178 0.60784382784385116 1.0241113687606003 1.0228916437953472 0.57104801265258232 0.553562861987416 0.53430768281572227 0.52751834863624936 0.86329204906729728 0.55751298050923737 0.52656905873395488 0.50518628505778906 0.51455239521897056 4.3651364545747242 0.57628790965338794 0.55606120587574992 0.55006511428734939 0.65279308249643009 1.2356427547472322 2.9455277398462023 0.53197674033201281 0.64393890484844007 0.5001655248452721 0.84624435059819803 2.3145320774053459 0.69676693700654369 0.47064375545349435 0.40479973213234643 0.59735056379302875 0.42922702397071077 0.3939694844210706 0.39111885567183435 0.37526297427595523 0.37330372603753403 0.39675904370562876 1.0862436465618543
threshold=0.83675262640000014 2.5476205269500007 0.47958201910000003 0.39855990275000003 0.39755502265000014 1.5240831535000001 0.8500000000000002 1.0366712572000003 1.0857024993500002 0.45387089175000001 0.32870958950000001 1.2500000000000002 0.45000000000000007 0.31882588455000005 1.2278028894000002 0.75000000000000011 0.32687917365000008 0.62873876790000016 0.8500000000000002 9.9999996826552254e-21 0.65000000000000002 0.60977742380000011 0.72616072340000015 0.71495968790000008 0.36159368805000008 0.8676476632500002 0.6987000911500002 0.68564833285000015 0.40853394595000009 0.75000000000000011 0.35979159965000007 0.85100681710000015 0.15000000000000005 0.41297699250000003 0.8413159130500002 0.73830691915000013 9.9999996826552254e-21 0.33083227520000008 0.53648151425000012 0.43553113700000007 0.86577723415000019 0.89114676370000001 1.5539264490000002 1.3004806581500001 1.1465982214500003 0.95000000000000007 1.7336736948500002 0.37229018515000012 0.39064047875000002 0.38223027470000009 0.96639025440000015 0.62873876790000016 0.90558984930000008 0.76219253340000004 0.81643276725000014 0.89630209080000023 0.91792299750000017 3.2394512253000003 0.90215536190000012 0.8500000000000002 0.36653784980000004 0.55000000000000016
decision_type=2 2 2 2 2 2 2 2 2 2 2 2 2 2 2 2 2 2 2 2 2 2 2 2 2 2 2 2 2 2 2 2 2 2 2 2 2 2 2 2 2 2 2 2 2 2 2 2 2 2 2 2 2 2 2 2 2 2 2 2 2 2
left_child=20 -2 3 4 10 6 36 -5 -9 58 11 12 17 15 16 -14 -15 18 19 -3 33 -22 23 26 25 -25 27 28 32 30 -29 -12 -23 -1 35 -35 -4 -33 39 41 -40 -39 43 44 48 -46 47 -44 49 51 52 -42 -51 -53 -55 -56 -17 -26 -10 60 61 -24
right_child=1 2 5 7 -6 -7 -8 8 9 -11 31 -13 13 14 -16 56 -18 -19 -20 -21 21 22 59 24 57 -27 -28 29 -30 -31 -32 37 -34 34 -36 -37 -38 38 40 -41 42 -43 46 -45 45 -47 -48 -49 -50 50 -52 53 -54 54 55 -57 -58 -59 -60 -61 -62 -63
leaf_value=-0.01768568683775856 -0.011744417568658318 -0.013550413800683392 -0.014939381135803098 -0.017765237643675613 -0.010645624397407061 -0.010733142178053021 -0.011142329603201386 -0.0095671945980521644 -0.015189713999686718 -0.012822606580187815 -0.018045443312726894 -0.018527979049595879 -0.013141950418773623 -0.0046361199577515137 -0.016722482550439673 -0.015211999022197439 -0.010670049950331658 -0.017252936481666366 -0.0091937218808191539 -0.017223586790982369 -0.017856927101305039 -0.0140482401768659 -0.017385639653024636 -0.014900123382994136 -0.018481232220955691 -0.0067151103591140213 -0.018000718663803358 -0.013517658160738024 -0.012872646261159082 -0.011764795982445661 -0.017179300606494266 -0.018509688880742958 -0.016940839486130323 -0.015232127574578177 -0.012476239421155933 -0.018481391766756693 -0.018024347972630882 -0.014720244747517855 -0.01852667027993319 -0.0075359931177042096 -0.014418939036658945 -0.017927929162513394 -0.01061218836162587 -0.018514701392943242 -0.0081131811250247914 -0.018636915805245759 -0.016943462962753064 -0.015439605655432816 -0.018560675750548986 -0.014469722157220642 -0.008611981367953183 -0.018515771005683065 -0.018563655844364767 -0.01394561413476946 -0.014890557426113869 -0.018067878022555411 -0.018635037074760354 -0.015113642548038307 -0.017435601453203713 -0.018288636004997277 -0.017672564045118324 -0.014191843274046743
leaf_count=1785 23 24 32 494 20 25 32 22 36 21 83 49 44 20 22 24 20 125 21 91 454 27 183 22 35 20 170 24 28 29 60 40 537 37 20 50 73 32 49 25 39 68 20 57 23 20 25 25 46 20 20 75 26 26 22 77 31 23 178 194 396 56
internal_value=0 -1.6321468892428845 -1.6368913751060106 -1.6482262212124257 -1.6079344808500835 -1.4928750025023625 -1.5695181856825686 -1.7184834296261771 -1.6069931722444235 -1.6679362150960291 -1.6163738929239169 -1.5593323872531293 -1.5252748856618843 -1.3632518017913391 -1.086864353347865 -1.5363934738499212 -0.76530884326024673 -1.6252735924009911 -1.5333793708037906 -1.6456839394288538 -1.7345663101836395 -1.7129556652059237 -1.6946556813947451 -1.6460627049577148 -1.4561996910733441 -1.0999011840086259 -1.6677739885189637 -1.6358883457390077 -1.6616329326610779 -1.5010744319106493 -1.6132928229599803 -1.649225027063203 -1.6802356048575808 -1.7603636322913352 -1.6235083904837146 -1.7099406368708256 -1.7083490536526564 -1.6316903449929643 -1.619075969223809 -1.5025160336769043 -1.6446372143415491 -1.690163540192642 -1.625079183087496 -1.6507652872446892 -1.6217421777075816 -1.3008625634903603 -1.4596734516960295 -1.3294142566543072 -1.6610730027303842 -1.63166350177789 -1.4305937261992703 -1.6871968202912626 -1.6784283644885147 -1.7350272800200142 -1.6651379465905496 -1.736201505840161 -1.7141867337222867 -1.7144862545302801 -1.7057844146154475 -1.7518247537619474 -1.7282867511640196 -1.6637204956034555
internal_count=6395 2245 2222 2060 1309 162 137 751 257 235 1289 471 422 161 62 99 40 261 136 115 4150 2258 1804 975 100 42 875 705 592 113 84 818 564 1892 107 87 105 735 695 125 570 100 521 451 394 43 70 45 351 305 66 239 46 200 125 99 55 58 214 829 635 239
shrinkage=0.01


Tree=10
num_leaves=63
num_cat=0
split_feature=4 6 0 6 3 5 4 0 5 4 4 4 6 6 5 4 4 4 4 3 1 1 4 3 4 4 4 1 6 4 5 1 4 4 0 5 5 4 1 5 5 4 4 6 1 5 0 4 4 4 6 1 0 4 1 5 5 1 1 5 4 5
split_gain=2.9050007324194667 1.5226471415596734 1.1372124163269746 0.94840675846307931 1.0735787977185964 1.4407695233306441 1.545691532457111 0.8821520732353747 1.1786501659057649 1.0964710567234306 1.5242271128346374 0.91427702294510027 1.9869816053378031 1.1482616509857735 0.78395001715068702 1.9295741229326779 1.108627948709227 1.0964532892324002 1.0925379467214924 0.7645080833733644 0.7056242513979214 2.0051586806334427 1.1727964718429504 1.0656521654100288 0.94518842230024092 0.95516042415072988 0.72646685537677058 0.704741821257727 1.9812286813970772 0.77183046516056208 0.68909675821657856 0.69809676953082089 0.67949451955439599 0.9934141705997348 0.81677622040790254 0.60692441494987293 1.5495752600454722 1.5256443149233689 0.98235038186022905 0.89721165110278278 0.50214356186506848 1.519928269263545 0.94690646083775221 0.42104194375866655 0.65933969299575779 0.54150821401589155 0.69135355883977923 0.46747238830793947 0.40251850371186038 0.75866258934877351 0.57006876458433453 0.83629342976504972 0.84417197831365343 0.96074944792065509 0.58635743227641512 0.39831603806221949 0.3975747886099299 0.39359497478710637 0.92586347299062766 0.38202076992564571 0.63955455469816513 0.38150327555899821
threshold=0.83442184190000013 2.5476205269500007 0.45000000000000007 3.6736043311500004 0.42408725105000006 0.37940742700000002 1.1513691081000001 0.75000000000000011 0.42848568980000007 0.64171451630000009 0.72616072340000015 0.71495968790000008 3.2394512253000003 3.2394512253000003 0.32870958950000001 0.84892372130000016 0.85100681710000015 1.0890288950000002 1.0045916527000001 0.42408725105000006 1.2500000000000002 1.5500000000000003 1.1135945755000003 0.55670399120000014 0.95837650475000002 0.90215536190000012 0.88891822920000008 0.35000000000000003 3.5348264453000007 0.87966407465000018 0.50174639155000011 9.9999996826552254e-21 0.92547731650000009 0.88891822920000008 0.8500000000000002 0.36823902775 0.37940742700000002 0.65880871680000008 0.75000000000000011 0.34720310315000008 0.39855990275000003 1.1031556877500004 0.86321161800000012 3.3903632027500006 0.8500000000000002 0.38490257960000013 0.8500000000000002 0.74494161945000015 0.9428504269500001 0.95837650475000002 3.5348264453000007 0.8500000000000002 0.8500000000000002 1.0303004904000004 0.55000000000000016 0.36131702870000004 0.29958275300000009 0.45000000000000007 0.65000000000000002 0.32817664015000009 0.96327394470000016 0.33786084520000004
decision_type=2 2 2 2 2 2 2 2 2 2 2 2 2 2 2 2 2 2 2 2 2 2 2 2 2 2 2 2 2 2 2 2 2 2 2 2 2 2 2 2 2 2 2 2 2 2 2 2 2 2 2 2 2 2 2 2 2 2 2 2 2 2
left_child=7 -2 30 14 59 6 -6 8 -1 -9 11 13 -13 35 15 -4 -16 18 32 -10 23 22 24 26 25 -22 27 28 -18 -29 31 40 33 34 -17 37 -37 39 -38 -11 41 42 -3 61 45 46 55 -48 -28 -50 57 52 54 -54 -52 -45 -44 -51 -59 60 -5 -12
right_child=1 2 3 4 5 -7 -8 9 19 10 43 12 -14 -15 16 17 20 -19 -20 -21 21 -23 -24 -25 -26 -27 48 29 -30 -31 -32 -33 -34 -35 -36 36 38 -39 -40 -41 -42 -43 56 44 -46 -47 47 -49 49 50 51 -53 53 -55 -56 -57 -58 58 -60 -61 -62 -63
leaf_value=-0.017559162865867738 -0.010967761344616116 -0.013543799979800271 -0.009870513288088632 -0.017842907369342874 -0.016392589382386715 -0.018382061996495013 -0.0085026337100535913 -0.017649274352359398 -0.012933520166394222 -0.010331911470953905 -0.016226361121975584 -0.017228211177360168 -0.010717470415666827 -0.017721697931697897 -0.018372440220825102 -0.013481532057615661 -0.016313286694836341 -0.018467546980580851 -0.011072669653847638 -0.017137239108683561 -0.010378354021770437 -0.017725153760406735 -0.016099110945684753 -0.012070258962709949 -0.0087834146918707202 -0.016507806482045105 -0.017349683108016625 -0.017212638722019113 -0.0091592522970704564 -0.01290129955619428 -0.014514295642505075 -0.017880071811145953 -0.01754219496488528 -0.011971532361981483 -0.018448545866830948 -0.011152315545881178 -0.016572077712828179 -0.017960074676818129 -0.012719671455331989 -0.015786214369187965 -0.01761783552352824 -0.010796773854628712 -0.015072777568693589 -0.012309695328187001 -0.018343801772203194 -0.014316205225842146 -0.014499018227771433 -0.017726554614689281 -0.013680236561951354 -0.018393403410904851 -0.017217931087673 -0.018420619799642518 -0.010102814024955465 -0.015232179963728103 -0.013629927579010426 -0.016317604239261537 -0.017961452479894335 -0.01433523115665631 -0.017681727783061596 -0.018415109388563132 -0.014282833909141122 -0.018037361036855697
leaf_count=2345 21 33 28 68 20 28 20 523 37 20 57 35 41 126 80 24 39 40 27 33 20 57 34 25 29 21 190 70 26 22 39 336 44 37 30 39 112 94 35 31 105 21 24 20 74 50 21 131 42 74 69 37 24 38 25 20 96 49 104 141 29 265
internal_value=0 -1.6343148122593443 -1.6393082405224164 -1.6106538792381973 -1.7112365561839928 -1.4888095902413507 -1.244480669296059 -1.7236019968568019 -1.7482492151540543 -1.6884737989473797 -1.6543361155342451 -1.5750980115062569 -1.3712909115029694 -1.609022961165367 -1.5870696983573582 -1.480735134958999 -1.6098335512080837 -1.5491766441202082 -1.4757116428125703 -1.4915039321736747 -1.5915587073199384 -1.4699090595596194 -1.304103725757525 -1.6150501502639862 -1.155560741905675 -1.3517681205957865 -1.6276700548100567 -1.5050549677002849 -1.3450441580348831 -1.6181441197631252 -1.7099198072967503 -1.7263510539286451 -1.5494305530140906 -1.4504374803804563 -1.6240188385270136 -1.5469372933585133 -1.4710309840261038 -1.6443102339350752 -1.5654147394805404 -1.3647175068180348 -1.6521280746874514 -1.5859715010572699 -1.6555081822715569 -1.7205689775689388 -1.6684922062973599 -1.6177668683041322 -1.6662456166396666 -1.7280654238732538 -1.6571840059633356 -1.6252011277673291 -1.650929953191796 -1.5707191675944214 -1.5063650364744658 -1.3245671248411359 -1.6263169485503537 -1.431340019133492 -1.7383484376842659 -1.7191180204976293 -1.6610046429005239 -1.7747960937642924 -1.6778440798969769 -1.7716761053163501
internal_count=6395 2286 2265 1611 306 68 40 4109 2415 1694 1171 533 76 457 1305 230 1075 202 162 70 995 161 104 834 70 41 809 157 65 92 654 615 135 91 54 331 186 145 147 51 279 174 153 638 316 242 192 152 652 462 420 193 156 62 94 40 120 227 153 238 97 322
shrinkage=0.01


Tree=11
num_leaves=63
num_cat=0
split_feature=0 2 2 3 6 5 2 6 1 5 5 3 5 5 5 5 5 5 2 6 2 5 5 6 5 2 2 1 2 5 1 6 5 2 2 1 5 2 1 0 1 2 2 3 2 5 1 0 2 3 6 5 5 6 6 1 2 2 2 0 3 6
split_gain=1.5093777925476388 1.3031588003495926 2.58786211576097 1.5995400194533431 1.0879005112944924 1.318564445446782 1.5455755850568949 1.2983440712414449 1.1097774191013343 2.6601273487416464 2.555144114388364 1.0155229504922403 1.4279994145412616 0.97249846181833455 0.81893229274930945 2.3516105482601688 0.81317545615559084 1.108866284101623 1.6509939321223897 0.80333073290387347 0.73416307322003149 0.6879768697120312 0.75864330238277589 0.68604662657629234 0.69190098834147662 0.65677497589874179 0.86653721307821385 0.63791489802907364 0.62823429672408793 1.4965767667746945 0.78010059354551231 0.62569169479587572 0.7428989341084673 0.61711099241135514 1.733197315626434 0.57745656521731803 0.89132301934130709 0.56155414435025364 0.60436160538314709 0.75370940227035987 0.55042903126428655 1.2046126522905922 1.3625592337645216 1.0525722744321726 0.95603254343307498 0.46669673302513104 0.45694653316623146 1.6868360144688879 0.50619135234406087 0.44175389092077211 0.42432908030402672 0.35280304880632229 0.34047125204756412 0.31405735398041656 0.38349119888194139 0.28767891224333653 0.93021750866495267 0.49038158956767575 1.3233157212144704 1.2255505472725261 1.1333074754639725 0.4763210719091262
threshold=0.75000000000000011 0.89215327680000012 0.90915481105000018 0.50024987510000007 3.0811388301000004 0.45387089175000001 0.66778547845000003 3.5348264453000007 0.25000000000000006 0.37516648170000005 0.39855990275000003 0.42408725105000006 0.30265419760000006 0.38111663890000008 0.31456317920000004 0.32007810595000002 0.40963391020000006 0.38639349505000004 1.1505433178000002 3.2394512253000003 1.0275881845000001 0.4361191895 0.52052857530000007 3.3903632027500006 0.39755502265000014 0.53648151425000012 0.47335229060000006 0.65000000000000002 1.2278028894000002 0.32687917365000008 0.25000000000000006 3.2394512253000003 0.36653784980000004 0.81028542060000019 0.86367671460000006 0.8500000000000002 0.32931746725000005 0.87553553220000013 0.8500000000000002 0.8500000000000002 0.75000000000000011 1.3179055139500002 1.2159101461500001 0.42408725105000006 1.1390785419500002 0.41755238765000008 1.0500000000000003 0.65000000000000002 1.3179055139500002 0.34603945240000006 3.5348264453000007 0.40149717870000007 0.35979159965000007 2.1180339887500002 1.2071067812000003 0.35000000000000003 0.60699047255000005 1.1684658669500003 0.98789547780000009 0.8500000000000002 0.39981245115000003 9.9999996826552254e-21
decision_type=2 2 2 2 2 2 2 2 2 2 2 2 2 2 2 2 2 2 2 2 2 2 2 2 2 2 2 2 2 2 2 2 2 2 2 2 2 2 2 2 2 2 2 2 2 2 2 2 2 2 2 2 2 2 2 2 2 2 2 2 2 2
left_child=1 3 13 -1 55 6 7 8 52 -10 -11 12 -9 -3 -8 -16 17 28 33 35 45 -5 -23 -20 -25 26 -14 -7 29 -17 -31 32 -32 -19 -35 53 -37 -33 39 -39 41 42 43 44 -22 -21 48 -48 -42 -41 -51 -36 -6 54 -4 61 -57 58 -58 -60 -61 -2
right_child=4 2 19 21 5 27 14 11 9 10 -12 -13 25 -15 15 16 -18 18 23 20 40 22 -24 24 -26 -27 -28 -29 -30 30 31 37 -34 34 51 36 -38 38 -40 49 46 -43 -44 -45 -46 -47 47 -49 -50 50 -52 -53 -54 -55 -56 56 57 -59 59 60 -62 -63
leaf_value=-0.017323814191187531 -0.01450179940092889 -0.014419513860258495 -0.018218652263044484 -0.016941211398408589 -0.015799709666337279 -0.011586460399375324 -0.01769780193761758 -0.01114737010659745 -0.017515854042064821 -0.0064943164092005736 -0.016218610200550508 -0.0099663474745351147 -0.016527416929748663 -0.0082298175130961874 -0.010251989226316902 -0.012042658425443767 -0.017771744136793777 -0.018218183324666782 -0.010872855340069992 -0.017846556526110894 -0.017409655564965289 -0.010655423628752589 -0.015503172730568011 -0.012106752316231206 -0.01674089921387531 -0.016971023032821286 -0.010826296607258638 -0.015293600951052902 -0.017528635720647497 -0.012960619998855566 -0.01249833880988036 -0.017977392923225432 -0.016979863038825902 -0.010174706875323885 -0.017609045359399639 -0.01222954895717787 -0.017054313040170192 -0.012736207674072532 -0.01830777707461765 -0.018225359127339 -0.018271894425004188 -0.018262126128746021 -0.0091216485861736231 -0.010764445982048745 -0.012196518352602692 -0.014623193969254935 -0.018277083071181428 -0.011595295226133761 -0.014758139895208428 -0.013404045682374546 -0.016948102729974435 -0.014621386115373565 -0.018225465420379519 -0.018219495261355294 -0.014378076607430268 -0.013446337041132001 -0.017204964420350428 -0.017566498130257704 -0.018302074923469178 -0.01549987119071934 -0.010705265490633996 -0.017546697569854771
leaf_count=2771 22 21 21 29 33 36 215 39 56 24 20 24 22 20 25 32 167 49 38 103 49 26 26 26 26 62 21 39 226 23 28 158 32 20 58 20 68 29 44 35 59 28 22 21 20 22 31 30 23 25 30 22 80 189 21 34 242 239 26 43 37 368
internal_value=0 -1.7044406506395009 -1.630981040507905 -1.7242332783068544 -1.6421515514393414 -1.6120409662239066 -1.6236212684028224 -1.5110257716335933 -1.6152374381103227 -1.4610632044913145 -1.0913701788800236 -1.3790563644370031 -1.4428057302331181 -1.1399360818312236 -1.6564273212288831 -1.634130228872648 -1.6483934304053107 -1.6245258847728981 -1.5072352657845727 -1.658684271076954 -1.599639077425252 -1.4461966835324123 -1.3081557829280244 -1.2924379633865959 -1.4423610592528193 -1.5647189085603226 -1.3741286272891762 -1.3514976598397468 -1.6668835509457196 -1.6223239598327723 -1.6554694321435759 -1.6771595201310001 -1.4888212013749991 -1.6370323725229454 -1.54655873038661 -1.7342379659948601 -1.5957376914587815 -1.7123616166507016 -1.6296414307400324 -1.555238762018005 -1.5430095473285019 -1.4534655591441232 -1.36030087731282 -1.4698611423654269 -1.5898372424146445 -1.7278961200934235 -1.6306734279462021 -1.4990251992178536 -1.7286343194611562 -1.6460246133668799 -1.5337617108707249 -1.678755648305067 -1.7516944069429687 -1.7870182215819281 -1.6298310517565804 -1.694714868246592 -1.6678560597318863 -1.6865688817786073 -1.6384369986594527 -1.4513264989606378 -1.3282175402065068 -1.7374990570218889
internal_count=6395 3620 768 2852 2775 1764 1689 381 213 100 44 168 144 41 1308 1093 1068 901 239 727 408 81 52 90 52 105 43 75 662 436 404 381 60 149 100 319 88 321 163 119 283 140 112 90 69 125 143 61 82 90 55 80 113 231 42 1011 621 587 348 106 80 390
shrinkage=0.01


Tree=12
num_leaves=63
num_cat=0
split_feature=0 2 2 3 6 5 2 6 1 5 5 3 5 5 5 5 5 5 2 6 2 5 5 6 5 2 2 1 2 5 1 6 5 2 2 1 5 2 1 0 1 2 2 3 2 5 1 0 2 3 6 5 5 6 6 1 2 2 2 0 3 5
split_gain=1.4900221984953532 1.2860495877566791 2.5482095820390214 1.5795007233195975 1.0734750371091195 1.2995034826790288 1.5227292601332465 1.2798140165699863 1.0932162044900622 2.6188038033795138 2.5129662808232087 0.99910130614257753 1.4055659517618153 0.95648863389764749 0.80675412802986557 2.3153237105261724 0.80119358217086756 1.0926519763648912 1.6258308883524819 0.79215513910645541 0.72349176675294302 0.67791638149310529 0.74548893954600359 0.67495450397485968 0.68112832576535709 0.64739490410985212 0.85295873357735985 0.62734256326568527 0.61915770116956992 1.474161020116469 0.76810203782912367 0.61629672033177485 0.73153290674102323 0.60850812541855248 1.7056622426518189 0.56929285932420726 0.87782636811147796 0.55379869006370086 0.59502427145827141 0.74231188086923794 0.54192879159907648 1.1863116680452492 1.3405418069921708 1.0366915134922579 0.94150701614177734 0.45999343411025961 0.45018346970499579 1.6609769936193999 0.49865846181911877 0.4354604726614113 0.41767258211636715 0.34743230627802291 0.33559927244655796 0.30951671523646951 0.37781134191780907 0.2839281436448573 0.9158999573525648 0.48306988534778839 1.3049846032804169 1.2068066829166995 1.1151413729540991 0.47039655447187556
threshold=0.75000000000000011 0.89215327680000012 0.90915481105000018 0.50024987510000007 3.0811388301000004 0.45387089175000001 0.66778547845000003 3.5348264453000007 0.25000000000000006 0.37516648170000005 0.39855990275000003 0.42408725105000006 0.30265419760000006 0.38111663890000008 0.31456317920000004 0.32007810595000002 0.40963391020000006 0.38639349505000004 1.1505433178000002 3.2394512253000003 1.0275881845000001 0.4361191895 0.52052857530000007 3.3903632027500006 0.39755502265000014 0.53648151425000012 0.47335229060000006 0.65000000000000002 1.2278028894000002 0.32687917365000008 0.25000000000000006 3.2394512253000003 0.36653784980000004 0.81028542060000019 0.86367671460000006 0.8500000000000002 0.32931746725000005 0.87553553220000013 0.8500000000000002 0.8500000000000002 0.75000000000000011 1.3179055139500002 1.2159101461500001 0.42408725105000006 1.1390785419500002 0.41755238765000008 1.0500000000000003 0.65000000000000002 1.3179055139500002 0.34603945240000006 3.5348264453000007 0.40149717870000007 0.35979159965000007 2.1180339887500002 1.2071067812000003 0.35000000000000003 0.60699047255000005 1.1684658669500003 0.98789547780000009 0.8500000000000002 0.39981245115000003 0.30265419760000006
decision_type=2 2 2 2 2 2 2 2 2 2 2 2 2 2 2 2 2 2 2 2 2 2 2 2 2 2 2 2 2 2 2 2 2 2 2 2 2 2 2 2 2 2 2 2 2 2 2 2 2 2 2 2 2 2 2 2 2 2 2 2 2 2
left_child=1 3 13 -1 55 6 7 8 52 -10 -11 12 -9 -3 -8 -16 17 28 33 35 45 -5 -23 -20 -25 26 -14 -7 29 -17 -31 32 -32 -19 -35 53 -37 -33 39 -39 41 42 43 44 -22 -21 48 -48 -42 -41 -51 -36 -6 54 -4 -2 -57 58 61 -60 -61 -58
right_child=4 2 19 21 5 27 14 11 9 10 -12 -13 25 -15 15 16 -18 18 23 20 40 22 -24 24 -26 -27 -28 -29 -30 30 31 37 -34 34 51 36 -38 38 -40 49 46 -43 -44 -45 -46 -47 47 -49 -50 50 -52 -53 -54 -55 -56 56 57 -59 59 60 -62 -63
leaf_value=-0.017181446336101261 -0.017232201231673884 -0.014295744896802673 -0.018070278807413159 -0.016799010682324107 -0.01566657860376218 -0.011483314721295761 -0.017551905449714304 -0.011047127328655353 -0.017371563338806011 -0.0064334237339011245 -0.016082794756720916 -0.0098757282310823445 -0.016387572575741575 -0.0081538607347940682 -0.010159333545041919 -0.011935702779533043 -0.0176254870617116 -0.018069823939986449 -0.010775343515216555 -0.017700134402983285 -0.017266103722921637 -0.010558962292618839 -0.015367120237944214 -0.011999567979982903 -0.016600698830233095 -0.016829632261423526 -0.010727843169897012 -0.015161891836976747 -0.017384150883137047 -0.012847812876123353 -0.012388617350184315 -0.01783024942863844 -0.016838955691346282 -0.01008310915284071 -0.017462912884390884 -0.012121690745011713 -0.016912915245191746 -0.012624352467173756 -0.018157088486478071 -0.018076819010396365 -0.018122138342282271 -0.018112621490945932 -0.00903835121840579 -0.010666885957926588 -0.012089185216531122 -0.014497624769589275 -0.018127188799545561 -0.01149201707094452 -0.014631916053603283 -0.013287770086507396 -0.016806517622761315 -0.01449585708849477 -0.018076917529199585 -0.018071101316322325 -0.014255088802865204 -0.01333029036999025 -0.014185637036365596 -0.017421787448418335 -0.018151526473196598 -0.015367813923500531 -0.010608875626172824 -0.01733655008378673
leaf_count=2771 390 21 21 29 33 36 215 39 56 24 20 24 22 20 25 32 167 49 38 103 49 26 26 26 26 62 21 39 226 23 28 158 32 20 58 20 68 29 44 35 59 28 22 21 20 22 31 30 23 25 30 22 80 189 21 34 21 239 26 43 37 221
internal_value=0 -1.6903576036427361 -1.6173233152248281 -1.7100384311709622 -1.6284169477233945 -1.5984839803989215 -1.6099915162504397 -1.4981503541426433 -1.6017097294280529 -1.4485889384860311 -1.0816351910066175 -1.367050511168681 -1.4303377589347639 -1.1297925590421394 -1.6425831283730321 -1.620435710273709 -1.6346047358846938 -1.6108961346981574 -1.4943829745843726 -1.6448435895887024 -1.58616699448262 -1.4335744418783412 -1.2964948137827124 -1.2811117328992654 -1.4299367236170968 -1.5514012953055885 -1.3620771530638383 -1.3396704248242965 -1.6529809206187789 -1.6087108197501339 -1.641642453513477 -1.6631869305549238 -1.4761325899749165 -1.6233069703570508 -1.5334094568946439 -1.7199389688074673 -1.5823158062195672 -1.6981570173122922 -1.6159486639926812 -1.5420724603923548 -1.5299120976914111 -1.4410024034447562 -1.3485045059510683 -1.4572796816770817 -1.5764726868138956 -1.713603266543432 -1.6169699852121269 -1.486211402554632 -1.7142935269897437 -1.6322576418042229 -1.5207252368663999 -1.6646919013180463 -1.7372761333363584 -1.7723970390439643 -1.616223800994611 -1.6806768391796341 -1.6539721165226213 -1.6725590150825203 -1.624749466121993 -1.4388210911927213 -1.3166040815987019 -1.7063214058788012
internal_count=6395 3620 768 2852 2775 1764 1689 381 213 100 44 168 144 41 1308 1093 1068 901 239 727 408 81 52 90 52 105 43 75 662 436 404 381 60 149 100 319 88 321 163 119 283 140 112 90 69 125 143 61 82 90 55 80 113 231 42 1011 621 587 348 106 80 242
shrinkage=0.01


Tree=13
num_leaves=63
num_cat=0
split_feature=0 2 2 3 6 5 2 6 1 5 5 3 5 5 5 5 2 6 5 5 2 2 5 5 6 5 6 2 1 2 2 1 2 2 1 2 2 3 2 1 5 2 2 0 6 5 1 0 2 6 3 2 2 5 5 6 6 1 6 1 2 2
split_gain=1.4716875239946603 1.2697923193677525 2.5103456399055517 1.5605353448484038 1.0597709974347254 1.2814047742265302 1.5009762915528881 1.262209733657329 1.0774292269145178 2.5792144939548791 2.4722080642699034 0.98331740291358471 1.384090729845866 0.94101407524747671 0.79522208685170881 2.2816059727300626 1.1415864153998339 0.78156752371268112 0.73677054334859804 1.1794528667960549 1.601852241282927 0.71334870560431796 0.66832057100551623 0.73285694817289482 0.66429682877040364 0.67084173237256906 0.64270399901469943 0.88725270308841431 0.6172029175222562 0.60037704583811546 1.679314818401572 0.56160029806355283 0.86819905331647362 0.57370854923530601 0.53382758136049802 1.1689039385413196 1.3193555389819309 1.0214881636280495 0.92768038231550065 0.52772332080235174 0.50776387656316047 0.53236405836935319 1.0191370123132231 1.2776999479522075 0.59425979776164439 0.45366518419471902 0.44376005663808371 1.6363540537419823 0.49155189489109574 0.44049639037393717 0.49835988882711035 0.46236309508913109 0.34962079158485437 0.34235165143468294 0.33101865016246279 0.30524383657402154 0.37244239858361894 0.29502595000459664 0.28049424471711859 0.28038813824559838 0.90230971578182562 0.47615670227924056
threshold=0.75000000000000011 0.89215327680000012 0.90915481105000018 0.50024987510000007 3.0811388301000004 0.45387089175000001 0.66778547845000003 3.5348264453000007 0.25000000000000006 0.37516648170000005 0.39855990275000003 0.42408725105000006 0.30265419760000006 0.38111663890000008 0.31456317920000004 0.32062435290000008 1.0085571258000001 3.2394512253000003 0.40963391020000006 0.38639349505000004 1.1505433178000002 1.0275881845000001 0.4361191895 0.52052857530000007 3.3903632027500006 0.39755502265000014 3.6736043311500004 0.54054363045000009 0.65000000000000002 0.81028542060000019 0.86367671460000006 0.8500000000000002 1.1465982214500003 1.4857656618000001 0.75000000000000011 1.3179055139500002 1.2159101461500001 0.42408725105000006 1.1390785419500002 0.25000000000000006 0.35874779520000005 1.2278028894000002 0.8676476632500002 0.8500000000000002 3.3903632027500006 0.41755238765000008 1.0500000000000003 0.65000000000000002 1.3179055139500002 3.5348264453000007 0.42408725105000006 0.75931709950000015 1.5539264490000002 0.40149717870000007 0.35979159965000007 2.1180339887500002 1.2071067812000003 0.25000000000000006 3.3903632027500006 0.35000000000000003 0.60699047255000005 1.1684658669500003
decision_type=2 2 2 2 2 2 2 2 2 2 2 2 2 2 2 2 2 2 2 2 2 2 2 2 2 2 2 2 2 2 2 2 2 2 2 2 2 2 2 2 2 2 2 2 2 2 2 2 2 2 2 2 2 2 2 2 2 2 2 2 2 2
left_child=1 3 13 -1 59 6 7 8 54 -10 -11 12 -9 -3 -8 16 -16 31 19 39 29 45 -5 -24 -22 -26 27 -14 -7 -21 -31 55 -33 -34 35 36 37 38 -23 -17 41 42 -41 -44 -45 -19 48 -48 -36 50 51 -42 -43 -32 -6 56 -4 -29 -53 -2 -61 -62
right_child=4 2 17 22 5 28 14 11 9 10 -12 -13 26 -15 15 18 -18 21 -20 20 24 34 23 -25 25 -27 -28 57 -30 30 53 32 33 -35 46 -37 -38 -39 -40 40 49 52 43 44 -46 -47 47 -49 -50 -51 -52 58 -54 -55 -56 -57 -58 -59 -60 60 61 -63
leaf_value=-0.017042505603950705 -0.017092867104500666 -0.014174310491132403 -0.017925759974554551 -0.016660125686937151 -0.015536264675868022 -0.011381725587711647 -0.017409633942329451 -0.010948353851557202 -0.017230803294158416 -0.0063731964583629529 -0.015949956391769309 -0.0097863286329559779 -0.01188872337016684 -0.0080788154632887438 -0.0080168897226335616 -0.013820391507959679 -0.014586329162600171 -0.01755739703999764 -0.017482886869435724 -0.017925318730760049 -0.010679226648217998 -0.017126033176765407 -0.010463867526107203 -0.015233898881111983 -0.01189406663052024 -0.016463712111833971 -0.018059016106884623 -0.018007650121050125 -0.015032863631538787 -0.0099927528750028728 -0.017320383539550201 -0.012008462261358913 -0.017970248158671053 -0.013912333967686787 -0.01797628764782714 -0.017967013492995728 -0.0089561085729199883 -0.010570721300730454 -0.011983543286326439 -0.016881545455912476 -0.014086286760127052 -0.017941189939511201 -0.0097349995883399248 -0.012739184563668442 -0.016902564090970788 -0.014374466925919514 -0.017981205605126151 -0.011390298963469013 -0.014508142016633254 -0.017969584904541678 -0.014160277671925117 -0.017942401247590695 -0.015307936785840899 -0.014372737940089697 -0.017932230534234109 -0.017926562700692313 -0.014134410199642828 -0.014772176730255469 -0.016301071358598564 -0.013216259503403899 -0.016113693226982383 -0.017280632765957801
leaf_count=2771 390 21 21 29 33 36 215 39 56 24 20 24 32 20 20 29 23 103 167 49 38 49 26 26 26 26 27 21 39 20 58 20 48 20 59 28 22 21 20 75 21 64 24 23 35 22 31 30 23 139 31 100 30 22 80 189 21 25 73 34 348 239
internal_value=0 -1.6766074214780657 -1.6039737658942299 -1.6961832765575175 -1.6149932598884325 -1.5852277657398814 -1.5966669504063953 -1.4855414855640481 -1.5884867573425787 -1.4363684566385786 -1.072051697616099 -1.3552666972324361 -1.4181114682945246 -1.1198049066662783 -1.629055891479765 -1.6070495603316537 -1.1530234766150722 -1.6313212634848717 -1.6256723395817476 -1.6024916502232851 -1.4817938179202998 -1.572991733905333 -1.4211976240281028 -1.2850371692455052 -1.269978914932627 -1.4177509018245058 -1.5383667457715084 -1.4457915726584656 -1.3280534883716149 -1.6098922185090754 -1.5205373090910308 -1.7059870471388785 -1.5691849292102735 -1.6776797449728562 -1.5170917839619225 -1.4287859428923428 -1.3369243185346509 -1.4449475686497533 -1.5633975720182423 -1.6473170230173002 -1.6598313491308894 -1.590197975450701 -1.5185075637749754 -1.3635708768288637 -1.5252052265316576 -1.6996544405432295 -1.6035752458207122 -1.4736593937523248 -1.700298961010593 -1.7078672113195628 -1.6528277871009176 -1.6907286746051966 -1.7100281582961194 -1.6509532262765334 -1.7232117192421759 -1.758145652180461 -1.6029196942812027 -1.6249220437225134 -1.724969677135054 -1.6669678713877876 -1.6404071229737591 -1.6588757316179246
internal_count=6395 3620 768 2852 2775 1764 1689 381 213 100 44 168 144 41 1308 1093 43 727 1050 883 239 408 81 52 90 52 105 78 75 149 100 319 88 68 283 140 112 90 69 644 615 251 157 82 58 125 143 61 82 364 225 194 94 80 113 231 42 46 173 1011 621 587
shrinkage=0.01


Tree=14
num_leaves=63
num_cat=0
split_feature=4 0 5 4 4 4 5 5 4 2 2 5 4 0 2 3 0 5 3 2 2 2 3 2 2 4 1 1 5 5 0 3 2 2 5 5 2 2 1 4 2 3 2 4 5 2 0 2 2 5 4 5 4 2 4 5 5 5 5 4 4 4
split_gain=2.8261126141651403 0.83822321605384786 1.1579559852350485 1.068497227522812 1.5358418033430326 0.89979549651388879 1.5767765901304784 0.97711658619829223 1.8426164461888277 1.3912567573754302 1.7661429064826208 1.4983868063267778 0.83612204274370683 0.82343464846803727 1.8847706112441074 1.7381985109976981 1.2453584648309146 0.98446905722567379 0.9652959969598669 0.88985484230153133 2.1013490793853435 0.80115314509004776 0.75182501136362845 0.66798378513703938 0.91429165203965113 0.91546295589171223 0.70891214837354255 1.0003660017124503 3.4276449769558184 0.93017911962232347 1.6219223477667697 1.5963145136521497 1.6868633161367761 1.4448481493100758 0.96607074044931096 4.4622806516138489 1.3472918985879332 0.64492044195159792 0.58760819030061739 0.57558893411390954 0.6159994145207861 0.77757437679332497 0.78179858626344867 1.0632787614370116 0.87034860815293769 0.56814816834531712 0.90903246361325785 1.068131668686739 0.77237823619789125 0.48432246489283415 0.48218685639952241 0.43685039375545642 0.4273932648962635 0.42521339728385144 0.35468580434076102 0.39208787645168286 0.77263014025055554 0.36031347520315649 1.2946287664119325 1.1161196678026215 1.2360488365830449 0.80644107704365808
threshold=0.83442184190000013 0.75000000000000011 0.42848568980000007 0.64171451630000009 0.72616072340000015 0.71495968790000008 0.35979159965000007 0.37060755395000006 0.65478215345000013 0.99420182945000002 1.1684658669500003 0.37940742700000002 0.72033623565000016 0.55000000000000016 0.54054363045000009 0.44715768680000006 0.75000000000000011 0.35846893940000008 0.50024987510000007 0.86367671460000006 0.93691647025000013 0.5774404097000001 0.42408725105000006 0.74098748675000026 0.76750404464999999 0.85845334655000016 1.5500000000000003 1.3500000000000003 0.39006409205000009 0.37155079795000007 0.75000000000000011 0.42408725105000006 1.1265267332500002 1.2278028894000002 0.32687917365000008 0.31456317920000004 1.0085571258000001 0.65978211850000001 0.15000000000000005 0.88401787430000012 1.4719247258500001 0.53079872135000006 1.2673790896000001 1.0709026656500003 0.51956632320000018 0.66778547845000003 0.8500000000000002 0.5774404097000001 0.62873876790000016 0.3582596755500001 0.87966407465000018 0.40466034670000001 0.92845067715000018 0.57527161085000011 0.74794760480000011 0.35440087485000005 0.33786084520000004 0.38255717970000008 0.38639349505000004 0.70728207385000008 0.71652412240000007 0.73573696605000005
decision_type=2 2 2 2 2 2 2 2 2 2 2 2 2 2 2 2 2 2 2 2 2 2 2 2 2 2 2 2 2 2 2 2 2 2 2 2 2 2 2 2 2 2 2 2 2 2 2 2 2 2 2 2 2 2 2 2 2 2 2 2 2 2
left_child=1 2 54 -3 5 7 -7 8 49 11 -11 -9 -8 18 15 16 -15 -18 19 -2 -21 38 -4 45 -25 -26 27 29 -29 30 31 32 -27 34 35 52 -36 53 -20 -31 41 42 44 51 -41 46 -16 -48 -49 -5 -22 -44 -32 -13 57 56 -56 -1 -59 -60 -61 -62
right_child=13 3 22 4 -6 6 12 9 -10 10 -12 37 -14 14 23 -17 17 -19 21 20 50 -23 -24 24 25 26 -28 28 -30 39 33 -33 -34 -35 36 -37 -38 -39 -40 40 -42 -43 43 -45 -46 -47 47 48 -50 -51 -52 -53 -54 -55 55 -57 -58 58 59 60 61 -63
leaf_value=-0.016994670002457628 -0.016933009469812937 -0.017095702120726114 -0.012398675218750686 -0.010521767819701917 -0.016667294544063654 -0.0084881004700110233 -0.012863732532535616 -0.01078798041908329 -0.017093123966350092 -0.0074596434240973642 -0.014988630669092357 -0.016431909303218299 -0.0178976954771379 -0.014630762483348204 -0.01708435905393978 -0.017948581416681202 -0.012911135061275293 -0.0073827065859325839 -0.010074007538639343 -0.010781574633132325 -0.013836511884849341 -0.016786134030853113 -0.01658159271977586 -0.012370003034340613 -0.017435530971798903 -0.017920596008387812 -0.017318199995318129 -0.016890313541131977 -0.0081727549952654976 -0.013586508898828656 -0.013891562111780966 -0.0074764543352560013 -0.0098410782472745737 -0.017376730655009526 -0.01789415374152346 -0.0046653008733586812 -0.012219773532601674 -0.017816805021968345 -0.014441829682430869 -0.016863768083624504 -0.017920864039916964 -0.012799569190161161 -0.013822332936604427 -0.010511496299824332 -0.012790985381522979 -0.017523556977511064 -0.01795366569789332 -0.010890519672427242 -0.015284134515798155 -0.014619469973430332 -0.017356169233100308 -0.017934762587323495 -0.017957931965110505 -0.012806757415971856 -0.017184783995864542 -0.017774599630116506 -0.013722385453609745 -0.012189304193448259 -0.017426737600769335 -0.010750110013814254 -0.017779197276646178 -0.01342189611715466
leaf_count=1350 559 523 37 22 638 21 32 23 221 23 28 29 23 36 106 23 23 30 20 34 20 33 33 37 99 22 72 41 33 38 20 23 20 87 43 21 28 62 33 277 69 31 20 22 23 135 24 34 31 25 75 22 22 24 206 413 30 29 221 23 45 28
internal_value=0 -1.6681782312249349 -1.6922958637357597 -1.633818005650417 -1.6000063925544552 -1.5202013797138312 -1.3174072947986626 -1.5539839790595975 -1.6322341714385651 -1.4430710538624336 -1.1589810649064853 -1.5482245202777498 -1.4968202661333057 -1.5798081466715537 -1.5524695229521062 -1.301376185457491 -1.1741026179043081 -0.97822013512593475 -1.6332597597056304 -1.6584611550110793 -1.5077090313832975 -1.432384487769844 -1.4369551487003955 -1.5726035062072645 -1.5481785678787088 -1.5593155956618339 -1.5398069015341622 -1.5237767179299166 -1.299937433297236 -1.5448010587270906 -1.4531534321270749 -1.1736515761695521 -1.4072565730327087 -1.5354151946605894 -1.4043432881589013 -1.2229952048628765 -1.5654291710180441 -1.6421306591352502 -1.27931162487616 -1.5970326315168202 -1.6165402375892175 -1.5858702292186204 -1.6119677882893499 -1.4098895978372836 -1.6550785490282991 -1.6518421584808749 -1.582334212868771 -1.4323881303254888 -1.2983945646277368 -1.2700923107682145 -1.6615196151049629 -1.597731654069247 -1.6021781993821944 -1.4789713972193195 -1.6999261077488947 -1.7400039895450585 -1.6744594336664138 -1.6845907747078881 -1.6265610510696824 -1.6638526845510002 -1.4823768933069279 -1.6107954677863945
internal_count=6395 4109 2415 1694 1171 533 76 457 268 189 51 138 55 2286 1512 112 89 53 774 688 129 86 70 1400 1070 1033 934 862 74 788 286 65 42 221 134 63 71 115 53 502 464 395 364 64 300 330 195 89 65 47 95 42 42 53 2345 649 236 1696 346 317 96 73
shrinkage=0.01


Tree=15
num_leaves=63
num_cat=0
split_feature=3 6 5 2 0 2 5 3 5 5 6 6 6 1 2 2 2 2 5 5 0 5 2 2 2 2 0 5 5 2 2 3 2 5 5 0 5 5 2 5 1 5 1 5 5 2 2 3 2 2 6 5 5 5 5 2 0 5 1 5 5 5
split_gain=1.8389445427710598 1.6659354475691543 1.4131553702241035 1.459442306224382 1.3345281249917207 1.8169592458782517 2.3188039636196294 1.4269410783786363 1.3242738821514592 1.1385169751765289 1.445430849124179 0.61888821181582898 1.1883345094106517 1.8330306435236139 2.8870050652737405 0.77851765293897301 0.62200040606785478 0.71299331485278117 1.1921261054279917 1.00436819506794 1.097295951152681 1.2497720258069442 0.8375117574293256 0.72916981545762383 1.6275675633032947 0.64108856096023459 0.52642429288723491 0.50386117741334147 1.4420585989682024 0.50646621063142661 0.48390073610153195 0.63315400175360992 0.47385570918103781 0.47282862255428881 0.69374743480625511 0.69386446751181552 0.83061838446063518 0.76067577392960573 1.5373994709954601 0.58751826613695357 0.50262974761182022 0.74681833894088356 1.021288138220477 0.54031230791055762 0.48978676497671358 0.79808965038226631 1.1375655924764132 0.55451818148869947 0.48465987821616352 1.7389926447895121 0.44285551156252723 0.57756820060600944 0.42096675084253832 0.40464310275722326 0.37460517105137114 0.6633800345306895 0.4364319528089311 0.31897591843174666 0.31747836232193549 0.30398370447484524 0.29125465507868853 0.75738854078566931
threshold=0.53079872135000006 3.0811388301000004 0.50174639155000011 0.91292796580000013 0.55000000000000016 0.89215327680000012 0.38736287360000005 0.42408725105000006 0.41988086800000007 0.46097690385000006 3.2394512253000003 3.6736043311500004 3.5348264453000007 0.95000000000000007 1.2927683248000001 0.49717944575000006 1.1565033190500003 1.0447786740000002 0.35078482710000009 0.32031230955000006 0.75000000000000011 0.29196817915000006 0.61415587215000012 0.79863161825000006 0.82215416065000013 0.52291243120000008 0.8500000000000002 0.32870958950000001 0.31456317920000004 1.1930789352000002 0.51082032695000013 0.31567387245000006 1.0857024993500002 0.31456317920000004 0.36159368805000008 0.8500000000000002 0.3256531807000001 0.36131702870000004 0.9550850607000001 0.37516648170000005 1.0500000000000003 0.38639349505000004 1.4500000000000002 0.40853394595000009 0.38490257960000013 0.70156072470000008 0.79274047530000014 0.39993749025000008 0.65978211850000001 0.54457544715000006 3.5348264453000007 0.35277413905000005 0.28591121250000007 0.30124712085000005 0.29470313070000004 0.50155996945000014 0.25000000000000006 0.28844389370000006 0.15000000000000005 0.37060755395000006 0.32817664015000009 0.33786084520000004
decision_type=2 2 2 2 2 2 2 2 2 2 2 2 2 2 2 2 2 2 2 2 2 2 2 2 2 2 2 2 2 2 2 2 2 2 2 2 2 2 2 2 2 2 2 2 2 2 2 2 2 2 2 2 2 2 2 2 2 2 2 2 2 2
left_child=1 30 4 -4 5 54 50 -8 -2 -10 -11 12 33 14 16 -13 17 19 -19 20 52 -22 25 -24 -25 -21 -27 28 -17 -30 31 -1 -15 -6 35 36 -35 38 -38 -36 44 -42 43 -43 45 -41 -47 -48 49 -37 -7 53 -14 -52 55 56 57 -3 -46 -26 -50 -62
right_child=8 2 3 -5 11 6 7 -9 9 10 -12 15 13 32 -16 27 -18 18 -20 22 21 -23 23 24 59 26 -28 -29 29 -31 -32 -33 -34 34 39 48 37 -39 -40 40 41 42 -44 -45 58 46 47 -49 60 -51 51 -53 -54 -55 -56 -57 -58 -59 -60 -61 61 -63
leaf_value=-0.013766906918090946 -0.017787789769032315 -0.016669520686029306 -0.0087506558809477709 -0.016084394312245807 -0.016977031500035902 -0.017677412043029053 -0.0090370134263070834 -0.015007970073893696 -0.0098275897963226375 -0.017903020058248568 -0.011843932031265533 -0.013171042071507051 -0.01368832372635715 -0.014200345178132286 -0.0089866067062334565 -0.017348564506873245 -0.017738196367793942 -0.015769275904026013 -0.0090420412077367417 -0.015751130859605788 -0.013669381468065464 -0.0081145160283963794 -0.01708723336603148 -0.009659622433347061 -0.014653686224388783 -0.010452786000025624 -0.014520385230173632 -0.01749200753232338 -0.011710641412842259 -0.015774671280070714 -0.01652283706885331 -0.017339121996150106 -0.017399435941604997 -0.010446505982224916 -0.01699718748555645 -0.017672839700844396 -0.017121986295991282 -0.011645832486426396 -0.011970114526104305 -0.017696129710386359 -0.017698571725601665 -0.010685777273732487 -0.016679462398905588 -0.014277649126807091 -0.014038219835912294 -0.0096020756788317788 -0.017690014125962838 -0.013411338682612479 -0.017774423838459237 -0.0096202781478059735 -0.015776974630339204 -0.017758884814503783 -0.017689062847987547 -0.011722890399641866 -0.016962591195748788 -0.017684280989055147 -0.012360874423525349 -0.013548113034641355 -0.016525331050757631 -0.016998666770507681 -0.012685461179375334 -0.016746902445082385
leaf_count=21 27 40 22 22 168 56 37 29 35 27 39 26 20 22 37 101 28 20 23 39 48 25 131 20 39 28 24 187 33 20 1794 535 129 22 237 24 72 27 35 28 27 34 36 34 22 20 22 28 45 20 20 23 23 20 1064 49 23 20 407 53 24 84
